{"learner":{"attributes":{"scikit_learn":"{\"_estimator_type\": \"regressor\"}"},"feature_names":["news_count_5d","days_since_news","sentiment_gap","body_sentiment_gap","sentiment_shock","body_sentiment_5d_mean","title_sentiment_5d_mean","negative_news_spike_5d","body_sentiment_decay_3d","fomc_sentiment","fomc_recent_5d","sentiment_divergence","body_emb_0","body_emb_1","body_emb_2","body_emb_3","body_emb_4","body_emb_5","body_emb_6","body_emb_7","body_emb_8","body_emb_9","body_emb_10","body_emb_11","body_emb_12","body_emb_13","body_emb_14","body_emb_15","body_emb_16","body_emb_17","body_emb_18","body_emb_19","body_emb_20","body_emb_21","body_emb_22","body_emb_23","body_emb_24","body_emb_25","body_emb_26","body_emb_27","body_emb_28","body_emb_29","ret_3","ret_5","ret_accel","price_to_ma_5","slope_5","bb_pos_5","bb_width_5","macd_hist","rsi_14","vol_5","vol_shock","vix_z_score_5","drawdown","vol_ratio_5","rel_strength_5","uup_ret_5","tlt_shock_5","hyg_ret_5","target_spy_rel_ret_5","target_tlt_rel_ret_5"],"feature_types":["float","float","float","float","float","float","float","float","float","float","float","float","float","float","float","float","float","float","float","float","float","float","float","float","float","float","float","float","float","float","float","float","float","float","float","float","float","float","float","float","float","float","float","float","float","float","float","float","float","float","float","float","float","float","float","float","float","float","float","float","float","float"],"gradient_booster":{"model":{"cats":{"enc":[],"feature_segments":[],"sorted_idx":[]},"gbtree_model_param":{"num_parallel_tree":"1","num_trees":"100"},"iteration_indptr":[0,1,2,3,4,5,6,7,8,9,10,11,12,13,14,15,16,17,18,19,20,21,22,23,24,25,26,27,28,29,30,31,32,33,34,35,36,37,38,39,40,41,42,43,44,45,46,47,48,49,50,51,52,53,54,55,56,57,58,59,60,61,62,63,64,65,66,67,68,69,70,71,72,73,74,75,76,77,78,79,80,81,82,83,84,85,86,87,88,89,90,91,92,93,94,95,96,97,98,99,100],"tree_info":[0,0,0,0,0,0,0,0,0,0,0,0,0,0,0,0,0,0,0,0,0,0,0,0,0,0,0,0,0,0,0,0,0,0,0,0,0,0,0,0,0,0,0,0,0,0,0,0,0,0,0,0,0,0,0,0,0,0,0,0,0,0,0,0,0,0,0,0,0,0,0,0,0,0,0,0,0,0,0,0,0,0,0,0,0,0,0,0,0,0,0,0,0,0,0,0,0,0,0,0],"trees":[{"base_weights":[8.239457E-3,5.8808017E-1,-1.8217532E-1,3.717189E-1,2.5001314E0,-1.08397E0,-7.598467E-2,5.144756E-1,-2.8935647E0,3.3244379E0,-5.654665E-1,-7.847258E-1,-5.242349E0,-1.8832475E-1,9.564883E-1,2.5762345E-3,2.1789948E-2,-5.49544E-3,-5.86834E-2,1.488083E-2,4.2389244E-2,4.696511E-3,-2.158521E-2,2.5597794E-2,-1.1927183E-2,-7.640552E-2,-7.4505536E-3,-5.9425854E-4,-1.3495352E-2,-1.1410522E-2,1.4906454E-2],"categories":[],"categories_nodes":[],"categories_segments":[],"categories_sizes":[],"default_left":[0,0,0,0,0,0,0,0,0,0,0,0,0,0,0,0,0,0,0,0,0,0,0,0,0,0,0,0,0,0,0],"id":0,"left_children":[1,3,5,7,9,11,13,15,17,19,21,23,25,27,29,-1,-1,-1,-1,-1,-1,-1,-1,-1,-1,-1,-1,-1,-1,-1,-1],"loss_changes":[1.2818301E2,1.1780078E2,8.361378E1,1.22219154E2,7.516266E1,1.1036829E2,9.099881E1,1.0437096E2,6.821591E1,2.6528442E1,1.1632229E1,1.04032745E2,5.1414337E1,1.0261508E2,7.6273415E1,0E0,0E0,0E0,0E0,0E0,0E0,0E0,0E0,0E0,0E0,0E0,0E0,0E0,0E0,0E0,0E0],"parents":[2147483647,0,0,1,1,2,2,3,3,4,4,5,5,6,6,7,7,8,8,9,9,10,10,11,11,12,12,13,13,14,14],"right_children":[2,4,6,8,10,12,14,16,18,20,22,24,26,28,30,-1,-1,-1,-1,-1,-1,-1,-1,-1,-1,-1,-1,-1,-1,-1,-1],"split_conditions":[-1.4200399E-2,4.303807E-1,-2.7417606E-2,3.4107786E-2,5.4749302E1,8.888334E-2,1.8858023E0,1.1815729E-2,-3.458653E-2,-4.833335E-2,3.2381844E-2,-1.6136717E-2,-1.7827824E-3,6.662365E-2,-1.0064512E-2,2.5762345E-3,2.1789948E-2,-5.49544E-3,-5.86834E-2,1.488083E-2,4.2389244E-2,4.696511E-3,-2.158521E-2,2.5597794E-2,-1.1927183E-2,-7.640552E-2,-7.4505536E-3,-5.9425854E-4,-1.3495352E-2,-1.1410522E-2,1.4906454E-2],"split_indices":[61,8,58,44,50,18,49,57,43,16,58,59,13,48,44,0,0,0,0,0,0,0,0,0,0,0,0,0,0,0,0],"split_type":[0,0,0,0,0,0,0,0,0,0,0,0,0,0,0,0,0,0,0,0,0,0,0,0,0,0,0,0,0,0,0],"sum_hessian":[1.159E3,2.86E2,8.73E2,2.58E2,2.8E1,9.1E1,7.82E2,2.48E2,1E1,2.2E1,6E0,8.6E1,5E0,7.06E2,7.6E1,2.13E2,3.5E1,6E0,4E0,7E0,1.5E1,4E0,2E0,8E0,7.8E1,3E0,2E0,6.32E2,7.4E1,1.4E1,6.2E1],"tree_param":{"num_deleted":"0","num_feature":"62","num_nodes":"31","size_leaf_vector":"1"}},{"base_weights":[5.982685E-2,1.1735703E-1,-2.9168346E0,1.023147E0,-7.573925E-2,-5.203585E-1,-5.070241E0,1.1350187E0,-4.994034E0,1.0945612E0,-1.6272469E-1,-1.8238018E0,6.7121553E-1,-6.603888E0,-1.6023582E0,5.7361755E-3,2.7676571E-2,-8.0589406E-2,1.6737936E-2,6.667776E-3,4.1780133E-2,-1.8774686E-2,-8.1144774E-4,-8.304977E-3,-2.6960477E-2,8.533988E-5,1.618831E-2,-7.710187E-2,-5.57998E-3,-2.1655122E-2,1.5405336E-3],"categories":[],"categories_nodes":[],"categories_segments":[],"categories_sizes":[],"default_left":[0,0,0,0,0,0,0,0,0,0,0,0,0,0,0,0,0,0,0,0,0,0,0,0,0,0,0,0,0,0,0],"id":1,"left_children":[1,3,5,7,9,11,13,15,17,19,21,23,25,27,29,-1,-1,-1,-1,-1,-1,-1,-1,-1,-1,-1,-1,-1,-1,-1,-1],"loss_changes":[2.0772348E2,2.0803914E2,1.16055145E2,1.4635716E2,1.0004304E2,1.9861954E1,5.3240326E1,1.8159576E2,8.459849E1,8.75637E1,1.2695967E2,2.6364117E0,4.07766E0,3.4422333E1,4.458618E0,0E0,0E0,0E0,0E0,0E0,0E0,0E0,0E0,0E0,0E0,0E0,0E0,0E0,0E0,0E0,0E0],"parents":[2147483647,0,0,1,1,2,2,3,3,4,4,5,5,6,6,7,7,8,8,9,9,10,10,11,11,12,12,13,13,14,14],"right_children":[2,4,6,8,10,12,14,16,18,20,22,24,26,28,30,-1,-1,-1,-1,-1,-1,-1,-1,-1,-1,-1,-1,-1,-1,-1,-1],"split_conditions":[1.2252475E-1,-2.3470318E-2,-2.4610553E-2,4.2191114E-2,-1.3071437E-2,-8.409414E-2,1.2078308E-2,2.4335823E-5,1.9761294E-3,2.1826325E-2,-1.889836E-2,2.4185135E0,1.5607965E-1,4.6241552E-1,1.5855494E0,5.7361755E-3,2.7676571E-2,-8.0589406E-2,1.6737936E-2,6.667776E-3,4.1780133E-2,-1.8774686E-2,-8.1144774E-4,-8.304977E-3,-2.6960477E-2,8.533988E-5,1.618831E-2,-7.710187E-2,-5.57998E-3,-2.1655122E-2,1.5405336E-3],"split_indices":[31,61,32,44,56,30,37,56,3,51,43,7,3,3,7,0,0,0,0,0,0,0,0,0,0,0,0,0,0,0,0],"split_type":[0,0,0,0,0,0,0,0,0,0,0,0,0,0,0,0,0,0,0,0,0,0,0,0,0,0,0,0,0,0,0],"sum_hessian":[1.21E3,1.188E3,2.2E1,2.08E2,9.8E2,1.1E1,1.1E1,2.05E2,3E0,6.7E1,9.13E2,5E0,6E0,7E0,4E0,1.49E2,5.6E1,2E0,1E0,5.9E1,8E0,4.4E1,8.69E2,3E0,2E0,4E0,2E0,6E0,1E0,3E0,1E0],"tree_param":{"num_deleted":"0","num_feature":"62","num_nodes":"31","size_leaf_vector":"1"}},{"base_weights":[4.7879633E-2,9.639173E-2,-2.8167284E0,1.4550097E-1,-2.178275E0,7.093194E-1,-5.2265368E0,7.256737E-1,-2.2827247E-2,-4.617149E0,6.777922E-2,1.4513302E0,-6.0583986E-3,-1.2966585E0,-6.3924227E0,9.076514E-3,-4.8301075E-2,7.786609E-4,-1.7848734E-2,-6.516598E-2,-1.1278311E-2,2.4735305E-2,-8.095171E-3,1.7687459E-2,1.18067E-3,-1.6458377E-2,-2.353104E-3,-7.7212356E-2,-1.9800354E-2],"categories":[],"categories_nodes":[],"categories_segments":[],"categories_sizes":[],"default_left":[0,0,0,0,0,0,0,0,0,0,0,0,0,0,0,0,0,0,0,0,0,0,0,0,0,0,0,0,0],"id":2,"left_children":[1,3,5,7,9,11,13,15,17,19,21,23,-1,25,27,-1,-1,-1,-1,-1,-1,-1,-1,-1,-1,-1,-1,-1,-1],"loss_changes":[1.6689432E2,1.321314E2,1.7364926E2,1.12910866E2,1.37259E2,9.460318E0,4.6692688E1,2.0575302E2,1.4784494E2,6.2502853E1,2.9075558E1,1.7747164E0,0E0,8.508816E-1,2.6888245E1,0E0,0E0,0E0,0E0,0E0,0E0,0E0,0E0,0E0,0E0,0E0,0E0,0E0,0E0],"parents":[2147483647,0,0,1,1,2,2,3,3,4,4,5,5,6,6,7,7,8,8,9,9,10,10,11,11,13,13,14,14],"right_children":[2,4,6,8,10,12,14,16,18,20,22,24,-1,26,28,-1,-1,-1,-1,-1,-1,-1,-1,-1,-1,-1,-1,-1,-1],"split_conditions":[1.2252475E-1,5.033727E-2,-2.4610553E-2,-1.908304E-2,8.0882543E-1,4.819888E-3,-7.684137E-2,3.5732687E-2,1.3865846E-1,6.507525E-2,2.9484744E-3,1.5735982E-1,-6.0583986E-3,-4.9151614E-2,3.2478712E-2,9.076514E-3,-4.8301075E-2,7.786609E-4,-1.7848734E-2,-6.516598E-2,-1.1278311E-2,2.4735305E-2,-8.095171E-3,1.7687459E-2,1.18067E-3,-1.6458377E-2,-2.353104E-3,-7.7212356E-2,-1.9800354E-2],"split_indices":[31,42,32,61,49,22,35,51,6,42,56,5,0,2,20,0,0,0,0,0,0,0,0,0,0,0,0,0,0],"split_type":[0,0,0,0,0,0,0,0,0,0,0,0,0,0,0,0,0,0,0,0,0,0,0,0,0,0,0,0,0],"sum_hessian":[1.198E3,1.179E3,1.9E1,1.155E3,2.4E1,8E0,1.1E1,2.59E2,8.96E2,1.1E1,1.3E1,5E0,3E0,3E0,8E0,2.53E2,6E0,8.48E2,4.8E1,7E0,4E0,3E0,1E1,4E0,1E0,2E0,1E0,6E0,2E0],"tree_param":{"num_deleted":"0","num_feature":"62","num_nodes":"29","size_leaf_vector":"1"}},{"base_weights":[-2.8768217E-2,2.1990472E-2,-2.431549E0,1.0461777E0,-1.0314413E-1,3.5278592E-1,-4.6444397E0,-7.17246E-2,1.1618307E0,-1.3177165E-1,4.928634E0,-1.7973814E0,1.2692174E0,-1.242744E0,-5.8808436E0,8.5412E-3,3.0983109E-2,-1.20569E-2,-1.5033803E-4,5.786233E-2,9.517646E-3,-2.533777E-2,-8.09669E-3,2.3272573E-3,2.1494312E-2,-1.5027288E-2,-2.3408362E-3,-8.353143E-2,-2.2402097E-2],"categories":[],"categories_nodes":[],"categories_segments":[],"categories_sizes":[],"default_left":[0,0,0,0,0,0,0,0,0,0,0,0,0,0,0,0,0,0,0,0,0,0,0,0,0,0,0,0,0],"id":3,"left_children":[1,3,5,7,9,11,13,-1,15,17,19,21,23,25,27,-1,-1,-1,-1,-1,-1,-1,-1,-1,-1,-1,-1,-1,-1],"loss_changes":[1.4738356E2,1.5185085E2,1.5567422E2,1.262249E2,1.5276343E2,2.592704E1,5.157379E1,0E0,7.694273E1,1.26348335E2,9.888489E0,6.9638634E-1,6.997658E0,6.867542E-1,6.2295227E1,0E0,0E0,0E0,0E0,0E0,0E0,0E0,0E0,0E0,0E0,0E0,0E0,0E0,0E0],"parents":[2147483647,0,0,1,1,2,2,3,3,4,4,5,5,6,6,8,8,9,9,10,10,11,11,12,12,13,13,14,14],"right_children":[2,4,6,8,10,12,14,-1,16,18,20,22,24,26,28,-1,-1,-1,-1,-1,-1,-1,-1,-1,-1,-1,-1,-1,-1],"split_conditions":[1.2252475E-1,-3.365635E-2,-2.6228126E-2,-2.2402413E-2,3.90663E-2,-1.7611189E-1,-7.684137E-2,-7.17246E-2,2.4497645E-1,-1.0849417E0,2E0,-4.1084683E-1,2.1484385E-1,-8.710399E-3,3.1550266E-2,8.5412E-3,3.0983109E-2,-1.20569E-2,-1.5033803E-4,5.786233E-2,9.517646E-3,-2.533777E-2,-8.09669E-3,2.3272573E-3,2.1494312E-2,-1.5027288E-2,-2.3408362E-3,-8.353143E-2,-2.2402097E-2],"split_indices":[31,61,32,57,51,28,35,0,8,49,1,3,11,6,15,0,0,0,0,0,0,0,0,0,0,0,0,0,0],"split_type":[0,0,0,0,0,0,0,0,0,0,0,0,0,0,0,0,0,0,0,0,0,0,0,0,0,0,0,0,0],"sum_hessian":[1.207E3,1.183E3,2.4E1,1.28E2,1.055E3,1.1E1,1.3E1,1E0,1.27E2,1.05E3,5E0,3E0,8E0,4E0,9E0,1.08E2,1.9E1,1.07E2,9.43E2,4E0,1E0,1E0,2E0,4E0,4E0,3E0,1E0,5E0,4E0],"tree_param":{"num_deleted":"0","num_feature":"62","num_nodes":"29","size_leaf_vector":"1"}},{"base_weights":[6.845497E-2,1.9570684E-2,2.467185E0,7.745962E-2,-4.960383E0,5.265589E0,1.1697721E0,-1.0249627E-1,8.989623E-1,-8.783322E0,9.6360034E-1,7.035534E-2,2.5727738E-2,2.1513178E0,4.3880925E-1,3.3288743E-2,-1.4837827E-3,1.3913902E-2,-3.5677596E-3,-1.0927025E-2,-1.1664879E-1,3.0968104E-2,-8.154801E-3,2.4520176E-2,4.951191E-3,1.3011202E-2,-2.1036598E-3],"categories":[],"categories_nodes":[],"categories_segments":[],"categories_sizes":[],"default_left":[0,0,0,0,0,0,0,0,0,0,0,0,0,0,0,0,0,0,0,0,0,0,0,0,0,0,0],"id":4,"left_children":[1,3,5,7,9,11,13,15,17,19,21,-1,-1,23,25,-1,-1,-1,-1,-1,-1,-1,-1,-1,-1,-1,-1],"loss_changes":[1.3503546E2,3.2614536E2,7.734625E1,1.6537082E2,3.0287506E2,1.2375809E1,1.1253029E1,1.2085763E2,1.0908441E2,1.3703076E2,2.3337698E1,0E0,0E0,1.2336388E0,5.9522357E0,0E0,0E0,0E0,0E0,0E0,0E0,0E0,0E0,0E0,0E0,0E0,0E0],"parents":[2147483647,0,0,1,1,2,2,3,3,4,4,5,5,6,6,7,7,8,8,9,9,10,10,13,13,14,14],"right_children":[2,4,6,8,10,12,14,16,18,20,22,-1,-1,24,26,-1,-1,-1,-1,-1,-1,-1,-1,-1,-1,-1,-1],"split_conditions":[2.5561836E-2,3.90663E-2,-1.0715466E-2,1.4375646E-2,-4.3537438E-2,1.5693915E0,9.4523984E-1,-7.164572E-2,6.978504E1,-3.7369464E-2,3E0,7.035534E-2,2.5727738E-2,8E0,3.756044E-2,3.3288743E-2,-1.4837827E-3,1.3913902E-2,-3.5677596E-3,-1.0927025E-2,-1.1664879E-1,3.0968104E-2,-8.154801E-3,2.4520176E-2,4.951191E-3,1.3011202E-2,-2.1036598E-3],"split_indices":[60,51,45,58,8,52,52,43,50,44,0,0,0,1,43,0,0,0,0,0,0,0,0,0,0,0,0],"split_type":[0,0,0,0,0,0,0,0,0,0,0,0,0,0,0,0,0,0,0,0,0,0,0,0,0,0,0],"sum_hessian":[1.151E3,1.129E3,2.2E1,1.117E3,1.2E1,6E0,1.6E1,9.17E2,2E2,7E0,5E0,3E0,3E0,6E0,1E1,1E1,9.07E2,1.48E2,5.2E1,2E0,5E0,2E0,3E0,5E0,1E0,4E0,6E0],"tree_param":{"num_deleted":"0","num_feature":"62","num_nodes":"27","size_leaf_vector":"1"}},{"base_weights":[9.541967E-2,1.4301467E-1,-3.933173E0,9.2161816E-1,-4.3836873E-2,-9.434228E0,2.9156296E0,6.2456805E-1,3.1208608E0,-1.2613666E0,3.340788E-2,-1.5407295E-2,-1.0802221E-1,-1.735246E-2,5.0803866E0,7.6684793E-3,-4.0801708E-2,3.7839897E-2,1.6600441E-3,-3.2135532E-3,-3.6348704E-2,5.830143E-2,8.923806E-5,1.5241374E-2,5.8596186E-2],"categories":[],"categories_nodes":[],"categories_segments":[],"categories_sizes":[],"default_left":[0,0,0,0,0,0,0,0,0,0,0,0,0,0,0,0,0,0,0,0,0,0,0,0,0],"id":5,"left_children":[1,3,5,7,9,11,13,15,17,19,21,-1,-1,-1,23,-1,-1,-1,-1,-1,-1,-1,-1,-1,-1],"loss_changes":[2.2988454E2,1.721471E2,5.549657E2,1.4765312E2,8.985777E1,4.3607178E1,7.785382E1,1.0500648E2,4.0056183E1,1.1979176E2,1.2411544E2,0E0,0E0,0E0,1.5423737E0,0E0,0E0,0E0,0E0,0E0,0E0,0E0,0E0,0E0,0E0],"parents":[2147483647,0,0,1,1,2,2,3,3,4,4,5,5,6,6,7,7,8,8,9,9,10,10,14,14],"right_children":[2,4,6,8,10,12,14,16,18,20,22,-1,-1,-1,24,-1,-1,-1,-1,-1,-1,-1,-1,-1,-1],"split_conditions":[3.90663E-2,-2.0404914E-2,-4.3537438E-2,3.9159614E-1,-2.075334E-2,-2.2110991E-1,-1.3647179E-2,1.9463664E0,5.4749302E1,4.7616974E1,-1.9180795E-2,-1.5407295E-2,-1.0802221E-1,-1.735246E-2,1E0,7.6684793E-3,-4.0801708E-2,3.7839897E-2,1.6600441E-3,-3.2135532E-3,-3.6348704E-2,5.830143E-2,8.923806E-5,1.5241374E-2,5.8596186E-2],"split_indices":[51,61,8,8,43,3,4,49,50,50,59,0,0,0,1,0,0,0,0,0,0,0,0,0,0],"split_type":[0,0,0,0,0,0,0,0,0,0,0,0,0,0,0,0,0,0,0,0,0,0,0,0,0],"sum_hessian":[1.195E3,1.182E3,1.3E1,2.28E2,9.54E2,7E0,6E0,2.02E2,2.6E1,5.6E1,8.98E2,1E0,6E0,2E0,4E0,1.98E2,4E0,2.2E1,4E0,4E1,1.6E1,3E0,8.95E2,1E0,3E0],"tree_param":{"num_deleted":"0","num_feature":"62","num_nodes":"25","size_leaf_vector":"1"}},{"base_weights":[-1.4673766E-3,2.9683994E-2,-4.533808E0,2.4906983E0,-1.5517917E-2,-9.613128E-2,1.21430114E-1,3.3955193E0,-2.2036705E0,-1.649979E-1,6.782046E-1,7.949479E-3,-5.600058E-1,1.3828735E-2,6.064738E-2,-3.1236175E-2,8.986573E-4,-1.2763644E-3,-2.7341716E-2,8.930315E-3,-2.0779936E-2,-3.0612817E-4,-8.452692E-3],"categories":[],"categories_nodes":[],"categories_segments":[],"categories_sizes":[],"default_left":[0,0,0,0,0,0,0,0,0,0,0,0,0,0,0,0,0,0,0,0,0,0,0],"id":6,"left_children":[1,3,5,7,9,-1,11,13,15,17,19,-1,21,-1,-1,-1,-1,-1,-1,-1,-1,-1,-1],"loss_changes":[1.6546648E2,1.2952498E2,1.7562007E2,9.668143E1,1.18742004E2,0E0,2.6108053E0,8.2454926E1,7.5125713E0,9.8258766E1,9.8360146E1,0E0,3.7521023E-1,0E0,0E0,0E0,0E0,0E0,0E0,0E0,0E0,0E0,0E0],"parents":[2147483647,0,0,1,1,2,2,3,3,4,4,6,6,7,7,8,8,9,9,10,10,12,12],"right_children":[2,4,6,8,10,-1,12,14,16,18,20,-1,22,-1,-1,-1,-1,-1,-1,-1,-1,-1,-1],"split_conditions":[1.6377603E-1,-3.1870803E-1,9.688313E-1,5E0,1.761837E-2,-9.613128E-2,-1.4013775E-1,4E-1,2.6106014E-4,1.7495083E-2,3.7512E-2,7.949479E-3,2E0,1.3828735E-2,6.064738E-2,-3.1236175E-2,8.986573E-4,-1.2763644E-3,-2.7341716E-2,8.930315E-3,-2.0779936E-2,-3.0612817E-4,-8.452692E-3],"split_indices":[48,54,55,1,58,0,2,10,4,57,42,0,0,0,0,0,0,0,0,0,0,0,0],"split_type":[0,0,0,0,0,0,0,0,0,0,0,0,0,0,0,0,0,0,0,0,0,0,0],"sum_hessian":[1.17E3,1.163E3,7E0,2E1,1.143E3,3E0,4E0,1.7E1,3E0,9.41E2,2.02E2,2E0,2E0,1E1,7E0,2E0,1E0,9.26E2,1.5E1,1.9E2,1.2E1,1E0,1E0],"tree_param":{"num_deleted":"0","num_feature":"62","num_nodes":"23","size_leaf_vector":"1"}},{"base_weights":[-3.672244E-2,7.130386E-1,-2.1314427E-1,5.348961E-1,4.632128E0,5.432175E0,-2.3580702E-1,-1.7876774E-1,1.189091E0,2.012912E-2,5.7496894E-2,6.538483E-2,1.5205981E-2,-2.0900472E-1,-5.4579787E0,1.6524156E-3,-6.191886E-2,7.659263E-3,2.8692242E-2,-1.0258243E-3,-1.2826296E-2,-1.0358113E-1,8.730016E-3],"categories":[],"categories_nodes":[],"categories_segments":[],"categories_sizes":[],"default_left":[0,0,0,0,0,0,0,0,0,0,0,0,0,0,0,0,0,0,0,0,0,0,0],"id":7,"left_children":[1,3,5,7,9,11,13,15,17,-1,-1,-1,-1,19,21,-1,-1,-1,-1,-1,-1,-1,-1],"loss_changes":[1.6179108E2,1.6019276E2,1.2794001E2,1.047926E2,1.3185577E1,4.1838455E0,1.3700594E2,2.1071474E2,8.1079636E1,0E0,0E0,0E0,0E0,1.1091577E2,1.4920102E2,0E0,0E0,0E0,0E0,0E0,0E0,0E0,0E0],"parents":[2147483647,0,0,1,1,2,2,3,3,4,4,5,5,6,6,7,7,8,8,13,13,14,14],"right_children":[2,4,6,8,10,12,14,16,18,-1,-1,-1,-1,20,22,-1,-1,-1,-1,-1,-1,-1,-1],"split_conditions":[-2.07565E-2,9.7662255E-2,-6.416988E-2,-6.847241E-4,1.4367236E-2,8.935624E-4,3.90663E-2,3.5732687E-2,9.25919E-3,2.012912E-2,5.7496894E-2,6.538483E-2,1.5205981E-2,4.959665E-2,-1.15157984E-1,1.6524156E-3,-6.191886E-2,7.659263E-3,2.8692242E-2,-1.0258243E-3,-1.2826296E-2,-1.0358113E-1,8.730016E-3],"split_indices":[61,30,59,8,51,2,51,51,57,0,0,0,0,31,6,0,0,0,0,0,0,0,0],"split_type":[0,0,0,0,0,0,0,0,0,0,0,0,0,0,0,0,0,0,0,0,0,0,0],"sum_hessian":[1.221E3,2.32E2,9.89E2,2.23E2,9E0,3E0,9.86E2,1.07E2,1.16E2,3E0,6E0,2E0,1E0,9.82E2,4E0,1.02E2,5E0,9.1E1,2.5E1,8.87E2,9.5E1,2E0,2E0],"tree_param":{"num_deleted":"0","num_feature":"62","num_nodes":"23","size_leaf_vector":"1"}},{"base_weights":[1.9925954E-2,-4.677208E0,4.7891922E-2,-1.1593327E-1,-8.413783E-2,2.2755935E0,1.4398975E-3,-1.5538119E-2,8.746955E-3,3.7056923E-1,3.3939037E0,-6.182893E-1,1.9647276E-1,2.7032845E-2,-1.6087458E-2,4.2969696E-2,3.7975472E-3,-4.8448164E-3,-6.732211E-2,3.5088874E-2,1.5497062E-3],"categories":[],"categories_nodes":[],"categories_segments":[],"categories_sizes":[],"default_left":[0,0,0,0,0,0,0,0,0,0,0,0,0,0,0,0,0,0,0,0,0],"id":8,"left_children":[1,3,5,7,-1,9,11,-1,-1,13,15,17,19,-1,-1,-1,-1,-1,-1,-1,-1],"loss_changes":[1.5536005E2,1.0736656E2,1.2158719E2,6.4985795E0,0E0,4.9872124E1,1.3936089E2,0E0,0E0,4.6516228E1,3.1541458E1,2.445834E2,1.3247058E2,0E0,0E0,0E0,0E0,0E0,0E0,0E0,0E0],"parents":[2147483647,0,0,1,1,2,2,3,3,5,5,6,6,9,9,10,10,11,11,12,12],"right_children":[2,4,6,8,-1,10,12,-1,-1,14,16,18,20,-1,-1,-1,-1,-1,-1,-1,-1],"split_conditions":[-1.391047E-1,2.2843963E-2,-3.1634182E-1,-3.1211627E-1,-8.413783E-2,-1.3904082E-2,-8.749429E-2,-1.5538119E-2,8.746955E-3,4.4379323E-3,-3.556496E-3,3.5732687E-2,-2.8903466E-2,2.7032845E-2,-1.6087458E-2,4.2969696E-2,3.7975472E-3,-4.8448164E-3,-6.732211E-2,3.5088874E-2,1.5497062E-3],"split_indices":[37,2,54,3,0,45,8,0,0,4,6,51,59,0,0,0,0,0,0,0,0],"split_type":[0,0,0,0,0,0,0,0,0,0,0,0,0,0,0,0,0,0,0,0,0],"sum_hessian":[1.18E3,6E0,1.174E3,3E0,3E0,2.3E1,1.151E3,1E0,2E0,9E0,1.4E1,2.75E2,8.76E2,4E0,5E0,1.1E1,3E0,2.69E2,6E0,1.2E1,8.64E2],"tree_param":{"num_deleted":"0","num_feature":"62","num_nodes":"21","size_leaf_vector":"1"}},{"base_weights":[-4.4303995E-2,-2.619883E-2,-7.368187E-2,4.2012286E-1,-2.416703E-1,-3.0683694E0,5.520541E-1,-3.80884E-1,9.279501E-1,1.0942206E-2,-6.556405E-2,4.1349497E-2,4.6434677E-3,1.7769327E-2,-4.7981422E-3,-1.8293165E-3,1.6791036E-2],"categories":[],"categories_nodes":[],"categories_segments":[],"categories_sizes":[],"default_left":[0,0,0,0,0,0,0,0,0,0,0,0,0,0,0,0,0],"id":9,"left_children":[1,3,-1,5,7,9,11,13,15,-1,-1,-1,-1,-1,-1,-1,-1],"loss_changes":[1.4831013E2,1.1223527E2,0E0,1.7658551E2,1.2849843E2,1.921993E2,1.319365E2,1.17154594E2,6.352896E1,0E0,0E0,0E0,0E0,0E0,0E0,0E0,0E0],"parents":[2147483647,0,0,1,1,3,3,4,4,5,5,6,6,7,7,8,8],"right_children":[2,4,-1,6,8,10,12,14,16,-1,-1,-1,-1,-1,-1,-1,-1],"split_conditions":[6.2072758E-2,1.2190459E0,-7.368187E-2,-1.6402905E-1,1.8914126E-1,-3.6794245E-3,-2.1907048E-2,-2.9955408E-1,1.4842616E0,1.0942206E-2,-6.556405E-2,4.1349497E-2,4.6434677E-3,1.7769327E-2,-4.7981422E-3,-1.8293165E-3,1.6791036E-2],"split_indices":[58,55,0,24,5,19,44,54,55,0,0,0,0,0,0,0,0],"split_type":[0,0,0,0,0,0,0,0,0,0,0,0,0,0,0,0,0],"sum_hessian":[1.167E3,1.165E3,2E0,3.79E2,7.86E2,1.3E1,3.66E2,7.03E2,8.3E1,6E0,7E0,1E1,3.56E2,2.5E1,6.78E2,3.2E1,5.1E1],"tree_param":{"num_deleted":"0","num_feature":"62","num_nodes":"17","size_leaf_vector":"1"}},{"base_weights":[1.0752078E-2,-1.1455173E-1,8.327404E-1,-6.516853E-2,-2.4841933E0,2.322461E0,2.5045583E-1,4.4528177E-1,-3.1020883E-1,-9.033671E0,1.435808E0,-2.4103465E0,2.727553E0,-2.598344E0,4.3278122E-1,3.3496816E-3,4.5434885E-2,-1.9928638E-3,-1.710161E-2,-1.03389494E-1,-1.4915302E-2,-6.4058066E-3,4.454164E-2,-3.9790343E-2,-6.9835423E-3,2.214122E-2,5.587313E-2,-3.4988448E-2,-4.9031256E-3,6.587592E-3,-1.6480694E-2],"categories":[],"categories_nodes":[],"categories_segments":[],"categories_sizes":[],"default_left":[0,0,0,0,0,0,0,0,0,0,0,0,0,0,0,0,0,0,0,0,0,0,0,0,0,0,0,0,0,0,0],"id":10,"left_children":[1,3,5,7,9,11,13,15,17,19,21,23,25,27,29,-1,-1,-1,-1,-1,-1,-1,-1,-1,-1,-1,-1,-1,-1,-1,-1],"loss_changes":[1.2225134E2,1.203692E2,1.356066E2,1.2646984E2,5.521239E2,9.093213E1,6.0337093E1,1.5775607E2,1.0785441E2,3.9454285E1,8.4021484E1,7.231331E0,5.378607E1,9.7019615E0,4.4268906E1,0E0,0E0,0E0,0E0,0E0,0E0,0E0,0E0,0E0,0E0,0E0,0E0,0E0,0E0,0E0,0E0],"parents":[2147483647,0,0,1,1,2,2,3,3,4,4,5,5,6,6,7,7,8,8,9,9,10,10,11,11,12,12,13,13,14,14],"right_children":[2,4,6,8,10,12,14,16,18,20,22,24,26,28,30,-1,-1,-1,-1,-1,-1,-1,-1,-1,-1,-1,-1,-1,-1,-1,-1],"split_conditions":[3.596349E-1,3.4024652E-2,-4.2343475E-3,1.2085797E0,-4.3537438E-2,-2.7417606E-2,-1.3887945E-2,2.7172916E-2,7.844397E1,7E0,9.25919E-3,5E0,5.6189685E-3,8.935624E-4,6.4884946E-2,3.3496816E-3,4.5434885E-2,-1.9928638E-3,-1.710161E-2,-1.03389494E-1,-1.4915302E-2,-6.4058066E-3,4.454164E-2,-3.9790343E-2,-6.9835423E-3,2.214122E-2,5.587313E-2,-3.4988448E-2,-4.9031256E-3,6.587592E-3,-1.6480694E-2],"split_indices":[8,51,45,55,8,58,44,51,50,0,57,0,56,2,30,0,0,0,0,0,0,0,0,0,0,0,0,0,0,0,0],"split_type":[0,0,0,0,0,0,0,0,0,0,0,0,0,0,0,0,0,0,0,0,0,0,0,0,0,0,0,0,0,0,0],"sum_hessian":[1.185E3,1.029E3,1.56E2,1.009E3,2E1,4.3E1,1.13E2,3.27E2,6.82E2,7E0,1.3E1,3E0,4E1,6E0,1.07E2,3.18E2,9E0,6.27E2,5.5E1,6E0,1E0,8E0,5E0,1E0,2E0,3.4E1,6E0,4E0,2E0,9.8E1,9E0],"tree_param":{"num_deleted":"0","num_feature":"62","num_nodes":"31","size_leaf_vector":"1"}},{"base_weights":[1.372989E-1,4.2659526E0,1.13613844E-1,6.8510644E-2,8.9495075E-1,4.0620255E0,9.0865895E-2,2.5631443E-1,1.46545E-2,1.3199601E0,6.0357917E-2,5.249842E-1,-9.945551E-2,6.9271686E-4,3.3161917E-3,9.009416E-4,1.7750444E-2,-3.9988328E-2,7.1005323E-3,-7.5022345E-3,7.1370276E-4],"categories":[],"categories_nodes":[],"categories_segments":[],"categories_sizes":[],"default_left":[0,0,0,0,0,0,0,0,0,0,0,0,0,0,0,0,0,0,0,0,0],"id":11,"left_children":[1,3,5,-1,7,9,11,13,-1,15,-1,17,19,-1,-1,-1,-1,-1,-1,-1,-1],"loss_changes":[1.1998939E2,4.8499397E1,1.09748085E2,0E0,9.4381E-1,2.5499657E1,1.0085107E2,1.4031038E-2,0E0,1.7396779E0,0E0,2.5561298E2,8.843573E1,0E0,0E0,0E0,0E0,0E0,0E0,0E0,0E0],"parents":[2147483647,0,0,1,1,2,2,4,4,5,5,6,6,7,7,9,9,11,11,12,12],"right_children":[2,4,6,-1,8,10,12,14,-1,16,-1,18,20,-1,-1,-1,-1,-1,-1,-1,-1],"split_conditions":[-6.416988E-2,3.5748829E-3,-3.3897015E-1,6.8510644E-2,1.9761294E-3,-4.139488E-1,1.2014744E0,2E0,1.46545E-2,4E0,6.0357917E-2,-1.97608E0,-1.5093311E-2,6.9271686E-4,3.3161917E-3,9.009416E-4,1.7750444E-2,-3.9988328E-2,7.1005323E-3,-7.5022345E-3,7.1370276E-4],"split_indices":[59,4,54,0,3,49,55,0,0,0,0,49,58,0,0,0,0,0,0,0,0],"split_type":[0,0,0,0,0,0,0,0,0,0,0,0,0,0,0,0,0,0,0,0,0],"sum_hessian":[1.231E3,6E0,1.225E3,3E0,3E0,6E0,1.219E3,2E0,1E0,3E0,3E0,3.71E2,8.48E2,1E0,1E0,1E0,2E0,1.2E1,3.59E2,1.8E2,6.68E2],"tree_param":{"num_deleted":"0","num_feature":"62","num_nodes":"21","size_leaf_vector":"1"}},{"base_weights":[2.6680663E-2,-1.0753602E0,1.23838864E-1,-5.300083E-1,-3.230267E0,1.177514E0,-5.517765E-3,1.9943461E0,-7.5854796E-1,-4.839992E0,4.5065024E-1,6.2925315E-1,2.6102853E0,3.3925653E-2,-4.9549766E0,8.274581E-3,4.795934E-2,-2.1948565E-2,-1.2777179E-3,-6.665347E-2,-8.000351E-3,1.3215361E-2,-1.3506771E-3,2.311324E-2,-2.807834E-3,2.9010354E-2,-9.776404E-4,4.6910394E-2,-6.7302986E-5,-8.845927E-2,-1.1897924E-2],"categories":[],"categories_nodes":[],"categories_segments":[],"categories_sizes":[],"default_left":[0,0,0,0,0,0,0,0,0,0,0,0,0,0,0,0,0,0,0,0,0,0,0,0,0,0,0,0,0,0,0],"id":12,"left_children":[1,3,5,7,9,11,13,15,17,19,21,23,25,27,29,-1,-1,-1,-1,-1,-1,-1,-1,-1,-1,-1,-1,-1,-1,-1,-1],"loss_changes":[1.3215332E2,1.1580618E2,1.5457053E2,4.8242928E1,1.2068643E2,9.576349E1,1.9753912E2,1.824752E1,6.3966946E1,8.3608185E1,3.4812837E0,1.3039407E2,1.6067932E1,1.8104759E2,9.798335E1,0E0,0E0,0E0,0E0,0E0,0E0,0E0,0E0,0E0,0E0,0E0,0E0,0E0,0E0,0E0,0E0],"parents":[2147483647,0,0,1,1,2,2,3,3,4,4,5,5,6,6,7,7,8,8,9,9,10,10,11,11,12,12,13,13,14,14],"right_children":[2,4,6,8,10,12,14,16,18,20,22,24,26,28,30,-1,-1,-1,-1,-1,-1,-1,-1,-1,-1,-1,-1,-1,-1,-1,-1],"split_conditions":[-2.6947733E-2,3.6419205E-2,-1.2280048E-2,-2.2532055E-2,4.0028663E-3,9.127636E-2,1.5462004E-1,6E0,-2.369916E-2,3.469741E-3,-7.822564E-2,1.357547E0,2.5031955E0,-2.8903466E-2,6.391301E-4,8.274581E-3,4.795934E-2,-2.1948565E-2,-1.2777179E-3,-6.665347E-2,-8.000351E-3,1.3215361E-2,-1.3506771E-3,2.311324E-2,-2.807834E-3,2.9010354E-2,-9.776404E-4,4.6910394E-2,-6.7302986E-5,-8.845927E-2,-1.1897924E-2],"split_indices":[58,16,56,59,42,5,48,0,42,33,19,55,55,59,5,0,0,0,0,0,0,0,0,0,0,0,0,0,0,0,0],"split_type":[0,0,0,0,0,0,0,0,0,0,0,0,0,0,0,0,0,0,0,0,0,0,0,0,0,0,0,0,0,0,0],"sum_hessian":[1.232E3,9.9E1,1.133E3,8E1,1.9E1,1.23E2,1.01E3,6E0,7.4E1,1.3E1,6E0,9E1,3.3E1,1.003E3,7E0,5E0,1E0,2.3E1,5.1E1,9E0,4E0,2E0,4E0,3.2E1,5.8E1,3.1E1,2E0,8E0,9.95E2,3E0,4E0],"tree_param":{"num_deleted":"0","num_feature":"62","num_nodes":"31","size_leaf_vector":"1"}},{"base_weights":[1.7831754E-2,6.8866916E-2,-3.1338565E0,8.1876343E-1,-1.0997853E-1,-7.220739E-2,-1.9902046E0,-3.3719196E0,9.6810913E-1,5.2742844E0,-1.3265269E-1,1.2972014E0,-2.8486214E0,-8.282687E-2,1.0006765E-2,4.615165E-3,1.8845715E-2,6.363706E-2,1.4534959E-2,-2.0570928E-2,-7.964234E-4,2.1565957E-3,1.659693E-2,-1.0412098E-2,-4.0457886E-2],"categories":[],"categories_nodes":[],"categories_segments":[],"categories_sizes":[],"default_left":[0,0,0,0,0,0,0,0,0,0,0,0,0,0,0,0,0,0,0,0,0,0,0,0,0],"id":13,"left_children":[1,3,5,7,9,-1,11,13,15,17,19,21,23,-1,-1,-1,-1,-1,-1,-1,-1,-1,-1,-1,-1],"loss_changes":[1.917845E2,1.5740762E2,6.859706E1,1.4470883E2,1.1643489E2,0E0,4.8846664E1,1.6604016E2,9.578677E1,4.3563232E0,9.770549E1,9.5532036E-1,2.093296E1,0E0,0E0,0E0,0E0,0E0,0E0,0E0,0E0,0E0,0E0,0E0,0E0],"parents":[2147483647,0,0,1,1,2,2,3,3,4,4,6,6,7,7,8,8,9,9,10,10,11,11,12,12],"right_children":[2,4,6,8,10,-1,12,14,16,18,20,22,24,-1,-1,-1,-1,-1,-1,-1,-1,-1,-1,-1,-1],"split_conditions":[1.2252475E-1,-2.110818E-2,-1.391047E-1,-1.632233E-2,-6.416988E-2,-7.220739E-2,-4.7799055E-2,-6.98375E-3,-1.6457292E-3,8.935624E-4,-2.0265596E0,7.741318E-2,4.76652E-2,-8.282687E-2,1.0006765E-2,4.615165E-3,1.8845715E-2,6.363706E-2,1.4534959E-2,-2.0570928E-2,-7.964234E-4,2.1565957E-3,1.659693E-2,-1.0412098E-2,-4.0457886E-2],"split_indices":[31,61,37,57,59,0,22,59,60,2,49,3,32,0,0,0,0,0,0,0,0,0,0,0,0],"split_type":[0,0,0,0,0,0,0,0,0,0,0,0,0,0,0,0,0,0,0,0,0,0,0,0,0],"sum_hessian":[1.19E3,1.172E3,1.8E1,2.25E2,9.47E2,3E0,1.5E1,7E0,2.18E2,3E0,9.44E2,3E0,1.2E1,3E0,4E0,1.35E2,8.3E1,2E0,1E0,2.7E1,9.17E2,1E0,2E0,5E0,7E0],"tree_param":{"num_deleted":"0","num_feature":"62","num_nodes":"25","size_leaf_vector":"1"}},{"base_weights":[-3.1301737E-2,2.4465336E-2,-3.0286264E0,-1.0012853E0,1.5977043E-1,-4.604231E0,3.0421045E-1,-8.659843E0,-6.482581E-1,1.5538762E0,3.8000286E-2,-7.6594494E-2,-2.498901E0,1.5854537E-2,-8.676477E-2,-1.0248368E-1,-1.4680881E-2,2.6853945E-2,-1.2254161E-2,6.1555877E-3,3.0795978E-2,5.860495E-3,-2.8181649E-3,-6.775046E-3,-3.7781112E-2,-4.395295E-3,2.8120673E-3],"categories":[],"categories_nodes":[],"categories_segments":[],"categories_sizes":[],"default_left":[0,0,0,0,0,0,0,0,0,0,0,0,0,0,0,0,0,0,0,0,0,0,0,0,0,0,0],"id":14,"left_children":[1,3,5,7,9,11,13,15,17,19,21,-1,23,-1,25,-1,-1,-1,-1,-1,-1,-1,-1,-1,-1,-1,-1],"loss_changes":[2.0132513E2,1.6434772E2,1.16927795E2,3.6749402E2,1.7751039E2,6.822052E1,3.936298E0,3.701703E1,2.2896338E2,1.1153427E2,1.5572469E2,0E0,1.8438782E1,0E0,9.48975E-1,0E0,0E0,0E0,0E0,0E0,0E0,0E0,0E0,0E0,0E0,0E0,0E0],"parents":[2147483647,0,0,1,1,2,2,3,3,4,4,5,5,6,6,7,7,8,8,9,9,10,10,12,12,14,14],"right_children":[2,4,6,8,10,12,14,16,18,20,22,-1,24,-1,26,-1,-1,-1,-1,-1,-1,-1,-1,-1,-1,-1,-1],"split_conditions":[1.2252475E-1,-1.3098577E0,1.2781209E-3,-1.632233E-2,-1.3071437E-2,-5.8796674E-2,-8.891236E-3,7E0,-6.711742E-2,1.3642134E-2,1.2210894E0,-7.6594494E-2,4.595689E-2,1.5854537E-2,1.8153772E-2,-1.0248368E-1,-1.4680881E-2,2.6853945E-2,-1.2254161E-2,6.1555877E-3,3.0795978E-2,5.860495E-3,-2.8181649E-3,-6.775046E-3,-3.7781112E-2,-4.395295E-3,2.8120673E-3],"split_indices":[31,49,42,57,56,25,2,0,61,51,55,0,48,0,2,0,0,0,0,0,0,0,0,0,0,0,0],"split_type":[0,0,0,0,0,0,0,0,0,0,0,0,0,0,0,0,0,0,0,0,0,0,0,0,0,0,0],"sum_hessian":[1.203E3,1.182E3,2.1E1,1.37E2,1.045E3,1.4E1,7E0,5E0,1.32E2,8.3E1,9.62E2,5E0,9E0,1E0,6E0,4E0,1E0,1.8E1,1.14E2,5E1,3.3E1,3.56E2,6.06E2,4E0,5E0,3E0,3E0],"tree_param":{"num_deleted":"0","num_feature":"62","num_nodes":"27","size_leaf_vector":"1"}},{"base_weights":[4.5853782E-2,-2.3425849E-1,4.81486E-1,-3.984269E-1,7.43602E-1,3.5568503E-1,3.142312E0,-1.1073431E0,-1.7568125E-1,4.5215394E-2,5.583807E-1,4.704884E-1,-4.7197514E0,7.372401E-2,1.8021351E0,2.2949135E-2,-1.3408427E-2,-3.3217666E-3,1.5428956E-2,-9.384811E-3,9.011616E-3,1.7375365E-2,2.9240234E-3,-1.0152703E-1,2.340618E-2,2.537758E-2,-2.040574E-2],"categories":[],"categories_nodes":[],"categories_segments":[],"categories_sizes":[],"default_left":[0,0,0,0,0,0,0,0,0,0,0,0,0,0,0,0,0,0,0,0,0,0,0,0,0,0,0],"id":15,"left_children":[1,3,5,7,9,11,13,15,17,-1,19,21,23,-1,25,-1,-1,-1,-1,-1,-1,-1,-1,-1,-1,-1,-1],"loss_changes":[1.4593378E2,1.1716487E2,1.5553809E2,9.834005E1,6.7451294E1,2.6325998E2,9.781053E1,9.0859344E1,1.1306384E2,0E0,4.5833103E1,9.931394E1,3.7127502E2,0E0,4.5130947E1,0E0,0E0,0E0,0E0,0E0,0E0,0E0,0E0,0E0,0E0,0E0,0E0],"parents":[2147483647,0,0,1,1,2,2,3,3,4,4,5,5,6,6,7,7,8,8,10,10,11,11,12,12,14,14],"right_children":[2,4,6,8,10,12,14,16,18,-1,20,22,24,-1,26,-1,-1,-1,-1,-1,-1,-1,-1,-1,-1,-1,-1],"split_conditions":[5.1530385E-3,2.212489E-2,1.3518353E-2,-6.072214E-1,-5.2828494E-2,3.90663E-2,-1.1245512E0,-7.164572E-2,1.9787524E-2,4.5215394E-2,-6.98375E-3,-8.010296E-3,-3.2098297E-2,7.372401E-2,4.0610306E-2,2.2949135E-2,-1.3408427E-2,-3.3217666E-3,1.5428956E-2,-9.384811E-3,9.011616E-3,1.7375365E-2,2.9240234E-3,-1.0152703E-1,2.340618E-2,2.537758E-2,-2.040574E-2],"split_indices":[58,35,57,49,43,51,53,43,51,0,59,60,5,0,14,0,0,0,0,0,0,0,0,0,0,0,0],"split_type":[0,0,0,0,0,0,0,0,0,0,0,0,0,0,0,0,0,0,0,0,0,0,0,0,0,0,0],"sum_hessian":[1.194E3,7.27E2,4.67E2,6.23E2,1.04E2,4.47E2,2E1,1.48E2,4.75E2,4E0,1E2,4.38E2,9E0,4E0,1.6E1,7E0,1.41E2,4.38E2,3.7E1,1.7E1,8.3E1,5.9E1,3.79E2,5E0,4E0,1.4E1,2E0],"tree_param":{"num_deleted":"0","num_feature":"62","num_nodes":"27","size_leaf_vector":"1"}},{"base_weights":[2.109681E-2,7.802938E-2,-2.98487E0,8.298462E-1,-1.0615326E-1,-1.5007874E0,-7.236003E-2,9.805868E-1,-2.7201722E0,-1.3057059E-1,4.6618085E0,-2.9205978E0,6.390505E-1,7.4479994E-3,2.5481675E-2,-8.094637E-2,5.7359277E-3,-1.1548811E-2,-7.468284E-5,1.7944679E-2,6.3070245E-2,-1.4926333E-2,-3.441005E-2,1.7412458E-2,-3.2684987E-3],"categories":[],"categories_nodes":[],"categories_segments":[],"categories_sizes":[],"default_left":[0,0,0,0,0,0,0,0,0,0,0,0,0,0,0,0,0,0,0,0,0,0,0,0,0],"id":16,"left_children":[1,3,5,7,9,11,-1,13,15,17,19,21,23,-1,-1,-1,-1,-1,-1,-1,-1,-1,-1,-1,-1],"loss_changes":[2.1175874E2,1.6819261E2,1.2457677E2,1.3056387E2,1.1423554E2,5.655336E1,0E0,8.7872086E1,1.6918816E2,1.1718712E2,9.983566E0,1.4917679E0,8.378875E0,0E0,0E0,0E0,0E0,0E0,0E0,0E0,0E0,0E0,0E0,0E0,0E0],"parents":[2147483647,0,0,1,1,2,2,3,3,4,4,5,5,7,7,8,8,9,9,10,10,11,11,12,12],"right_children":[2,4,6,8,10,12,-1,14,16,18,20,22,24,-1,-1,-1,-1,-1,-1,-1,-1,-1,-1,-1,-1],"split_conditions":[1.2252475E-1,-2.0404914E-2,1.9286813E-2,3.5732687E-2,3.1292517E-2,-3.6227403E-3,-7.236003E-2,5.111109E-3,-4.3992355E-2,-1.1662718E-2,-1.7484795E-2,2.2439183E-1,1.2770233E-1,7.4479994E-3,2.5481675E-2,-8.094637E-2,5.7359277E-3,-1.1548811E-2,-7.468284E-5,1.7944679E-2,6.3070245E-2,-1.4926333E-2,-3.441005E-2,1.7412458E-2,-3.2684987E-3],"split_indices":[31,61,51,51,57,43,0,56,5,42,12,11,31,0,0,0,0,0,0,0,0,0,0,0,0],"split_type":[0,0,0,0,0,0,0,0,0,0,0,0,0,0,0,0,0,0,0,0,0,0,0,0,0],"sum_hessian":[1.235E3,1.213E3,2.2E1,2.38E2,9.75E2,1.7E1,5E0,2.29E2,9E0,9.71E2,4E0,1E1,7E0,1.95E2,3.4E1,3E0,6E0,1.08E2,8.63E2,2E0,2E0,3E0,7E0,3E0,4E0],"tree_param":{"num_deleted":"0","num_feature":"62","num_nodes":"25","size_leaf_vector":"1"}},{"base_weights":[1.033864E-2,4.1582327E-2,-6.2921944E0,9.151599E-2,-2.9340463E0,-7.965762E-2,2.3167958E-3,9.410065E-1,-8.397751E-2,-1.1603258E0,-7.173128E-2,5.390565E-3,2.4069065E-2,4.0983306E-3,-3.35376E-3,-3.0385561E-2,8.3157225E-5],"categories":[],"categories_nodes":[],"categories_segments":[],"categories_sizes":[],"default_left":[0,0,0,0,0,0,0,0,0,0,0,0,0,0,0,0,0],"id":17,"left_children":[1,3,5,7,9,-1,-1,11,13,15,-1,-1,-1,-1,-1,-1,-1],"loss_changes":[2.395126E2,1.8005518E2,5.4358994E1,1.7763336E2,1.3197469E2,0E0,0E0,1.1708223E2,1.1213697E2,3.075739E1,0E0,0E0,0E0,0E0,0E0,0E0,0E0],"parents":[2147483647,0,0,1,1,2,2,3,3,4,4,7,7,8,8,9,9],"right_children":[2,4,6,8,10,-1,-1,12,14,16,-1,-1,-1,-1,-1,-1,-1],"split_conditions":[4.2191114E-2,1.2252475E-1,8.935624E-4,-2.3470318E-2,1.7701061E-2,-7.965762E-2,2.3167958E-3,2.4335823E-5,1.2190459E0,-2.0292375E-2,-7.173128E-2,5.390565E-3,2.4069065E-2,4.0983306E-3,-3.35376E-3,-3.0385561E-2,8.3157225E-5],"split_indices":[44,31,2,61,51,0,0,56,55,25,0,0,0,0,0,0,0],"split_type":[0,0,0,0,0,0,0,0,0,0,0,0,0,0,0,0,0],"sum_hessian":[1.214E3,1.209E3,5E0,1.19E3,1.9E1,4E0,1E0,2.03E2,9.87E2,1.4E1,5E0,1.56E2,4.7E1,3.28E2,6.59E2,5E0,9E0],"tree_param":{"num_deleted":"0","num_feature":"62","num_nodes":"17","size_leaf_vector":"1"}},{"base_weights":[-7.148739E-2,-1.8696448E-1,9.674488E-1,-1.355704E-1,-2.6010604E0,2.1539717E0,3.6967897E-1,5.649196E0,-1.622262E-1,-4.97237E0,4.3785667E-1,2.5324361E0,-1.979933E0,5.079664E-1,-3.6362365E-2,6.654443E-2,1.4172414E-2,-1.2929711E-3,-3.4305587E-2,-6.4853504E-2,-1.8066417E-2,1.7605871E-2,-5.4011745E-3,3.1887483E-2,7.868577E-3,-3.629158E-2,1.3147613E-2,9.564606E-3,-8.199064E-3],"categories":[],"categories_nodes":[],"categories_segments":[],"categories_sizes":[],"default_left":[0,0,0,0,0,0,0,0,0,0,0,0,0,0,0,0,0,0,0,0,0,0,0,0,0,0,0,0,0],"id":18,"left_children":[1,3,5,7,9,11,13,15,17,19,21,23,25,27,-1,-1,-1,-1,-1,-1,-1,-1,-1,-1,-1,-1,-1,-1,-1],"loss_changes":[1.475081E2,1.3686902E2,8.644364E1,1.6806664E2,1.679201E2,6.915999E1,4.604137E1,7.0421753E0,1.2871713E2,4.175775E1,1.4024142E1,3.3207504E1,2.3841307E1,4.363349E1,0E0,0E0,0E0,0E0,0E0,0E0,0E0,0E0,0E0,0E0,0E0,0E0,0E0,0E0,0E0],"parents":[2147483647,0,0,1,1,2,2,3,3,4,4,5,5,6,6,7,7,8,8,9,9,10,10,11,11,12,12,13,13],"right_children":[2,4,6,8,10,12,14,16,18,20,22,24,26,28,-1,-1,-1,-1,-1,-1,-1,-1,-1,-1,-1,-1,-1,-1,-1],"split_conditions":[4.6370947E-1,1.2252475E-1,5.2503784E1,-6.416988E-2,1.2781209E-3,1.0997724E-1,1.1731732E-1,8.935624E-4,3.5732687E-2,-4.0067367E-2,1.941437E0,6.666667E-1,1.3214618E-1,2.6345946E-2,-3.6362365E-2,6.654443E-2,1.4172414E-2,-1.2929711E-3,-3.4305587E-2,-6.4853504E-2,-1.8066417E-2,1.7605871E-2,-5.4011745E-3,3.1887483E-2,7.868577E-3,-3.629158E-2,1.3147613E-2,9.564606E-3,-8.199064E-3],"split_indices":[8,31,50,59,42,23,25,2,51,16,7,10,2,34,0,0,0,0,0,0,0,0,0,0,0,0,0,0,0],"split_type":[0,0,0,0,0,0,0,0,0,0,0,0,0,0,0,0,0,0,0,0,0,0,0,0,0,0,0,0,0],"sum_hessian":[1.227E3,1.105E3,1.22E2,1.083E3,2.2E1,4E1,8.2E1,4E0,1.079E3,1.2E1,1E1,3.7E1,3E0,8E1,2E0,3E0,1E0,1.067E3,1.2E1,8E0,4E0,4E0,6E0,2.8E1,9E0,2E0,1E0,6.1E1,1.9E1],"tree_param":{"num_deleted":"0","num_feature":"62","num_nodes":"29","size_leaf_vector":"1"}},{"base_weights":[-1.2760614E-2,3.1822402E-2,-2.8137796E0,8.259632E-1,-1.4840032E-1,-5.208069E0,-5.990176E-1,6.087543E-1,3.2417772E0,-4.2301554E-2,-9.3280065E-1,-6.6827685E-2,-6.6972595E-1,-1.8721495E0,3.9593622E-1,7.2222166E-3,-5.4664757E-2,4.1727193E-2,1.0997696E-2,-1.0846284E-2,7.007041E-4,3.3177135E-3,-1.4112529E-2,-1.1048352E-3,-9.370074E-3,-6.5641953E-3,-2.5970826E-2,-4.5152726E-3,8.488994E-3],"categories":[],"categories_nodes":[],"categories_segments":[],"categories_sizes":[],"default_left":[0,0,0,0,0,0,0,0,0,0,0,0,0,0,0,0,0,0,0,0,0,0,0,0,0,0,0,0,0],"id":19,"left_children":[1,3,5,7,9,11,13,15,17,19,21,-1,23,25,27,-1,-1,-1,-1,-1,-1,-1,-1,-1,-1,-1,-1,-1,-1],"loss_changes":[1.5144153E2,1.710105E2,9.76331E1,1.1399327E2,8.102062E1,4.4762436E1,1.4675034E1,1.0376546E2,2.5699615E1,9.393504E1,6.147316E1,0E0,2.9192924E-1,2.2752E0,2.779245E0,0E0,0E0,0E0,0E0,0E0,0E0,0E0,0E0,0E0,0E0,0E0,0E0,0E0,0E0],"parents":[2147483647,0,0,1,1,2,2,3,3,4,4,5,5,6,6,7,7,8,8,9,9,10,10,12,12,13,13,14,14],"right_children":[2,4,6,8,10,12,14,16,18,20,22,-1,24,26,28,-1,-1,-1,-1,-1,-1,-1,-1,-1,-1,-1,-1,-1,-1],"split_conditions":[1.2252475E-1,-2.2977147E-2,1.4421865E-2,4.6370947E-1,7.844397E1,-2.1197867E-2,2.4562832E-3,1E1,2.2114433E-2,-1.0849417E0,1.018043E0,-6.6827685E-2,2E0,-4.91516E-2,1.8153772E-2,7.2222166E-3,-5.4664757E-2,4.1727193E-2,1.0997696E-2,-1.0846284E-2,7.007041E-4,3.3177135E-3,-1.4112529E-2,-1.1048352E-3,-9.370074E-3,-6.5641953E-3,-2.5970826E-2,-4.5152726E-3,8.488994E-3],"split_indices":[31,61,3,8,50,12,43,0,22,49,55,0,0,2,2,0,0,0,0,0,0,0,0,0,0,0,0,0,0],"split_type":[0,0,0,0,0,0,0,0,0,0,0,0,0,0,0,0,0,0,0,0,0,0,0,0,0,0,0,0,0],"sum_hessian":[1.211E3,1.193E3,1.8E1,2.2E2,9.73E2,8E0,1E1,2.03E2,1.7E1,8.58E2,1.15E2,6E0,2E0,4E0,6E0,2.01E2,2E0,1.2E1,5E0,8.4E1,7.74E2,2.9E1,8.6E1,1E0,1E0,2E0,2E0,2E0,4E0],"tree_param":{"num_deleted":"0","num_feature":"62","num_nodes":"29","size_leaf_vector":"1"}},{"base_weights":[9.734908E-2,2.2108548E0,2.7426844E-2,3.0554304E0,-1.3996123E-1,-4.505212E0,5.9127357E-2,5.0739613E0,2.2742875E0,1.202805E0,-1.0790856E0,-1.1486891E-1,-7.420359E-2,2.4522936E0,1.4322707E-2,5.656511E-2,1.5477417E-2,9.480512E-3,3.2838903E-2,1.9114312E-2,-6.874323E-3,-1.9639689E-3,-1.7726487E-2,-1.5432251E-2,8.691174E-3,3.486565E-2,-1.1148324E-2,5.258943E-3,-2.3886454E-3],"categories":[],"categories_nodes":[],"categories_segments":[],"categories_sizes":[],"default_left":[0,0,0,0,0,0,0,0,0,0,0,0,0,0,0,0,0,0,0,0,0,0,0,0,0,0,0,0,0],"id":20,"left_children":[1,3,5,7,9,11,13,15,17,19,21,23,-1,25,27,-1,-1,-1,-1,-1,-1,-1,-1,-1,-1,-1,-1,-1,-1],"loss_changes":[1.7535544E2,7.587445E1,1.655064E2,3.260968E1,1.5169198E1,9.0896164E1,1.22523026E2,7.6420593E-1,2.3417183E1,7.0772743E0,3.5515623E0,6.4124074E0,0E0,6.950017E1,1.3406242E2,0E0,0E0,0E0,0E0,0E0,0E0,0E0,0E0,0E0,0E0,0E0,0E0,0E0,0E0],"parents":[2147483647,0,0,1,1,2,2,3,3,4,4,5,5,6,6,7,7,8,8,9,9,10,10,11,11,13,13,14,14],"right_children":[2,4,6,8,10,12,14,16,18,20,22,24,-1,26,28,-1,-1,-1,-1,-1,-1,-1,-1,-1,-1,-1,-1,-1,-1],"split_conditions":[-6.37486E-2,-8.9065544E-2,-1.391047E-1,-3.4719504E-2,-2.1803152E-2,-3.7916936E-2,-3.1870803E-1,4E0,3E0,-1.2547985E-2,8.780706E-2,-3.1211627E-1,-7.420359E-2,5.8025494E-4,1.2190459E0,5.656511E-2,1.5477417E-2,9.480512E-3,3.2838903E-2,1.9114312E-2,-6.874323E-3,-1.9639689E-3,-1.7726487E-2,-1.5432251E-2,8.691174E-3,3.486565E-2,-1.1148324E-2,5.258943E-3,-2.3886454E-3],"split_indices":[61,54,37,4,8,23,54,1,0,45,48,3,0,36,55,0,0,0,0,0,0,0,0,0,0,0,0,0,0],"split_type":[0,0,0,0,0,0,0,0,0,0,0,0,0,0,0,0,0,0,0,0,0,0,0,0,0,0,0,0,0],"sum_hessian":[1.186E3,3.7E1,1.149E3,2.7E1,1E1,7E0,1.142E3,6E0,2.1E1,4E0,6E0,3E0,4E0,2E1,1.122E3,5E0,1E0,9E0,1.2E1,3E0,1E0,3E0,3E0,1E0,2E0,1.6E1,4E0,3.72E2,7.5E2],"tree_param":{"num_deleted":"0","num_feature":"62","num_nodes":"29","size_leaf_vector":"1"}},{"base_weights":[-1.9333886E-2,-1.3507017E0,8.07774E-2,-7.42006E0,-6.940495E-1,6.01604E-1,-2.0455028E-1,-9.195206E-2,1.2354592E-2,5.601775E0,-1.1216199E0,4.0763372E-1,3.999764E0,-3.6268058E-1,7.5878197E-1,6.594873E-2,1.4127655E-2,-2.143524E-2,7.4734907E-3,1.3427594E-3,1.0630689E-2,-7.980996E-3,5.043029E-2,3.284741E-2,-4.1363603E-3,2.8931422E-2,3.313485E-3],"categories":[],"categories_nodes":[],"categories_segments":[],"categories_sizes":[],"default_left":[0,0,0,0,0,0,0,0,0,0,0,0,0,0,0,0,0,0,0,0,0,0,0,0,0,0,0],"id":21,"left_children":[1,3,5,7,9,11,13,-1,-1,15,17,19,21,23,25,-1,-1,-1,-1,-1,-1,-1,-1,-1,-1,-1,-1],"loss_changes":[1.5818504E2,3.2564307E2,1.6418434E2,1.0672339E2,2.1086815E2,2.5609406E2,1.0904027E2,0E0,0E0,6.7828217E0,1.251143E2,6.3172962E1,8.7431274E1,7.4615364E1,8.8907875E1,0E0,0E0,0E0,0E0,0E0,0E0,0E0,0E0,0E0,0E0,0E0,0E0],"parents":[2147483647,0,0,1,1,2,2,3,3,4,4,5,5,6,6,9,9,10,10,11,11,12,12,13,13,14,14],"right_children":[2,4,6,8,10,12,14,-1,-1,16,18,20,22,24,26,-1,-1,-1,-1,-1,-1,-1,-1,-1,-1,-1,-1],"split_conditions":[-1.8909192E0,-6.0697813E-3,1.2259023E0,8.935624E-4,-6.416988E-2,2.5945755E-2,3.824507E-1,-9.195206E-2,1.2354592E-2,8.935624E-4,5E0,9.784483E-3,-2.9669557E-2,-1.2397911E-1,-1.8370269E-2,6.594873E-2,1.4127655E-2,-2.143524E-2,7.4734907E-3,1.3427594E-3,1.0630689E-2,-7.980996E-3,5.043029E-2,3.284741E-2,-4.1363603E-3,2.8931422E-2,3.313485E-3],"split_indices":[49,57,55,2,59,51,8,0,0,2,0,58,57,41,61,0,0,0,0,0,0,0,0,0,0,0,0],"split_type":[0,0,0,0,0,0,0,0,0,0,0,0,0,0,0,0,0,0,0,0,0,0,0,0,0,0,0],"sum_hessian":[1.185E3,8.2E1,1.103E3,7E0,7.5E1,3.9E2,7.13E2,6E0,1E0,4E0,7.1E1,3.7E2,2E1,6.13E2,1E2,3E0,1E0,4.7E1,2.4E1,2.55E2,1.15E2,3E0,1.7E1,5E0,6.08E2,1.7E1,8.3E1],"tree_param":{"num_deleted":"0","num_feature":"62","num_nodes":"27","size_leaf_vector":"1"}},{"base_weights":[-2.5903007E-2,8.0591045E-2,-1.2423786E0,-1.2148427E0,1.666163E-1,-6.580387E0,-8.036464E-1,-3.062008E-1,-2.469515E0,8.282831E-1,1.0916633E-2,-8.3527684E-2,-2.0886736E-2,-1.4171855E0,2.045854E0,-1.639898E-2,6.294654E-3,-3.460332E-2,-6.3530826E-3,5.384092E-4,1.9727372E-2,-1.7168606E-2,9.556472E-4,-1.2426196E-2,-6.548896E-2,4.019051E-2,-2.5498387E-3],"categories":[],"categories_nodes":[],"categories_segments":[],"categories_sizes":[],"default_left":[0,0,0,0,0,0,0,0,0,0,0,0,0,0,0,0,0,0,0,0,0,0,0,0,0,0,0],"id":22,"left_children":[1,3,5,7,9,11,13,15,17,19,21,-1,-1,23,25,-1,-1,-1,-1,-1,-1,-1,-1,-1,-1,-1,-1],"loss_changes":[1.5128195E2,1.1988899E2,2.1485558E2,7.5627045E1,1.0383644E2,2.9780914E1,1.5674802E2,4.7045387E1,4.2204147E1,1.5851088E2,1.0947651E2,0E0,0E0,7.256122E1,6.72207E1,0E0,0E0,0E0,0E0,0E0,0E0,0E0,0E0,0E0,0E0,0E0,0E0],"parents":[2147483647,0,0,1,1,2,2,3,3,4,4,5,5,6,6,7,7,8,8,9,9,10,10,13,13,14,14],"right_children":[2,4,6,8,10,12,14,16,18,20,22,-1,-1,24,26,-1,-1,-1,-1,-1,-1,-1,-1,-1,-1,-1,-1],"split_conditions":[1.8675756E-2,-3.0431177E-2,-9.688374E-1,-3.471184E-2,-9.50782E-3,2E0,1.1037718E-1,2.4834648E-2,1.7071426E-2,5.1530385E-3,-1.3779452E-2,-8.3527684E-2,-2.0886736E-2,8.346809E1,5.0852797E-3,-1.639898E-2,6.294654E-3,-3.460332E-2,-6.3530826E-3,5.384092E-4,1.9727372E-2,-1.7168606E-2,9.556472E-4,-1.2426196E-2,-6.548896E-2,4.019051E-2,-2.5498387E-3],"split_indices":[45,58,49,58,45,1,48,61,20,58,42,0,0,50,5,0,0,0,0,0,0,0,0,0,0,0,0],"split_type":[0,0,0,0,0,0,0,0,0,0,0,0,0,0,0,0,0,0,0,0,0,0,0,0,0,0,0],"sum_hessian":[1.166E3,1.073E3,9.3E1,6.6E1,1.007E3,6E0,8.7E1,3.9E1,2.7E1,1.91E2,8.16E2,4E0,2E0,7.2E1,1.5E1,1.6E1,2.3E1,1.8E1,9E0,1.11E2,8E1,3.7E1,7.79E2,7E1,2E0,8E0,7E0],"tree_param":{"num_deleted":"0","num_feature":"62","num_nodes":"27","size_leaf_vector":"1"}},{"base_weights":[4.3687224E-2,2.7553945E0,-1.1456435E-2,5.1116657E0,1.2577795E0,9.1978884E-1,-1.1278195E-1,5.62828E-2,1.4717214E-2,3.9172301E0,-7.296138E-1,2.6268235E-1,2.115406E0,2.860832E-1,-3.5181233E-1,1.9814454E-2,5.1664628E-2,1.4576725E-2,-2.4826815E-2,2.752233E-2,-1.4330498E-3,2.5585676E-2,-3.1161752E-2,-2.5364177E-2,4.000778E-3,-6.139752E-3,2.1330114E-3],"categories":[],"categories_nodes":[],"categories_segments":[],"categories_sizes":[],"default_left":[0,0,0,0,0,0,0,0,0,0,0,0,0,0,0,0,0,0,0,0,0,0,0,0,0,0,0],"id":23,"left_children":[1,3,5,7,9,11,13,-1,-1,15,17,19,21,23,25,-1,-1,-1,-1,-1,-1,-1,-1,-1,-1,-1,-1],"loss_changes":[1.8006982E2,7.826155E1,1.1154161E2,1.9089355E0,8.742406E1,9.057947E1,1.0173405E2,0E0,0E0,5.2341843E0,3.8463173E1,7.263964E1,7.814133E1,1.0707759E2,8.8078094E1,0E0,0E0,0E0,0E0,0E0,0E0,0E0,0E0,0E0,0E0,0E0,0E0],"parents":[2147483647,0,0,1,1,2,2,3,3,4,4,5,5,6,6,9,9,10,10,11,11,12,12,13,13,14,14],"right_children":[2,4,6,8,10,12,14,-1,-1,16,18,20,22,24,26,-1,-1,-1,-1,-1,-1,-1,-1,-1,-1,-1,-1],"split_conditions":[-3.1634182E-1,-1.6911404E-1,-1.256602E-2,8E0,-3.3350304E-1,6.0952395E-2,1.2210894E0,5.62828E-2,1.4717214E-2,3.5129303E1,-1.6298117E-1,-1.0422345E-1,9.320386E-2,-2.8047305E-1,9.287942E-2,1.9814454E-2,5.1664628E-2,1.4576725E-2,-2.4826815E-2,2.752233E-2,-1.4330498E-3,2.5585676E-2,-3.1161752E-2,-2.5364177E-2,4.000778E-3,-6.139752E-3,2.1330114E-3],"split_indices":[54,8,56,0,54,5,55,0,0,50,6,5,23,54,5,0,0,0,0,0,0,0,0,0,0,0,0],"split_type":[0,0,0,0,0,0,0,0,0,0,0,0,0,0,0,0,0,0,0,0,0,0,0,0,0,0,0],"sum_hessian":[1.203E3,2.3E1,1.18E3,8E0,1.5E1,1.15E2,1.065E3,7E0,1E0,6E0,9E0,7.5E1,4E1,3.99E2,6.66E2,3E0,3E0,4E0,5E0,1E1,6.5E1,3.8E1,2E0,1.3E1,3.86E2,4.67E2,1.99E2],"tree_param":{"num_deleted":"0","num_feature":"62","num_nodes":"27","size_leaf_vector":"1"}},{"base_weights":[-6.1240006E-2,-4.548386E-3,-3.4596753E0,4.7271705E-1,-2.2037996E-1,-2.567207E-1,-5.1645956E0,-2.8604382E-1,9.074965E-1,-1.4104904E-1,-2.3984842E0,9.009279E-1,-1.1314955E0,-6.4049783E0,-7.724891E-1,-6.6013835E-2,9.191924E-4,5.6785095E-2,6.2513547E-3,1.697587E-2,-2.4908937E-3,-8.6924795E-4,-3.2650504E-2,1.1059655E-2,2.198577E-3,-1.3631866E-2,-2.2316924E-3,-7.1623944E-2,-1.1617715E-2,-3.5241863E-4,-1.5580951E-2],"categories":[],"categories_nodes":[],"categories_segments":[],"categories_sizes":[],"default_left":[0,0,0,0,0,0,0,0,0,0,0,0,0,0,0,0,0,0,0,0,0,0,0,0,0,0,0,0,0,0,0],"id":24,"left_children":[1,3,5,7,9,11,13,15,17,19,21,23,25,27,29,-1,-1,-1,-1,-1,-1,-1,-1,-1,-1,-1,-1,-1,-1,-1,-1],"loss_changes":[2.3484021E2,1.2371492E2,1.0788977E2,1.23639824E2,1.4255988E2,9.12085E0,6.587488E1,3.104544E2,3.2938257E2,1.3868521E2,4.894069E1,2.1728683E-1,5.2691317E-1,1.6899353E1,2.082218E0,0E0,0E0,0E0,0E0,0E0,0E0,0E0,0E0,0E0,0E0,0E0,0E0,0E0,0E0,0E0,0E0],"parents":[2147483647,0,0,1,1,2,2,3,3,4,4,5,5,6,6,7,7,8,8,9,9,10,10,11,11,12,12,13,13,14,14],"right_children":[2,4,6,8,10,12,14,16,18,20,22,24,26,28,30,-1,-1,-1,-1,-1,-1,-1,-1,-1,-1,-1,-1,-1,-1,-1,-1],"split_conditions":[1.2252475E-1,1.1959907E0,-7.684137E-2,-8.285582E-3,1.9350758E-1,-1.1611605E-1,2.116306E-2,-1.8909192E0,-1.698372E-2,-5.1099736E-2,-6.0695697E-2,1.1236401E-1,3E0,3.0933106E-1,4E0,-6.6013835E-2,9.191924E-4,5.6785095E-2,6.2513547E-3,1.697587E-2,-2.4908937E-3,-8.6924795E-4,-3.2650504E-2,1.1059655E-2,2.198577E-3,-1.3631866E-2,-2.2316924E-3,-7.1623944E-2,-1.1617715E-2,-3.5241863E-4,-1.5580951E-2],"split_indices":[31,55,35,5,14,26,41,49,59,61,15,4,0,4,0,0,0,0,0,0,0,0,0,0,0,0,0,0,0,0,0],"split_type":[0,0,0,0,0,0,0,0,0,0,0,0,0,0,0,0,0,0,0,0,0,0,0,0,0,0,0,0,0,0,0],"sum_hessian":[1.218E3,1.199E3,1.9E1,3.73E2,8.26E2,7E0,1.2E1,1.36E2,2.37E2,7.98E2,2.8E1,3E0,4E0,9E0,3E0,7E0,1.29E2,1.4E1,2.23E2,4.1E1,7.57E2,7E0,2.1E1,2E0,1E0,3E0,1E0,8E0,1E0,2E0,1E0],"tree_param":{"num_deleted":"0","num_feature":"62","num_nodes":"31","size_leaf_vector":"1"}},{"base_weights":[6.847009E-2,2.5301473E0,1.6676111E-2,2.0275907E-1,3.913063E0,-4.9904876E0,3.8661297E-2,-9.349354E-1,1.1170447E0,-2.1353777E-1,4.5643506E0,-7.516292E-2,-1.1090314E0,4.9288538E-1,-1.7906253E-1,2.096025E-3,-1.8343737E-2,1.4410744E-2,4.080656E-3,-1.4632519E-2,1.12926625E-2,1.7004652E-2,5.160835E-2,1.796614E-4,-1.7525569E-2,-1.8358713E-2,6.6820425E-3,-4.473557E-3,2.1648884E-3],"categories":[],"categories_nodes":[],"categories_segments":[],"categories_sizes":[],"default_left":[0,0,0,0,0,0,0,0,0,0,0,0,0,0,0,0,0,0,0,0,0,0,0,0,0,0,0,0,0],"id":25,"left_children":[1,3,5,7,9,11,13,15,17,19,21,-1,23,25,27,-1,-1,-1,-1,-1,-1,-1,-1,-1,-1,-1,-1,-1,-1],"loss_changes":[1.4849536E2,7.645256E1,1.2590821E2,1.1446141E1,4.1288742E1,3.5050186E1,1.1263122E2,5.035517E0,6.130152E-1,6.147672E0,6.6149597E0,0E0,1.9607673E0,1.2415954E2,7.451723E1,0E0,0E0,0E0,0E0,0E0,0E0,0E0,0E0,0E0,0E0,0E0,0E0,0E0,0E0],"parents":[2147483647,0,0,1,1,2,2,3,3,4,4,5,5,6,6,7,7,8,8,9,9,10,10,12,12,13,13,14,14],"right_children":[2,4,6,8,10,12,14,16,18,20,22,-1,24,26,28,-1,-1,-1,-1,-1,-1,-1,-1,-1,-1,-1,-1,-1,-1],"split_conditions":[-3.1634182E-1,-3.0431177E-2,-1.15201935E-1,2.9981289E1,-4.272921E-2,9.649879E-1,1.2045108E0,-2.4313696E-2,1E0,7E0,3.3333334E-1,-7.516292E-2,2E0,-2.5419462E-1,4.8098764E-3,2.096025E-3,-1.8343737E-2,1.4410744E-2,4.080656E-3,-1.4632519E-2,1.12926625E-2,1.7004652E-2,5.160835E-2,1.796614E-4,-1.7525569E-2,-1.8358713E-2,6.6820425E-3,-4.473557E-3,2.1648884E-3],"split_indices":[54,58,61,50,61,55,55,42,1,0,10,0,0,54,58,0,0,0,0,0,0,0,0,0,0,0,0,0,0],"split_type":[0,0,0,0,0,0,0,0,0,0,0,0,0,0,0,0,0,0,0,0,0,0,0,0,0,0,0,0,0],"sum_hessian":[1.164E3,2.3E1,1.141E3,9E0,1.4E1,4E0,1.137E3,4E0,5E0,2E0,1.2E1,2E0,2E0,3.68E2,7.69E2,2E0,2E0,3E0,2E0,1E0,1E0,2E0,1E1,1E0,1E0,2.2E1,3.46E2,4.67E2,3.02E2],"tree_param":{"num_deleted":"0","num_feature":"62","num_nodes":"29","size_leaf_vector":"1"}},{"base_weights":[-7.377269E-2,-1.4657182E-2,-2.8161461E0,-1.245257E0,6.664359E-2,-6.120924E-1,-4.504182E0,-6.152577E-1,-4.3439817E0,8.899531E-2,-4.801478E0,-1.5021791E0,5.283576E-1,-5.8864565E0,-1.6800721E0,2.3388384E-2,-1.202344E-2,-6.034809E-2,-1.0167814E-4,2.4407087E-2,1.2284366E-4,-8.134671E-2,-2.0954427E-3,-7.497074E-3,-2.4052603E-2,3.2500626E-5,1.0975098E-2,-7.1181305E-2,-1.8045586E-2,-2.4498923E-2,-2.3711924E-3],"categories":[],"categories_nodes":[],"categories_segments":[],"categories_sizes":[],"default_left":[0,0,0,0,0,0,0,0,0,0,0,0,0,0,0,0,0,0,0,0,0,0,0,0,0,0,0,0,0,0,0],"id":26,"left_children":[1,3,5,7,9,11,13,15,17,19,21,23,25,27,29,-1,-1,-1,-1,-1,-1,-1,-1,-1,-1,-1,-1,-1,-1,-1,-1],"loss_changes":[1.9206714E2,1.1623955E2,9.025604E1,1.3788533E2,1.1903116E2,1.297488E1,4.4762085E1,9.636278E1,7.502942E1,1.8879172E2,6.744046E1,2.7522879E0,1.6487117E0,2.3348846E1,5.3008747E0,0E0,0E0,0E0,0E0,0E0,0E0,0E0,0E0,0E0,0E0,0E0,0E0,0E0,0E0,0E0,0E0],"parents":[2147483647,0,0,1,1,2,2,3,3,4,4,5,5,6,6,7,7,8,8,9,9,10,10,11,11,12,12,13,13,14,14],"right_children":[2,4,6,8,10,12,14,16,18,20,22,24,26,28,30,-1,-1,-1,-1,-1,-1,-1,-1,-1,-1,-1,-1,-1,-1,-1,-1],"split_conditions":[1.2252475E-1,-3.004708E-2,-2.4610553E-2,1.5132727E-2,1.6377603E-1,-8.409414E-2,1.6788146E-1,-1.9180795E-2,5.3947948E-2,-1.55589925E-2,3E0,2.4185135E0,1.5607965E-1,4.5035716E-2,-3.9871596E-3,2.3388384E-2,-1.202344E-2,-6.034809E-2,-1.0167814E-4,2.4407087E-2,1.2284366E-4,-8.134671E-2,-2.0954427E-3,-7.497074E-3,-2.4052603E-2,3.2500626E-5,1.0975098E-2,-7.1181305E-2,-1.8045586E-2,-2.4498923E-2,-2.3711924E-3],"split_indices":[31,58,32,16,48,30,28,59,28,59,0,7,3,27,39,0,0,0,0,0,0,0,0,0,0,0,0,0,0,0,0],"split_type":[0,0,0,0,0,0,0,0,0,0,0,0,0,0,0,0,0,0,0,0,0,0,0,0,0,0,0,0,0,0,0],"sum_hessian":[1.184E3,1.16E3,2.4E1,7.1E1,1.089E3,1.1E1,1.3E1,6E1,1.1E1,1.085E3,4E0,6E0,5E0,8E0,5E0,9E0,5.1E1,8E0,3E0,3.5E1,1.05E3,2E0,2E0,4E0,2E0,3E0,2E0,6E0,2E0,3E0,2E0],"tree_param":{"num_deleted":"0","num_feature":"62","num_nodes":"31","size_leaf_vector":"1"}},{"base_weights":[-2.4231084E-2,-4.892636E0,-3.7724315E-3,-6.1752383E-2,-4.03475E-3,7.1704453E-1,-9.583158E-2,-3.3824733E-1,1.4032484E0,1.4814557E-2,-1.0295407E0,-1.149124E-2,1.6106525E-2,1.7459739E-2,-2.409935E-2,7.4347726E-4,-1.7254658E-2,3.0271262E-3,-2.188246E-2],"categories":[],"categories_nodes":[],"categories_segments":[],"categories_sizes":[],"default_left":[0,0,0,0,0,0,0,0,0,0,0,0,0,0,0,0,0,0,0],"id":27,"left_children":[1,3,5,-1,-1,7,9,11,13,15,17,-1,-1,-1,-1,-1,-1,-1,-1],"loss_changes":[1.19004745E2,2.090551E1,7.910085E1,0E0,0E0,9.823427E1,1.09215294E2,7.936551E1,8.6479034E1,8.933825E1,1.5864496E2,0E0,0E0,0E0,0E0,0E0,0E0,0E0,0E0],"parents":[2147483647,0,0,1,1,2,2,5,5,6,6,7,7,8,8,9,9,10,10],"right_children":[2,4,6,-1,-1,8,10,12,14,16,18,-1,-1,-1,-1,-1,-1,-1,-1],"split_conditions":[-1.391047E-1,3.4393817E-1,-1.3071437E-2,-6.1752383E-2,-4.03475E-3,-1.1271666E0,8.218552E-2,8.836891E-2,1.6606925E-1,1.4580405E-2,-3.3568382E-1,-1.149124E-2,1.6106525E-2,1.7459739E-2,-2.409935E-2,7.4347726E-4,-1.7254658E-2,3.0271262E-3,-2.188246E-2],"split_indices":[37,3,56,0,0,49,48,5,4,57,53,0,0,0,0,0,0,0,0],"split_type":[0,0,0,0,0,0,0,0,0,0,0,0,0,0,0,0,0,0,0],"sum_hessian":[1.194E3,4E0,1.19E3,3E0,1E0,1.34E2,1.056E3,5.3E1,8.1E1,9.45E2,1.11E2,3.8E1,1.5E1,7.6E1,5E0,9.15E2,3E1,5E1,6.1E1],"tree_param":{"num_deleted":"0","num_feature":"62","num_nodes":"19","size_leaf_vector":"1"}},{"base_weights":[9.9512525E-3,-1.4899415E0,1.0029767E-1,-8.782536E-1,-3.3453062E0,1.3364108E-1,-2.8570273E0,-3.9453486E-1,-4.0697174E0,-4.071117E0,-7.8913677E-1,6.659692E-2,1.11717105E-1,-7.085916E0,-1.9019721E-1,7.7014673E-3,-1.358876E-2,-4.6697874E-2,-8.429524E-3,-4.969381E-2,-1.7383978E-3,-1.6163313E-3,-1.7338278E-2,1.8627056E-3,-1.3274417E-2,-8.372458E-2,-1.7263994E-2,1.51307015E-2,-1.8700458E-2],"categories":[],"categories_nodes":[],"categories_segments":[],"categories_sizes":[],"default_left":[0,0,0,0,0,0,0,0,0,0,0,0,0,0,0,0,0,0,0,0,0,0,0,0,0,0,0,0,0],"id":28,"left_children":[1,3,5,7,9,11,13,15,17,19,21,-1,23,25,27,-1,-1,-1,-1,-1,-1,-1,-1,-1,-1,-1,-1,-1,-1],"loss_changes":[1.6696216E2,7.650528E1,1.1496352E2,8.175797E1,2.8327347E1,1.5694801E2,1.4526274E2,5.0386593E1,5.712181E0,3.4468185E1,2.512343E0,0E0,1.0652712E2,1.2326233E1,2.6285267E1,0E0,0E0,0E0,0E0,0E0,0E0,0E0,0E0,0E0,0E0,0E0,0E0,0E0,0E0],"parents":[2147483647,0,0,1,1,2,2,3,3,4,4,5,5,6,6,7,7,8,8,9,9,10,10,12,12,13,13,14,14],"right_children":[2,4,6,8,10,12,14,16,18,20,22,-1,24,26,28,-1,-1,-1,-1,-1,-1,-1,-1,-1,-1,-1,-1,-1,-1],"split_conditions":[-3.004708E-2,-3.1788547E-2,1.5462004E-1,7.138939E-2,2.9522025E-3,-4.0383685E-2,9.649879E-1,-9.88893E-3,2.2707859E-1,1.0891241E-2,9.3336314E-1,6.659692E-2,2.2461766E-2,3E0,1.2437319E-2,7.7014673E-3,-1.358876E-2,-4.6697874E-2,-8.429524E-3,-4.969381E-2,-1.7383978E-3,-1.6163313E-3,-1.7338278E-2,1.8627056E-3,-1.3274417E-2,-8.372458E-2,-1.7263994E-2,1.51307015E-2,-1.8700458E-2],"split_indices":[58,58,48,31,36,59,55,59,3,42,11,0,45,0,5,0,0,0,0,0,0,0,0,0,0,0,0,0,0],"split_type":[0,0,0,0,0,0,0,0,0,0,0,0,0,0,0,0,0,0,0,0,0,0,0,0,0,0,0,0,0],"sum_hessian":[1.23E3,6.9E1,1.161E3,5.3E1,1.6E1,1.149E3,1.2E1,4.7E1,6E0,1.2E1,4E0,3E0,1.146E3,4E0,8E0,2.1E1,2.6E1,5E0,1E0,1E1,2E0,3E0,1E0,1.094E3,5.2E1,3E0,1E0,4E0,4E0],"tree_param":{"num_deleted":"0","num_feature":"62","num_nodes":"29","size_leaf_vector":"1"}},{"base_weights":[-4.9735256E-2,-4.925076E-3,-3.5834365E0,-3.9477344E0,2.5253672E-2,1.9513463E0,-8.67029E0,-2.0998392E-1,-6.895938E0,6.9772255E-1,-1.4701717E-1,5.6342804E-1,3.3349987E-2,-9.9534996E-2,-1.32500185E-2,-1.2652481E-2,9.003291E-3,-2.138256E-2,-7.918917E-2,5.1033483E-3,2.856424E-2,-8.7919756E-4,-2.1972066E-2,-1.0571275E-3,1.0848624E-2],"categories":[],"categories_nodes":[],"categories_segments":[],"categories_sizes":[],"default_left":[0,0,0,0,0,0,0,0,0,0,0,0,0,0,0,0,0,0,0,0,0,0,0,0,0],"id":29,"left_children":[1,3,5,7,9,11,13,15,17,19,21,23,-1,-1,-1,-1,-1,-1,-1,-1,-1,-1,-1,-1,-1],"loss_changes":[1.896806E2,1.4098273E2,4.3923816E2,9.7728806E1,1.363384E2,1.2044481E1,3.9699036E1,6.433414E0,1.3515015E0,1.0072328E2,1.1498073E2,1.6910623E0,0E0,0E0,0E0,0E0,0E0,0E0,0E0,0E0,0E0,0E0,0E0,0E0,0E0],"parents":[2147483647,0,0,1,1,2,2,3,3,4,4,5,5,6,6,7,7,8,8,9,9,10,10,11,11],"right_children":[2,4,6,8,10,12,14,16,18,20,22,24,-1,-1,-1,-1,-1,-1,-1,-1,-1,-1,-1,-1,-1],"split_conditions":[3.5732687E-2,-1.391047E-1,-1.9274667E-1,-3.7916936E-2,-2.0404914E-2,1.7942354E-2,7E0,7.530764E-1,-4.1084683E-1,4.303807E-1,4.492935E-2,-2.8933506E-2,3.3349987E-2,-9.9534996E-2,-1.32500185E-2,-1.2652481E-2,9.003291E-3,-2.138256E-2,-7.918917E-2,5.1033483E-3,2.856424E-2,-8.7919756E-4,-2.1972066E-2,-1.0571275E-3,1.0848624E-2],"split_indices":[51,37,54,23,61,56,0,11,3,8,42,44,0,0,0,0,0,0,0,0,0,0,0,0,0],"split_type":[0,0,0,0,0,0,0,0,0,0,0,0,0,0,0,0,0,0,0,0,0,0,0,0,0],"sum_hessian":[1.197E3,1.183E3,1.4E1,8E0,1.175E3,7E0,7E0,4E0,4E0,2.39E2,9.36E2,4E0,3E0,6E0,1E0,2E0,2E0,1E0,3E0,2.18E2,2.1E1,9.08E2,2.8E1,2E0,2E0],"tree_param":{"num_deleted":"0","num_feature":"62","num_nodes":"25","size_leaf_vector":"1"}},{"base_weights":[3.9934195E-3,2.8201325E-2,-5.719554E0,1.011923E0,-8.597412E-2,8.851705E-3,-7.897352E-2,-3.5538244E-1,1.4765084E0,-1.4771444E0,4.901425E-3,-1.4452866E-2,1.3113716E-2,1.68848E-2,-3.4411013E-2,-5.6096017E-2,1.7876316E-4,5.438147E-3,-3.0601593E-3],"categories":[],"categories_nodes":[],"categories_segments":[],"categories_sizes":[],"default_left":[0,0,0,0,0,0,0,0,0,0,0,0,0,0,0,0,0,0,0],"id":30,"left_children":[1,3,5,7,9,-1,-1,11,13,15,17,-1,-1,-1,-1,-1,-1,-1,-1],"loss_changes":[1.6448764E2,1.3284552E2,6.733072E1,7.8658035E1,1.3401599E2,0E0,0E0,5.4945812E1,6.810539E1,3.7915717E2,1.5369359E2,0E0,0E0,0E0,0E0,0E0,0E0,0E0,0E0],"parents":[2147483647,0,0,1,1,2,2,3,3,4,4,7,7,8,8,9,9,10,10],"right_children":[2,4,6,8,10,-1,-1,12,14,16,18,-1,-1,-1,-1,-1,-1,-1,-1],"split_conditions":[1.3E1,-1.3071437E-2,-6.6682785E-3,-2.281658E-2,-1.8334659E0,8.851705E-3,-7.897352E-2,6.0952395E-2,1.2803937E-1,-3.6462542E-4,1.2210894E0,-1.4452866E-2,1.3113716E-2,1.68848E-2,-3.4411013E-2,-5.6096017E-2,1.7876316E-4,5.438147E-3,-3.0601593E-3],"split_indices":[0,56,5,60,49,0,0,5,26,57,55,0,0,0,0,0,0,0,0],"split_type":[0,0,0,0,0,0,0,0,0,0,0,0,0,0,0,0,0,0,0],"sum_hessian":[1.185E3,1.181E3,4E0,1.22E2,1.059E3,1E0,3E0,3.1E1,9.1E1,6.4E1,9.95E2,1.9E1,1.2E1,8.9E1,2E0,1.7E1,4.7E1,3.64E2,6.31E2],"tree_param":{"num_deleted":"0","num_feature":"62","num_nodes":"19","size_leaf_vector":"1"}},{"base_weights":[5.346876E-3,-1.1721258E-1,7.327884E-1,7.6990277E-1,-2.150065E-1,1.4841723E0,2.2231969E-1,3.3147314E-1,2.528969E0,-4.0302706E-1,3.566286E-1,1.7091321E0,-2.5987072E0,-1.514365E0,5.591165E-1,-3.5333613E-4,2.1985428E-2,4.867029E-2,1.3335869E-2,-4.1588265E-2,-3.7021297E-3,-3.0681863E-2,6.8281093E-3,1.9458083E-2,-2.3038886E-2,-8.090677E-3,-3.0735385E-2,9.3632415E-3,-3.9189503E-2,1.3111698E-2,-1.5843158E-3],"categories":[],"categories_nodes":[],"categories_segments":[],"categories_sizes":[],"default_left":[0,0,0,0,0,0,0,0,0,0,0,0,0,0,0,0,0,0,0,0,0,0,0,0,0,0,0,0,0,0,0],"id":31,"left_children":[1,3,5,7,9,11,13,15,17,19,21,23,25,27,29,-1,-1,-1,-1,-1,-1,-1,-1,-1,-1,-1,-1,-1,-1,-1,-1],"loss_changes":[1.0573438E2,8.822133E1,6.5258446E1,7.705562E1,9.848715E1,6.781691E1,6.1092415E1,5.331018E1,4.749829E1,1.17105225E2,2.2526343E2,4.472377E1,2.5704384E-1,9.540413E1,4.3392616E1,0E0,0E0,0E0,0E0,0E0,0E0,0E0,0E0,0E0,0E0,0E0,0E0,0E0,0E0,0E0,0E0],"parents":[2147483647,0,0,1,1,2,2,3,3,4,4,5,5,6,6,7,7,8,8,9,9,10,10,11,11,12,12,13,13,14,14],"right_children":[2,4,6,8,10,12,14,16,18,20,22,24,26,28,30,-1,-1,-1,-1,-1,-1,-1,-1,-1,-1,-1,-1,-1,-1,-1,-1],"split_conditions":[2.8656702E-2,-1.3597766E-2,-3.7161008E-4,-1.5568766E-2,1.2434093E-2,1.907632E-2,4.5327168E1,3.1741653E-2,-2.0673314E-1,-8.303463E-1,-1.5200994E-2,2.9556673E-2,-1.5187027E-2,1.5585633E-2,-2.0631105E-3,-3.5333613E-4,2.1985428E-2,4.867029E-2,1.3335869E-2,-4.1588265E-2,-3.7021297E-3,-3.0681863E-2,6.8281093E-3,1.9458083E-2,-2.3038886E-2,-8.090677E-3,-3.0735385E-2,9.3632415E-3,-3.9189503E-2,1.3111698E-2,-1.5843158E-3],"split_indices":[24,56,43,60,58,57,50,6,54,2,57,51,2,51,37,0,0,0,0,0,0,0,0,0,0,0,0,0,0,0,0],"split_type":[0,0,0,0,0,0,0,0,0,0,0,0,0,0,0,0,0,0,0,0,0,0,0,0,0,0,0,0,0,0,0],"sum_hessian":[1.184E3,1.014E3,1.7E2,1E2,9.14E2,6.8E1,1.02E2,8.1E1,1.9E1,6.88E2,2.26E2,6.5E1,3E0,1.6E1,8.6E1,6.8E1,1.3E1,6E0,1.3E1,8E0,6.8E2,1.8E1,2.08E2,6.3E1,2E0,1E0,2E0,8E0,8E0,4.3E1,4.3E1],"tree_param":{"num_deleted":"0","num_feature":"62","num_nodes":"31","size_leaf_vector":"1"}},{"base_weights":[5.5240747E-2,-4.810665E0,8.297819E-2,-6.813611E0,1.3113369E-1,2.399241E0,4.4528946E-2,-2.1089837E-2,-7.826249E-2,6.028115E-3,-3.9771064E-3,-4.9410116E-2,3.7215462E0,-8.006483E-1,1.4290954E-1,1.873086E-2,-2.444398E-2,1.0069442E-2,5.045722E-2,1.5806295E-3,-3.4209065E-2,2.3996583E-3,-1.0931605E-2],"categories":[],"categories_nodes":[],"categories_segments":[],"categories_sizes":[],"default_left":[0,0,0,0,0,0,0,0,0,0,0,0,0,0,0,0,0,0,0,0,0,0,0],"id":32,"left_children":[1,3,5,7,9,11,13,-1,-1,-1,-1,15,17,19,21,-1,-1,-1,-1,-1,-1,-1,-1],"loss_changes":[1.6667947E2,7.01806E1,1.0907895E2,1.3981476E0,9.078274E-1,6.494115E1,1.004753E2,0E0,0E0,0E0,0E0,3.8097855E1,3.5363113E1,2.9807034E2,1.1267684E2,0E0,0E0,0E0,0E0,0E0,0E0,0E0,0E0],"parents":[2147483647,0,0,1,1,2,2,3,3,4,4,5,5,6,6,11,11,12,12,13,13,14,14],"right_children":[2,4,6,8,10,12,14,-1,-1,-1,-1,16,18,20,22,-1,-1,-1,-1,-1,-1,-1,-1],"split_conditions":[-1.391047E-1,4.8858887E-1,-3.1870803E-1,-9.056461E-1,-9.056461E-1,2.1926606E-1,-1.4174025E0,-2.1089837E-2,-7.826249E-2,6.028115E-3,-3.9771064E-3,3.2357307E1,-3.471184E-2,-3.6513745E-3,1.2409233E-1,1.873086E-2,-2.444398E-2,1.0069442E-2,5.045722E-2,1.5806295E-3,-3.4209065E-2,2.3996583E-3,-1.0931605E-2],"split_indices":[37,11,54,2,2,47,49,0,0,0,0,50,58,45,6,0,0,0,0,0,0,0,0],"split_type":[0,0,0,0,0,0,0,0,0,0,0,0,0,0,0,0,0,0,0,0,0,0,0],"sum_hessian":[1.231E3,6E0,1.225E3,4E0,2E0,1.9E1,1.206E3,1E0,3E0,1E0,1E0,7E0,1.2E1,1.25E2,1.081E3,4E0,3E0,4E0,8E0,9.1E1,3.4E1,1.008E3,7.3E1],"tree_param":{"num_deleted":"0","num_feature":"62","num_nodes":"23","size_leaf_vector":"1"}},{"base_weights":[-1.0399569E-2,-1.2346312E0,1.0079974E-1,1.564372E0,-1.8068339E0,3.0589714E0,4.717492E-2,-1.7866255E0,4.0887327E0,-2.9292448E0,9.799823E-2,4.6861672E0,1.1258781E0,5.206517E-1,-2.1229568E-1,-2.8564928E-2,-1.0556537E-2,1.544516E-2,5.8184803E-2,1.0532612E-2,-3.6254272E-2,6.4231674E-3,-3.704296E-2,1.1875714E-2,5.662529E-2,1.722748E-2,-1.8825667E-2,3.1448186E-3,3.2335192E-2,2.109251E-2,-2.8801898E-3],"categories":[],"categories_nodes":[],"categories_segments":[],"categories_sizes":[],"default_left":[0,0,0,0,0,0,0,0,0,0,0,0,0,0,0,0,0,0,0,0,0,0,0,0,0,0,0,0,0,0,0],"id":33,"left_children":[1,3,5,7,9,11,13,15,17,19,21,23,25,27,29,-1,-1,-1,-1,-1,-1,-1,-1,-1,-1,-1,-1,-1,-1,-1,-1],"loss_changes":[1.5858408E2,1.5818149E2,1.6927405E2,1.5111017E2,1.7346542E2,5.448886E1,1.2910649E2,3.1282673E0,3.0623276E1,1.13548584E2,6.0810677E1,2.0222015E1,1.841095E1,2.0933543E2,9.757893E1,0E0,0E0,0E0,0E0,0E0,0E0,0E0,0E0,0E0,0E0,0E0,0E0,0E0,0E0,0E0,0E0],"parents":[2147483647,0,0,1,1,2,2,3,3,4,4,5,5,6,6,7,7,8,8,9,9,10,10,11,11,12,12,13,13,14,14],"right_children":[2,4,6,8,10,12,14,16,18,20,22,24,26,28,30,-1,-1,-1,-1,-1,-1,-1,-1,-1,-1,-1,-1,-1,-1,-1,-1],"split_conditions":[-1.755465E0,-2.0698793E-3,-3.1870803E-1,-1.8047392E-3,4E0,6E0,1.228531E0,-2.50484E-2,-5.456999E-2,-3.3040473E0,1.6772818E-2,-8.818424E-2,1.884837E-1,2.3605367E-2,3.1872154E1,-2.8564928E-2,-1.0556537E-2,1.544516E-2,5.8184803E-2,1.0532612E-2,-3.6254272E-2,6.4231674E-3,-3.704296E-2,1.1875714E-2,5.662529E-2,1.722748E-2,-1.8825667E-2,3.1448186E-3,3.2335192E-2,2.109251E-2,-2.8801898E-3],"split_indices":[49,20,54,30,0,0,55,19,20,49,42,19,2,51,50,0,0,0,0,0,0,0,0,0,0,0,0,0,0,0,0],"split_type":[0,0,0,0,0,0,0,0,0,0,0,0,0,0,0,0,0,0,0,0,0,0,0,0,0,0,0,0,0,0,0],"sum_hessian":[1.163E3,9.6E1,1.067E3,1.6E1,8E1,1.8E1,1.049E3,7E0,9E0,5E1,3E1,9E0,9E0,3.71E2,6.78E2,2E0,5E0,4E0,5E0,6E0,4.4E1,2.7E1,3E0,2E0,7E0,8E0,1E0,3.43E2,2.8E1,1.8E1,6.6E2],"tree_param":{"num_deleted":"0","num_feature":"62","num_nodes":"31","size_leaf_vector":"1"}},{"base_weights":[1.2246782E-2,6.477974E-2,-2.8131504E0,7.4678344E-1,-7.8096196E-2,-4.595247E0,2.7157173E-1,4.7614416E-1,2.6763408E0,4.263099E0,-1.1374585E-1,-2.929136E0,-7.30772E-2,8.8848364E-1,-3.9965454E-1,-1.3011544E-2,1.0322219E-2,-1.2062756E-2,3.3905007E-2,-5.7886105E-2,6.73407E-2,-2.3517348E-2,-4.2536738E-4,-3.6332734E-2,-4.9202926E-3,2.8685182E-3,1.2571935E-2,-8.436619E-4,-4.787196E-3],"categories":[],"categories_nodes":[],"categories_segments":[],"categories_sizes":[],"default_left":[0,0,0,0,0,0,0,0,0,0,0,0,0,0,0,0,0,0,0,0,0,0,0,0,0,0,0,0,0],"id":34,"left_children":[1,3,5,7,9,11,13,15,17,19,21,23,-1,25,27,-1,-1,-1,-1,-1,-1,-1,-1,-1,-1,-1,-1,-1,-1],"loss_changes":[1.7888771E2,1.1533211E2,1.2218793E2,1.0577954E2,1.5199704E2,3.575995E1,4.081874E0,1.6156458E2,5.8892487E1,2.08211E2,1.5177087E2,1.2001656E1,0E0,6.4118767E-1,5.761248E-2,0E0,0E0,0E0,0E0,0E0,0E0,0E0,0E0,0E0,0E0,0E0,0E0,0E0,0E0],"parents":[2147483647,0,0,1,1,2,2,3,3,4,4,5,5,6,6,7,7,8,8,9,9,10,10,11,11,13,13,14,14],"right_children":[2,4,6,8,10,12,14,16,18,20,22,24,-1,26,28,-1,-1,-1,-1,-1,-1,-1,-1,-1,-1,-1,-1,-1,-1],"split_conditions":[1.2252475E-1,-2.3470318E-2,2.6132142E-2,2.8448788E-2,-2.2532055E-2,2.9271036E-2,-5.371906E-3,-1.7298157E0,-7.233946E-2,-1.2226005E-1,-1.8909192E0,-6.8472534E-2,-7.30772E-2,7.741318E-2,2E0,-1.3011544E-2,1.0322219E-2,-1.2062756E-2,3.3905007E-2,-5.7886105E-2,6.73407E-2,-2.3517348E-2,-4.2536738E-4,-3.6332734E-2,-4.9202926E-3,2.8685182E-3,1.2571935E-2,-8.436619E-4,-4.787196E-3],"split_indices":[31,61,38,6,59,19,26,49,28,3,49,12,0,3,0,0,0,0,0,0,0,0,0,0,0,0,0,0,0],"split_type":[0,0,0,0,0,0,0,0,0,0,0,0,0,0,0,0,0,0,0,0,0,0,0,0,0,0,0,0,0],"sum_hessian":[1.203E3,1.182E3,2.1E1,2.04E2,9.78E2,1.3E1,8E0,1.8E2,2.4E1,7E0,9.71E2,9E0,4E0,4E0,4E0,4.1E1,1.39E2,3E0,2.1E1,1E0,6E0,3.1E1,9.4E2,7E0,2E0,2E0,2E0,1E0,3E0],"tree_param":{"num_deleted":"0","num_feature":"62","num_nodes":"29","size_leaf_vector":"1"}},{"base_weights":[-7.539173E-2,-1.5396551E-2,-2.3566954E0,6.460572E-1,-1.5397055E-1,-8.3227746E-2,-4.340778E0,2.5805628E-1,2.4456596E0,-1.5853649E0,-6.3732296E-2,8.1483626E-1,-1.5661298E0,-5.3615637E0,-1.0227361E0,3.9486964E-3,-6.613428E-2,3.2613613E-2,4.458242E-3,-8.445369E-3,-7.192149E-2,5.5636697E-2,-8.5399894E-4,1.6028516E-2,-2.241526E-3,-4.924136E-3,-2.080209E-2,-6.40399E-2,-1.0155048E-2,5.36022E-5,-1.7827153E-2],"categories":[],"categories_nodes":[],"categories_segments":[],"categories_sizes":[],"default_left":[0,0,0,0,0,0,0,0,0,0,0,0,0,0,0,0,0,0,0,0,0,0,0,0,0,0,0,0,0,0,0],"id":35,"left_children":[1,3,5,7,9,11,13,15,17,19,21,23,25,27,29,-1,-1,-1,-1,-1,-1,-1,-1,-1,-1,-1,-1,-1,-1,-1,-1],"loss_changes":[1.6023523E2,1.0477553E2,1.3496117E2,1.3762187E2,1.2196134E2,2.1252254E1,4.870871E1,1.329957E2,4.684352E1,2.250877E2,8.775393E1,7.7694554E0,1.872736E0,3.5094208E1,3.5393648E0,0E0,0E0,0E0,0E0,0E0,0E0,0E0,0E0,0E0,0E0,0E0,0E0,0E0,0E0,0E0,0E0],"parents":[2147483647,0,0,1,1,2,2,3,3,4,4,5,5,6,6,7,7,8,8,9,9,10,10,11,11,12,12,13,13,14,14],"right_children":[2,4,6,8,10,12,14,16,18,20,22,24,26,28,30,-1,-1,-1,-1,-1,-1,-1,-1,-1,-1,-1,-1,-1,-1,-1,-1],"split_conditions":[1.2252475E-1,-2.4193326E-2,-2.4610553E-2,2.5010875E-1,-1.7298157E0,1.1571108E-1,2.116306E-2,6.2072758E-2,-2.9641138E-2,4.67741E-4,-2.4381135E-2,4.08751E-2,2.39723E0,-2.1197867E-2,2.0787671E-2,3.9486964E-3,-6.613428E-2,3.2613613E-2,4.458242E-3,-8.445369E-3,-7.192149E-2,5.5636697E-2,-8.5399894E-4,1.6028516E-2,-2.241526E-3,-4.924136E-3,-2.080209E-2,-6.40399E-2,-1.0155048E-2,5.36022E-5,-1.7827153E-2],"split_indices":[31,61,32,8,49,23,41,58,61,43,59,17,7,12,2,0,0,0,0,0,0,0,0,0,0,0,0,0,0,0,0],"split_type":[0,0,0,0,0,0,0,0,0,0,0,0,0,0,0,0,0,0,0,0,0,0,0,0,0,0,0,0,0,0,0],"sum_hessian":[1.17E3,1.141E3,2.9E1,1.97E2,9.44E2,1.4E1,1.5E1,1.63E2,3.4E1,5.5E1,8.89E2,9E0,5E0,1.1E1,4E0,1.61E2,2E0,2.5E1,9E0,4.9E1,6E0,2E0,8.87E2,5E0,4E0,2E0,3E0,9E0,2E0,2E0,2E0],"tree_param":{"num_deleted":"0","num_feature":"62","num_nodes":"31","size_leaf_vector":"1"}},{"base_weights":[3.891467E-2,1.0281892E0,-7.9313725E-2,6.4432734E-1,2.494563E0,-1.8883867E-2,-2.8109732E0,9.3974066E-1,-1.6495839E0,8.718049E-1,3.046537E0,3.2872386E-2,-1.7061964E0,-6.6223907E0,6.30301E-1,-5.904818E-3,1.4891238E-2,2.500461E-3,-3.16295E-2,-6.140202E-3,1.5190583E-2,4.28493E-2,1.9810759E-2,-4.8541848E-4,1.2403447E-2,-3.4864976E-3,-5.8479127E-2,-8.765689E-2,9.779785E-3,2.884387E-2,-3.483128E-2],"categories":[],"categories_nodes":[],"categories_segments":[],"categories_sizes":[],"default_left":[0,0,0,0,0,0,0,0,0,0,0,0,0,0,0,0,0,0,0,0,0,0,0,0,0,0,0,0,0,0,0],"id":36,"left_children":[1,3,5,7,9,11,13,15,17,19,21,23,25,27,29,-1,-1,-1,-1,-1,-1,-1,-1,-1,-1,-1,-1,-1,-1,-1,-1],"loss_changes":[1.391474E2,6.987909E1,1.7542035E2,7.067066E1,2.0632751E1,9.096555E1,3.0584515E2,6.774278E1,3.2102352E1,7.6942997E0,1.5347931E1,9.2935875E1,1.6407225E2,1.5627203E2,1.1949839E2,0E0,0E0,0E0,0E0,0E0,0E0,0E0,0E0,0E0,0E0,0E0,0E0,0E0,0E0,0E0,0E0],"parents":[2147483647,0,0,1,1,2,2,3,3,4,4,5,5,6,6,7,7,8,8,9,9,10,10,11,11,12,12,13,13,14,14],"right_children":[2,4,6,8,10,12,14,16,18,20,22,24,26,28,30,-1,-1,-1,-1,-1,-1,-1,-1,-1,-1,-1,-1,-1,-1,-1,-1],"split_conditions":[-1.3071437E-2,3.3856747E-1,3.283316E-2,2.0311536E-2,-3.9201733E-2,2.4995205E0,-5.6247104E-2,9.784853E-3,-3.520011E-2,-1.3185218E-1,1.4930882E0,1.5242836E0,7E0,1.929497E-3,2.9566849E-2,-5.904818E-3,1.4891238E-2,2.500461E-3,-3.16295E-2,-6.140202E-3,1.5190583E-2,4.28493E-2,1.9810759E-2,-4.8541848E-4,1.2403447E-2,-3.4864976E-3,-5.8479127E-2,-8.765689E-2,9.779785E-3,2.884387E-2,-3.483128E-2],"split_indices":[56,11,51,31,23,49,8,51,36,6,55,49,0,6,6,0,0,0,0,0,0,0,0,0,0,0,0,0,0,0,0],"split_type":[0,0,0,0,0,0,0,0,0,0,0,0,0,0,0,0,0,0,0,0,0,0,0,0,0,0,0,0,0,0,0],"sum_hessian":[1.188E3,1.26E2,1.062E3,1.01E2,2.5E1,1.04E3,2.2E1,9E1,1.1E1,7E0,1.8E1,1.01E3,3E1,1E1,1.2E1,2.2E1,6.8E1,5E0,6E0,2E0,5E0,8E0,1E1,9.46E2,6.4E1,2.3E1,7E0,8E0,2E0,8E0,4E0],"tree_param":{"num_deleted":"0","num_feature":"62","num_nodes":"31","size_leaf_vector":"1"}},{"base_weights":[3.9661424E-3,9.868972E-1,-2.0701802E-1,1.128359E0,-4.105172E0,-1.3252325E0,-2.127796E-2,1.2469147E0,-3.9581022E0,-6.5474816E-2,-1.5101197E-2,-8.9115256E-1,-3.4223278E0,-1.127102E-1,2.2624023E0,9.968815E-3,3.1817503E-2,-7.2554275E-2,3.768666E-3,-1.1779951E-2,2.6699314E-2,-1.789912E-2,-7.632163E-2,-2.3410277E-2,-2.7650144E-4,3.358216E-2,-1.832023E-2],"categories":[],"categories_nodes":[],"categories_segments":[],"categories_sizes":[],"default_left":[0,0,0,0,0,0,0,0,0,0,0,0,0,0,0,0,0,0,0,0,0,0,0,0,0,0,0],"id":37,"left_children":[1,3,5,7,9,11,13,15,17,-1,-1,19,21,23,25,-1,-1,-1,-1,-1,-1,-1,-1,-1,-1,-1,-1],"loss_changes":[2.5113759E2,1.5878343E2,2.0704594E2,1.309686E2,2.5564789E1,1.2621376E2,1.789895E2,1.0468048E2,6.7311516E1,0E0,0E0,1.00897385E2,1.469783E2,1.5139171E2,1.3276376E2,0E0,0E0,0E0,0E0,0E0,0E0,0E0,0E0,0E0,0E0,0E0,0E0],"parents":[2147483647,0,0,1,1,2,2,3,3,4,4,5,5,6,6,7,7,8,8,11,11,12,12,13,13,14,14],"right_children":[2,4,6,8,10,12,14,16,18,-1,-1,20,22,24,26,-1,-1,-1,-1,-1,-1,-1,-1,-1,-1,-1,-1],"split_conditions":[-2.2526868E-2,1.2252475E-1,-6.7978084E-1,4.2191114E-2,4.7982667E-2,1.4394584E0,2.561115E-2,1.4661744E-2,2.4319554E-2,-6.5474816E-2,-1.5101197E-2,1.2890741E-2,2.244963E-3,-1.0577044E-2,1.938237E-2,9.968815E-3,3.1817503E-2,-7.2554275E-2,3.768666E-3,-1.1779951E-2,2.6699314E-2,-1.789912E-2,-7.632163E-2,-2.3410277E-2,-2.7650144E-4,3.358216E-2,-1.832023E-2],"split_indices":[61,31,49,44,23,52,51,35,5,0,0,56,43,59,58,0,0,0,0,0,0,0,0,0,0,0,0],"split_type":[0,0,0,0,0,0,0,0,0,0,0,0,0,0,0,0,0,0,0,0,0,0,0,0,0,0,0],"sum_hessian":[1.209E3,2.13E2,9.96E2,2.08E2,5E0,1.41E2,8.55E2,2.04E2,4E0,2E0,3E0,1.18E2,2.3E1,8.23E2,3.2E1,1.77E2,2.7E1,2E0,2E0,1.11E2,7E0,1.7E1,6E0,3.1E1,7.92E2,2.6E1,6E0],"tree_param":{"num_deleted":"0","num_feature":"62","num_nodes":"27","size_leaf_vector":"1"}},{"base_weights":[5.214427E-2,-7.6798305E-2,8.453764E-1,-7.119948E-1,8.750446E-2,1.5431278E0,-2.7558425E-1,-4.8113923E0,-5.427667E-1,5.4958284E-1,-1.3635686E-1,-1.9505649E0,1.9529889E0,-3.511376E0,1.2662847E-1,-9.73024E-3,-7.2485685E-2,-4.4822586E-3,-6.16332E-2,-4.2412404E-2,6.4603817E-3,-3.9781258E-2,-5.406269E-4,1.5434635E-2,-3.0003235E-2,8.3757825E-3,2.6833672E-2,-5.1470194E-2,3.5256188E-4,-2.8389767E-2,2.9169086E-3],"categories":[],"categories_nodes":[],"categories_segments":[],"categories_sizes":[],"default_left":[0,0,0,0,0,0,0,0,0,0,0,0,0,0,0,0,0,0,0,0,0,0,0,0,0,0,0,0,0,0,0],"id":38,"left_children":[1,3,5,7,9,11,13,15,17,19,21,23,25,27,29,-1,-1,-1,-1,-1,-1,-1,-1,-1,-1,-1,-1,-1,-1,-1,-1],"loss_changes":[1.18506775E2,1.0411376E2,1.2713385E2,1.3960391E2,8.2104034E1,1.4700229E2,8.243767E1,5.9917236E1,1.1745787E2,8.622322E1,1.6612976E2,3.9238605E1,6.213617E1,3.5526123E1,2.5629444E1,0E0,0E0,0E0,0E0,0E0,0E0,0E0,0E0,0E0,0E0,0E0,0E0,0E0,0E0,0E0,0E0],"parents":[2147483647,0,0,1,1,2,2,3,3,4,4,5,5,6,6,7,7,8,8,9,9,10,10,11,11,12,12,13,13,14,14],"right_children":[2,4,6,8,10,12,14,16,18,20,22,24,26,28,30,-1,-1,-1,-1,-1,-1,-1,-1,-1,-1,-1,-1,-1,-1,-1,-1],"split_conditions":[3.596349E-1,-1.5421978E-2,7.15902E-1,-6.2375396E-2,4.263326E-1,-2.6947733E-2,-6.1851572E-2,-3.213331E-2,1.1E1,-2.0459456E-2,-1.7998017E0,3.218504E-2,9.573399E-3,4.4787508E-2,-1.1616486E-2,-9.73024E-3,-7.2485685E-2,-4.4822586E-3,-6.16332E-2,-4.2412404E-2,6.4603817E-3,-3.9781258E-2,-5.406269E-4,1.5434635E-2,-3.0003235E-2,8.3757825E-3,2.6833672E-2,-5.1470194E-2,3.5256188E-4,-2.8389767E-2,2.9169086E-3],"split_indices":[8,58,47,25,47,58,29,33,0,57,49,48,51,2,44,0,0,0,0,0,0,0,0,0,0,0,0,0,0,0,0],"split_type":[0,0,0,0,0,0,0,0,0,0,0,0,0,0,0,0,0,0,0,0,0,0,0,0,0,0,0,0,0,0,0],"sum_hessian":[1.157E3,9.96E2,1.61E2,2.04E2,7.92E2,9.9E1,6.2E1,7E0,1.97E2,2.58E2,5.34E2,1E1,8.9E1,6E0,5.6E1,3E0,4E0,1.94E2,3E0,3E0,2.55E2,1.1E1,5.23E2,2E0,8E0,3.2E1,5.7E1,4E0,2E0,2E0,5.4E1],"tree_param":{"num_deleted":"0","num_feature":"62","num_nodes":"31","size_leaf_vector":"1"}},{"base_weights":[-4.835848E-2,-6.0003853E0,-2.2902895E-2,-3.9459206E-3,-7.623501E-2,1.3966585E-2,-2.6852913E0,8.170128E-1,-9.034896E-2,-4.8568153E0,3.0634243E0,2.7115005E-3,1.841949E-2,2.3277096E-2,-1.3008318E-3,-5.974601E-2,-3.4158514E-3,3.6980916E-2,5.8944444E-3],"categories":[],"categories_nodes":[],"categories_segments":[],"categories_sizes":[],"default_left":[0,0,0,0,0,0,0,0,0,0,0,0,0,0,0,0,0,0,0],"id":39,"left_children":[1,3,5,-1,-1,7,9,11,13,15,17,-1,-1,-1,-1,-1,-1,-1,-1],"loss_changes":[1.7788959E2,3.4081757E1,1.1498388E2,0E0,0E0,9.691216E1,2.1461407E2,6.98762E1,8.21131E1,4.5575653E1,4.0306053E0,0E0,0E0,0E0,0E0,0E0,0E0,0E0,0E0],"parents":[2147483647,0,0,1,1,2,2,5,5,6,6,7,7,8,8,9,9,10,10],"right_children":[2,4,6,-1,-1,8,10,12,14,16,18,-1,-1,-1,-1,-1,-1,-1,-1],"split_conditions":[-1.391047E-1,6.5369904E-3,3.4107786E-2,-3.9459206E-3,-7.623501E-2,-1.2854098E-2,2.882144E-2,6.0952395E-2,-2.8903466E-2,1.1469944E-1,1.6153021E-1,2.7115005E-3,1.841949E-2,2.3277096E-2,-1.3008318E-3,-5.974601E-2,-3.4158514E-3,3.6980916E-2,5.8944444E-3],"split_indices":[37,2,44,0,0,60,2,5,59,4,4,0,0,0,0,0,0,0,0],"split_type":[0,0,0,0,0,0,0,0,0,0,0,0,0,0,0,0,0,0,0],"sum_hessian":[1.174E3,4E0,1.17E3,1E0,3E0,1.155E3,1.5E1,1.32E2,1.023E3,1.1E1,4E0,8.4E1,4.8E1,1.4E1,1.009E3,9E0,2E0,3E0,1E0],"tree_param":{"num_deleted":"0","num_feature":"62","num_nodes":"19","size_leaf_vector":"1"}},{"base_weights":[-7.063107E-2,-2.7645532E-2,-2.38864E0,1.4943948E0,-9.72308E-2,-3.4764824E0,1.0916872E0,2.4141762E0,-2.6101053E0,-5.4986797E-2,-2.453809E0,-4.96107E0,-1.1861876E0,2.3039006E-2,-1.9624226E-2,1.2671742E-2,5.0162602E-2,1.7893845E-2,-7.590406E-2,4.1513657E-3,-2.9731414E-3,-5.576197E-2,4.1726786E-3,-5.617221E-2,-5.871906E-3,-1.7270884E-2,1.0974295E-2,-4.6254136E-3,2.8107786E-3],"categories":[],"categories_nodes":[],"categories_segments":[],"categories_sizes":[],"default_left":[0,0,0,0,0,0,0,0,0,0,0,0,0,0,0,0,0,0,0,0,0,0,0,0,0,0,0,0,0],"id":40,"left_children":[1,3,5,7,9,11,13,15,17,19,21,23,25,-1,27,-1,-1,-1,-1,-1,-1,-1,-1,-1,-1,-1,-1,-1,-1],"loss_changes":[1.2039978E2,1.25968254E2,8.708828E1,2.026139E2,1.1305491E2,5.1917664E1,7.4970565E0,1.17706665E2,2.1450098E2,1.1670511E2,1.673291E2,1.5705307E1,1.0163626E1,0E0,6.1001354E-1,0E0,0E0,0E0,0E0,0E0,0E0,0E0,0E0,0E0,0E0,0E0,0E0,0E0,0E0],"parents":[2147483647,0,0,1,1,2,2,3,3,4,4,5,5,6,6,7,7,8,8,9,9,10,10,11,11,12,12,14,14],"right_children":[2,4,6,8,10,12,14,16,18,20,22,24,26,-1,28,-1,-1,-1,-1,-1,-1,-1,-1,-1,-1,-1,-1,-1,-1],"split_conditions":[1.2252475E-1,-1.55589925E-2,4.750937E-3,1.5462004E-1,3.283316E-2,-4.0067367E-2,-8.891236E-3,2.3175184E-2,-2.2905521E-1,1.228531E0,-9.688374E-1,3.1654868E-1,1.1202593E-1,2.3039006E-2,-2.9659308E-3,1.2671742E-2,5.0162602E-2,1.7893845E-2,-7.590406E-2,4.1513657E-3,-2.9731414E-3,-5.576197E-2,4.1726786E-3,-5.617221E-2,-5.871906E-3,-1.7270884E-2,1.0974295E-2,-4.6254136E-3,2.8107786E-3],"split_indices":[31,59,42,48,51,16,2,51,54,55,49,3,6,0,2,0,0,0,0,0,0,0,0,0,0,0,0,0,0],"split_type":[0,0,0,0,0,0,0,0,0,0,0,0,0,0,0,0,0,0,0,0,0,0,0,0,0,0,0,0,0],"sum_hessian":[1.208E3,1.187E3,2.1E1,5.1E1,1.136E3,1.6E1,5E0,4.2E1,9E0,1.117E3,1.9E1,9E0,7E0,2E0,3E0,2.9E1,1.3E1,5E0,4E0,3.76E2,7.41E2,9E0,1E1,8E0,1E0,6E0,1E0,1E0,2E0],"tree_param":{"num_deleted":"0","num_feature":"62","num_nodes":"29","size_leaf_vector":"1"}},{"base_weights":[-5.848218E-2,-1.2279701E-2,-3.0917628E0,7.029187E-1,-1.5155418E-1,2.2322452E-1,-4.3839293E0,3.825947E-1,2.4305928E0,-1.4753877E0,-5.2425187E-2,-3.5406557E-1,1.6212383E-2,-5.11738E0,-2.3329921E-1,3.4327053E-2,2.006328E-3,-1.3575504E-2,2.8608734E-2,-3.7957747E-2,-8.519482E-4,4.741718E-4,-9.772393E-3,-5.6120805E-3,1.9945044E-3,-6.576749E-2,-2.5315814E-2,-5.8412924E-3,2.1923555E-3],"categories":[],"categories_nodes":[],"categories_segments":[],"categories_sizes":[],"default_left":[0,0,0,0,0,0,0,0,0,0,0,0,0,0,0,0,0,0,0,0,0,0,0,0,0,0,0,0,0],"id":41,"left_children":[1,3,5,7,9,11,13,15,17,19,21,23,-1,25,27,-1,-1,-1,-1,-1,-1,-1,-1,-1,-1,-1,-1,-1,-1],"loss_changes":[1.6813614E2,1.17943855E2,7.8081894E1,1.0587925E2,1.2997188E2,5.162876E0,3.838179E1,9.0112625E1,3.8632874E1,2.0789044E2,7.999396E1,6.0510004E-1,0E0,1.9891876E1,5.527895E-1,0E0,0E0,0E0,0E0,0E0,0E0,0E0,0E0,0E0,0E0,0E0,0E0,0E0,0E0],"parents":[2147483647,0,0,1,1,2,2,3,3,4,4,5,5,6,6,7,7,8,8,9,9,10,10,11,11,13,13,14,14],"right_children":[2,4,6,8,10,12,14,16,18,20,22,24,-1,26,28,-1,-1,-1,-1,-1,-1,-1,-1,-1,-1,-1,-1,-1,-1],"split_conditions":[1.2252475E-1,-2.8281054E-2,-2.4610553E-2,2.6250905E-1,-1.5827442E0,1.9361803E-1,-3.9871596E-3,-3.1634182E-1,2.1157159E-2,3E0,1.9099955E-2,-2.9659308E-3,1.6212383E-2,1.2078308E-2,2E0,3.4327053E-2,2.006328E-3,-1.3575504E-2,2.8608734E-2,-3.7957747E-2,-8.519482E-4,4.741718E-4,-9.772393E-3,-5.6120805E-3,1.9945044E-3,-6.576749E-2,-2.5315814E-2,-5.8412924E-3,2.1923555E-3],"split_indices":[31,61,32,8,49,3,39,54,48,0,45,2,0,37,0,0,0,0,0,0,0,0,0,0,0,0,0,0,0],"split_type":[0,0,0,0,0,0,0,0,0,0,0,0,0,0,0,0,0,0,0,0,0,0,0,0,0,0,0,0,0],"sum_hessian":[1.199E3,1.182E3,1.7E1,1.92E2,9.9E2,5E0,1.2E1,1.63E2,2.9E1,6.8E1,9.22E2,4E0,1E0,1E1,2E0,9E0,1.54E2,2E0,2.7E1,2.6E1,4.2E1,8.31E2,9.1E1,3E0,1E0,6E0,4E0,1E0,1E0],"tree_param":{"num_deleted":"0","num_feature":"62","num_nodes":"29","size_leaf_vector":"1"}},{"base_weights":[-2.8411815E-2,3.5792522E-2,-2.4341223E0,-3.7248983E0,6.5090984E-2,5.609659E-1,-6.1110845E0,-1.7038779E-1,-6.5344296E0,4.4453254E0,4.2161047E-2,-1.956495E-1,4.40926E0,-8.840045E0,5.690539E-1,-1.2221864E-2,9.26079E-3,-2.0282174E-2,-7.502752E-2,1.6605341E-3,5.4957792E-2,1.4193271E-2,-2.5160858E-4,-2.8376821E-2,3.749263E-3,5.4581903E-2,1.4381514E-2,-9.984033E-2,-1.1596919E-2,2.6584016E-2,-1.6694754E-2],"categories":[],"categories_nodes":[],"categories_segments":[],"categories_sizes":[],"default_left":[0,0,0,0,0,0,0,0,0,0,0,0,0,0,0,0,0,0,0,0,0,0,0,0,0,0,0,0,0,0,0],"id":42,"left_children":[1,3,5,7,9,11,13,15,17,19,21,23,25,27,29,-1,-1,-1,-1,-1,-1,-1,-1,-1,-1,-1,-1,-1,-1,-1,-1],"loss_changes":[1.8419994E2,1.2827448E2,3.4482568E2,8.876517E1,1.157186E2,5.327288E1,2.6024823E2,6.3429327E0,1.1721191E0,2.0386055E1,1.00502174E2,2.3416641E1,2.8286362E-1,4.6155945E1,2.5571627E1,0E0,0E0,0E0,0E0,0E0,0E0,0E0,0E0,0E0,0E0,0E0,0E0,0E0,0E0,0E0,0E0],"parents":[2147483647,0,0,1,1,2,2,3,3,4,4,5,5,6,6,7,7,8,8,9,9,10,10,11,11,12,12,13,13,14,14],"right_children":[2,4,6,8,10,12,14,16,18,20,22,24,26,28,30,-1,-1,-1,-1,-1,-1,-1,-1,-1,-1,-1,-1,-1,-1,-1,-1],"split_conditions":[3.283316E-2,-1.391047E-1,-1.9274667E-1,-3.7916936E-2,-3.3897015E-1,1.0839564E-3,4.1355316E1,7.530764E-1,-9.056461E-1,2.9981289E1,-5.1099736E-2,-5.471591E-2,4E0,7E0,3E0,-1.2221864E-2,9.26079E-3,-2.0282174E-2,-7.502752E-2,1.6605341E-3,5.4957792E-2,1.4193271E-2,-2.5160858E-4,-2.8376821E-2,3.749263E-3,5.4581903E-2,1.4381514E-2,-9.984033E-2,-1.1596919E-2,2.6584016E-2,-1.6694754E-2],"split_indices":[51,37,54,23,54,24,50,11,2,50,61,5,0,0,0,0,0,0,0,0,0,0,0,0,0,0,0,0,0,0,0],"split_type":[0,0,0,0,0,0,0,0,0,0,0,0,0,0,0,0,0,0,0,0,0,0,0,0,0,0,0,0,0,0,0],"sum_hessian":[1.191E3,1.161E3,3E1,8E0,1.153E3,1.7E1,1.3E1,4E0,4E0,5E0,1.148E3,1.5E1,2E0,9E0,4E0,2E0,2E0,1E0,3E0,1E0,4E0,5.4E1,1.094E3,2E0,1.3E1,1E0,1E0,8E0,1E0,2E0,2E0],"tree_param":{"num_deleted":"0","num_feature":"62","num_nodes":"31","size_leaf_vector":"1"}},{"base_weights":[-4.722282E-2,3.9252752E-1,-2.7536696E-1,-5.681981E-1,6.752812E-1,-2.4406077E-1,-6.654208E-2,-6.470168E0,-9.226638E-2,3.2264876E0,5.204739E-1,-3.2556E-1,1.3315803E0,-1.3792735E-2,-8.6175114E-2,-4.0049948E-2,1.8751539E-3,-5.3660117E-2,4.1934717E-2,-1.9104438E-2,6.6902344E-3,1.4115013E-2,-4.1427673E-3,3.3269778E-3,3.4743525E-2],"categories":[],"categories_nodes":[],"categories_segments":[],"categories_sizes":[],"default_left":[0,0,0,0,0,0,0,0,0,0,0,0,0,0,0,0,0,0,0,0,0,0,0,0,0],"id":43,"left_children":[1,3,5,7,9,11,-1,13,15,17,19,21,23,-1,-1,-1,-1,-1,-1,-1,-1,-1,-1,-1,-1],"loss_changes":[1.207005E2,1.120313E2,1.4984534E2,2.6344287E2,1.2391333E2,1.01751816E2,0E0,5.372296E1,9.0453094E1,1.4054553E2,8.696737E1,9.102204E1,7.793121E1,0E0,0E0,0E0,0E0,0E0,0E0,0E0,0E0,0E0,0E0,0E0,0E0],"parents":[2147483647,0,0,1,1,2,2,3,3,4,4,5,5,7,7,8,8,9,9,10,10,11,11,12,12],"right_children":[2,4,6,8,10,12,-1,14,16,18,20,22,24,-1,-1,-1,-1,-1,-1,-1,-1,-1,-1,-1,-1],"split_conditions":[1.2210894E0,-1.1208285E-1,1.775672E-1,-1.8909192E0,-1.698372E-2,1.3954036E-1,-6.654208E-2,2.7960114E1,-2.5419462E-1,-6.0697813E-3,-2.8047305E-1,2.9477205E1,8.47283E-3,-1.3792735E-2,-8.6175114E-2,-4.0049948E-2,1.8751539E-3,-5.3660117E-2,4.1934717E-2,-1.9104438E-2,6.6902344E-3,1.4115013E-2,-4.1427673E-3,3.3269778E-3,3.4743525E-2],"split_indices":[55,8,33,49,59,20,0,50,54,57,54,50,33,0,0,0,0,0,0,0,0,0,0,0,0],"split_type":[0,0,0,0,0,0,0,0,0,0,0,0,0,0,0,0,0,0,0,0,0,0,0,0,0],"sum_hessian":[1.201E3,4.1E2,7.91E2,9.3E1,3.17E2,7.88E2,3E0,6E0,8.7E1,1.7E1,3E2,7.5E2,3.8E1,2E0,4E0,5E0,8.2E1,1E0,1.6E1,1.4E1,2.86E2,3E1,7.2E2,2.6E1,1.2E1],"tree_param":{"num_deleted":"0","num_feature":"62","num_nodes":"25","size_leaf_vector":"1"}},{"base_weights":[-2.398562E-2,8.461232E-2,-1.1710154E0,1.0237082E-1,-6.514683E-2,-7.1760476E-1,-4.474011E0,4.7557536E-3,1.0443087E0,-9.939359E-1,2.7008834E0,-4.285465E-1,-5.774883E0,-6.281944E-2,2.451876E-4,2.6203267E-2,3.6290197E-3,-4.229826E-2,-7.807241E-3,-4.3186108E-3,4.2018346E-2,1.6692787E-3,-7.070825E-3,-7.118197E-2,-1.4553882E-2],"categories":[],"categories_nodes":[],"categories_segments":[],"categories_sizes":[],"default_left":[0,0,0,0,0,0,0,0,0,0,0,0,0,0,0,0,0,0,0,0,0,0,0,0,0],"id":44,"left_children":[1,3,5,7,-1,9,11,13,15,17,19,21,23,-1,-1,-1,-1,-1,-1,-1,-1,-1,-1,-1,-1],"loss_changes":[1.4546652E2,1.2062941E2,1.4804837E2,9.7918945E1,0E0,8.770162E1,6.0676773E1,1.0940061E2,1.0138639E2,6.0040283E1,3.0645275E1,6.96201E-1,3.192398E1,0E0,0E0,0E0,0E0,0E0,0E0,0E0,0E0,0E0,0E0,0E0,0E0],"parents":[2147483647,0,0,1,1,2,2,3,3,5,5,6,6,7,7,8,8,9,9,10,10,11,11,12,12],"right_children":[2,4,6,8,-1,10,12,14,16,18,20,22,24,-1,-1,-1,-1,-1,-1,-1,-1,-1,-1,-1,-1],"split_conditions":[1.8332636E-2,1.3E1,-3.3568382E-1,4.6370947E-1,-6.514683E-2,7.038898E-2,8.758907E-1,-1.391047E-1,-9.334192E-3,-1.1271666E0,-3.9927434E-2,2E0,7.514006E-2,-6.281944E-2,2.451876E-4,2.6203267E-2,3.6290197E-3,-4.229826E-2,-7.807241E-3,-4.3186108E-3,4.2018346E-2,1.6692787E-3,-7.070825E-3,-7.118197E-2,-1.4553882E-2],"split_indices":[45,0,53,8,0,20,55,37,43,49,4,0,5,0,0,0,0,0,0,0,0,0,0,0,0],"split_type":[0,0,0,0,0,0,0,0,0,0,0,0,0,0,0,0,0,0,0,0,0,0,0,0,0],"sum_hessian":[1.166E3,1.066E3,1E2,1.064E3,2E0,8.9E1,1.1E1,9.65E2,9.9E1,8.3E1,6E0,3E0,8E0,2E0,9.63E2,3.1E1,6.8E1,5E0,7.8E1,2E0,4E0,1E0,2E0,6E0,2E0],"tree_param":{"num_deleted":"0","num_feature":"62","num_nodes":"25","size_leaf_vector":"1"}},{"base_weights":[-8.003342E-3,-2.0923343E0,3.739411E-2,-1.3840762E0,-5.698044E-2,-1.2099042E-1,5.708211E-1,-1.9782676E0,1.0318278E0,-1.9026819E-1,1.2416008E0,1.3661549E0,5.0286498E-2,-2.4348432E-3,-2.274942E-2,1.2969136E-2,9.590553E-4,-1.6478262E-3,-2.985086E-2,1.70355E-2,-2.1539183E-2,1.9435432E-2,-9.998384E-3,-3.156499E-2,2.8740624E-3],"categories":[],"categories_nodes":[],"categories_segments":[],"categories_sizes":[],"default_left":[0,0,0,0,0,0,0,0,0,0,0,0,0,0,0,0,0,0,0,0,0,0,0,0,0],"id":45,"left_children":[1,3,5,7,-1,9,11,13,15,17,19,21,23,-1,-1,-1,-1,-1,-1,-1,-1,-1,-1,-1,-1],"loss_changes":[1.1097677E2,5.2148582E1,9.705967E1,3.362243E1,0E0,8.3872215E1,1.0881297E2,5.8815765E0,8.816905E-1,7.225707E1,5.9147957E1,1.2215437E2,1.1179617E2,0E0,0E0,0E0,0E0,0E0,0E0,0E0,0E0,0E0,0E0,0E0,0E0],"parents":[2147483647,0,0,1,1,2,2,3,3,5,5,6,6,7,7,8,8,9,9,10,10,11,11,12,12],"right_children":[2,4,6,8,-1,10,12,14,16,18,20,22,24,-1,-1,-1,-1,-1,-1,-1,-1,-1,-1,-1,-1],"split_conditions":[-2.9129413E-1,1.5268182E-2,1.2434093E-2,4.3561082E-2,-5.698044E-2,2.0031555E0,-1.9158658E-1,-8.0177456E-2,-3.1030124E-1,3.4107786E-2,8E0,1.594086E0,-9.952123E-3,-2.4348432E-3,-2.274942E-2,1.2969136E-2,9.590553E-4,-1.6478262E-3,-2.985086E-2,1.70355E-2,-2.1539183E-2,1.9435432E-2,-9.998384E-3,-3.156499E-2,2.8740624E-3],"split_indices":[6,51,58,34,0,49,49,27,6,44,0,52,60,0,0,0,0,0,0,0,0,0,0,0,0],"split_type":[0,0,0,0,0,0,0,0,0,0,0,0,0,0,0,0,0,0,0,0,0,0,0,0,0],"sum_hessian":[1.171E3,2.4E1,1.147E3,2.1E1,3E0,8.85E2,2.62E2,1.7E1,4E0,8.43E2,4.2E1,1.03E2,1.59E2,2E0,1.5E1,3E0,1E0,8.34E2,9E0,3.8E1,4E0,8.5E1,1.8E1,1E1,1.49E2],"tree_param":{"num_deleted":"0","num_feature":"62","num_nodes":"25","size_leaf_vector":"1"}},{"base_weights":[-9.886516E-2,4.160659E0,-1.1648673E-1,4.975248E-2,8.9536235E-3,-2.6045346E-1,4.1184276E-1,-1.4705397E0,-1.1407565E-1,7.250649E-1,-1.263627E0,-2.0758038E-2,1.7513346E-2,-2.108598E-3,1.4821152E-2,4.1432053E-2,5.7326523E-3,4.156436E-2,-2.3747515E-2],"categories":[],"categories_nodes":[],"categories_segments":[],"categories_sizes":[],"default_left":[0,0,0,0,0,0,0,0,0,0,0,0,0,0,0,0,0,0,0],"id":46,"left_children":[1,3,5,-1,-1,7,9,11,13,15,17,-1,-1,-1,-1,-1,-1,-1,-1],"loss_changes":[9.10815E1,5.987297E0,9.160969E1,0E0,0E0,1.67397E2,1.3631311E2,1.7050641E2,1.1465833E2,1.2194114E2,2.273052E2,0E0,0E0,0E0,0E0,0E0,0E0,0E0,0E0],"parents":[2147483647,0,0,1,1,2,2,5,5,6,6,7,7,8,8,9,9,10,10],"right_children":[2,4,6,-1,-1,8,10,12,14,16,18,-1,-1,-1,-1,-1,-1,-1,-1],"split_conditions":[-3.3897015E-1,7E0,1.2434093E-2,4.975248E-2,8.9536235E-3,-1.708062E-1,2.1100828E-2,1.5235058E0,2.2920066E-2,-3.357369E-2,9.3919945E-1,-2.0758038E-2,1.7513346E-2,-2.108598E-3,1.4821152E-2,4.1432053E-2,5.7326523E-3,4.156436E-2,-2.3747515E-2],"split_indices":[54,0,58,0,0,54,51,55,51,42,52,0,0,0,0,0,0,0,0],"split_type":[0,0,0,0,0,0,0,0,0,0,0,0,0,0,0,0,0,0,0],"sum_hessian":[1.206E3,4E0,1.202E3,3E0,1E0,9.45E2,2.57E2,1.01E2,8.44E2,2.17E2,4E1,8.7E1,1.4E1,7.99E2,4.5E1,1E1,2.07E2,6E0,3.4E1],"tree_param":{"num_deleted":"0","num_feature":"62","num_nodes":"19","size_leaf_vector":"1"}},{"base_weights":[-2.341476E-2,4.3074613E0,-4.818395E-2,5.415474E-2,1.4541805E-2,-3.7507517E0,-2.6847748E-2,-5.626259E-1,-6.257476E-2,-2.4475493E-1,3.1880727E-1,6.1457898E-3,-1.1919238E-2,-1.3081122E-2,-9.232828E-4,4.0826094E-3,-3.6059942E-2],"categories":[],"categories_nodes":[],"categories_segments":[],"categories_sizes":[],"default_left":[0,0,0,0,0,0,0,0,0,0,0,0,0,0,0,0,0],"id":47,"left_children":[1,3,5,-1,-1,7,9,11,-1,13,15,-1,-1,-1,-1,-1,-1],"loss_changes":[1.320452E2,1.0826538E1,9.651475E1,0E0,0E0,4.684632E1,9.174333E1,3.3486876E0,0E0,1.1771772E2,1.3074678E2,0E0,0E0,0E0,0E0,0E0,0E0],"parents":[2147483647,0,0,1,1,2,2,5,5,6,6,7,7,9,9,10,10],"right_children":[2,4,6,-1,-1,8,10,12,-1,14,16,-1,-1,-1,-1,-1,-1],"split_conditions":[-3.3897015E-1,4.8988543E-2,-1.391047E-1,5.415474E-2,1.4541805E-2,-6.076241E-3,4.970374E-3,-9.056461E-1,-6.257476E-2,-1.594786E-1,1.5462004E-1,6.1457898E-3,-1.1919238E-2,-1.3081122E-2,-9.232828E-4,4.0826094E-3,-3.6059942E-2],"split_indices":[54,6,37,0,0,19,58,2,0,54,48,0,0,0,0,0,0],"split_type":[0,0,0,0,0,0,0,0,0,0,0,0,0,0,0,0,0],"sum_hessian":[1.228E3,6E0,1.222E3,4E0,2E0,6E0,1.216E3,3E0,3E0,7.46E2,4.7E2,1E0,2E0,9.9E1,6.47E2,4.62E2,8E0],"tree_param":{"num_deleted":"0","num_feature":"62","num_nodes":"17","size_leaf_vector":"1"}},{"base_weights":[2.0525884E-2,5.323834E-2,-2.9352393E0,1.4386418E0,-2.9259289E-2,-7.304384E-2,-3.480016E-1,-2.1641192E0,1.9728868E0,-9.2906255E-1,6.379121E-2,-1.7901095E0,1.9021608E0,-6.821418E-2,2.2198797E-4,7.4269753E-3,2.9631391E-2,-5.422699E-2,-4.372252E-3,3.5525416E-4,3.4955774E-2,-5.5326563E-3,-2.0185633E-2,3.3340793E-2,4.218064E-3],"categories":[],"categories_nodes":[],"categories_segments":[],"categories_sizes":[],"default_left":[0,0,0,0,0,0,0,0,0,0,0,0,0,0,0,0,0,0,0,0,0,0,0,0,0],"id":48,"left_children":[1,3,5,7,9,-1,11,13,15,17,19,21,23,-1,-1,-1,-1,-1,-1,-1,-1,-1,-1,-1,-1],"loss_changes":[1.14831E2,1.3422147E2,1.3445227E2,1.3130353E2,9.291266E1,0E0,3.2609867E1,8.624707E1,6.1505066E1,2.2426834E2,9.8212585E1,7.4466705E-2,6.4664135E0,0E0,0E0,0E0,0E0,0E0,0E0,0E0,0E0,0E0,0E0,0E0,0E0],"parents":[2147483647,0,0,1,1,2,2,3,3,4,4,6,6,7,7,8,8,9,9,10,10,11,11,12,12],"right_children":[2,4,6,8,10,-1,12,14,16,18,20,22,24,-1,-1,-1,-1,-1,-1,-1,-1,-1,-1,-1,-1],"split_conditions":[3.7683778E-2,-5.1099736E-2,-4.3537438E-2,-7.936698E-3,-1.4027182E0,-7.304384E-2,4.0028663E-3,-6.080216E-2,-2.0938322E-4,-6.0697813E-3,2.4907282E-2,6.391301E-4,-3.560138E-2,-6.821418E-2,2.2198797E-4,7.4269753E-3,2.9631391E-2,-5.422699E-2,-4.372252E-3,3.5525416E-4,3.4955774E-2,-5.5326563E-3,-2.0185633E-2,3.3340793E-2,4.218064E-3],"split_indices":[44,61,8,57,49,0,42,42,5,57,44,5,3,0,0,0,0,0,0,0,0,0,0,0,0],"split_type":[0,0,0,0,0,0,0,0,0,0,0,0,0,0,0,0,0,0,0,0,0,0,0,0,0],"sum_hessian":[1.185E3,1.173E3,1.2E1,6.5E1,1.108E3,4E0,8E0,8E0,5.7E1,1.03E2,1.005E3,5E0,3E0,2E0,6E0,2.4E1,3.3E1,1E1,9.3E1,9.97E2,8E0,1E0,4E0,1E0,2E0],"tree_param":{"num_deleted":"0","num_feature":"62","num_nodes":"25","size_leaf_vector":"1"}},{"base_weights":[-1.6400283E-2,5.9622135E-2,-1.2153962E0,-4.697443E0,8.088172E-2,-3.168674E0,-5.417962E-1,-1.18388515E-2,-6.979534E-2,6.5176886E-1,-6.643138E-2,-4.1616983E0,2.455295E-1,1.5919701E0,-1.3284137E0,3.9917752E-2,5.101353E-3,-2.4999878E-3,6.1885836E-3,-4.9593113E-2,-4.1341693E-3,6.9981185E-3,-7.5958595E-3,3.564832E-2,6.4319926E-3,-9.900791E-3,-5.9275962E-2],"categories":[],"categories_nodes":[],"categories_segments":[],"categories_sizes":[],"default_left":[0,0,0,0,0,0,0,0,0,0,0,0,0,0,0,0,0,0,0,0,0,0,0,0,0,0,0],"id":49,"left_children":[1,3,5,7,9,11,13,-1,-1,15,17,19,21,23,25,-1,-1,-1,-1,-1,-1,-1,-1,-1,-1,-1,-1],"loss_changes":[1.0854163E2,1.1364919E2,9.169991E1,2.7953377E1,9.3897964E1,6.2048798E1,9.2751526E1,0E0,0E0,1.16352875E2,1.0171778E2,2.9451874E1,2.561698E0,2.4611992E1,6.0625206E1,0E0,0E0,0E0,0E0,0E0,0E0,0E0,0E0,0E0,0E0,0E0,0E0],"parents":[2147483647,0,0,1,1,2,2,3,3,4,4,5,5,6,6,9,9,10,10,11,11,12,12,13,13,14,14],"right_children":[2,4,6,8,10,12,14,-1,-1,16,18,20,22,24,26,-1,-1,-1,-1,-1,-1,-1,-1,-1,-1,-1,-1],"split_conditions":[2.1574909E-2,-1.391047E-1,-2.1787332E-1,6.5369904E-3,-3.7878603E-3,3.8217753E-4,-1.2835854E-1,-1.18388515E-2,-6.979534E-2,-2.8559384E-1,1.2648722E-2,1.3043082E-1,4.050505E-1,-1.0532309E-2,3.7747517E-2,3.9917752E-2,5.101353E-3,-2.4999878E-3,6.1885836E-3,-4.9593113E-2,-4.1341693E-3,6.9981185E-3,-7.5958595E-3,3.564832E-2,6.4319926E-3,-9.900791E-3,-5.9275962E-2],"split_indices":[45,37,54,2,36,35,54,0,0,54,58,6,3,58,25,0,0,0,0,0,0,0,0,0,0,0,0],"split_type":[0,0,0,0,0,0,0,0,0,0,0,0,0,0,0,0,0,0,0,0,0,0,0,0,0,0,0],"sum_hessian":[1.189E3,1.119E3,7E1,4E0,1.115E3,1.7E1,5.3E1,2E0,2E0,2.28E2,8.87E2,1.3E1,4E0,1.4E1,3.9E1,1E1,2.18E2,7.03E2,1.84E2,1.1E1,2E0,3E0,1E0,4E0,1E1,3.7E1,2E0],"tree_param":{"num_deleted":"0","num_feature":"62","num_nodes":"27","size_leaf_vector":"1"}},{"base_weights":[-3.814604E-2,9.750058E-1,-1.4324063E-1,1.2432032E0,-1.3859217E0,-1.4820355E0,-5.6811236E-2,9.5474535E-1,3.3270743E0,2.0720925E0,-2.2847338E0,-7.170052E-1,-6.93888E0,3.67368E-1,-2.9031265E-1,4.3001203E-3,2.252551E-2,4.307219E-2,1.4344339E-2,4.6115704E-3,2.7797177E-2,-9.511155E-3,-4.291312E-2,-2.2609724E-2,1.2601212E-2,-7.9243675E-2,-1.20555805E-2,2.62527E-3,3.617168E-2,-1.7752217E-3,-1.4881908E-2],"categories":[],"categories_nodes":[],"categories_segments":[],"categories_sizes":[],"default_left":[0,0,0,0,0,0,0,0,0,0,0,0,0,0,0,0,0,0,0,0,0,0,0,0,0,0,0,0,0,0,0],"id":50,"left_children":[1,3,5,7,9,11,13,15,17,19,21,23,25,27,29,-1,-1,-1,-1,-1,-1,-1,-1,-1,-1,-1,-1,-1,-1,-1,-1],"loss_changes":[1.2801826E2,7.327395E1,1.2592533E2,5.8136612E1,4.203144E1,2.705518E2,1.0153023E2,5.8607018E1,1.3138107E1,1.7242203E0,2.1375294E1,1.6750342E2,2.178894E1,1.2963159E2,8.9984024E1,0E0,0E0,0E0,0E0,0E0,0E0,0E0,0E0,0E0,0E0,0E0,0E0,0E0,0E0,0E0,0E0],"parents":[2147483647,0,0,1,1,2,2,3,3,4,4,5,5,6,6,7,7,8,8,9,9,10,10,11,11,12,12,13,13,14,14],"right_children":[2,4,6,8,10,12,14,16,18,20,22,24,26,28,30,-1,-1,-1,-1,-1,-1,-1,-1,-1,-1,-1,-1,-1,-1,-1,-1],"split_conditions":[-1.3071437E-2,5.7080526E-2,-1.7998017E0,1.00652836E-1,-1.2935862E-2,2.11063E-3,1.2190459E0,7.514006E-2,6E0,4E0,2.3122115E-2,4E0,6E0,2.7850816E-2,2.2225132E-2,4.3001203E-3,2.252551E-2,4.307219E-2,1.4344339E-2,4.6115704E-3,2.7797177E-2,-9.511155E-3,-4.291312E-2,-2.2609724E-2,1.2601212E-2,-7.9243675E-2,-1.20555805E-2,2.62527E-3,3.617168E-2,-1.7752217E-3,-1.4881908E-2],"split_indices":[56,25,49,48,20,43,55,5,0,0,16,0,1,51,51,0,0,0,0,0,0,0,0,0,0,0,0,0,0,0,0],"split_type":[0,0,0,0,0,0,0,0,0,0,0,0,0,0,0,0,0,0,0,0,0,0,0,0,0,0,0,0,0,0,0],"sum_hessian":[1.2E3,1.12E2,1.088E3,1.01E2,1.1E1,6.5E1,1.023E3,9E1,1.1E1,2E0,9E0,5.8E1,7E0,3.63E2,6.6E2,6.3E1,2.7E1,7E0,4E0,1E0,1E0,6E0,3E0,3.3E1,2.5E1,6E0,1E0,3.51E2,1.2E1,5.98E2,6.2E1],"tree_param":{"num_deleted":"0","num_feature":"62","num_nodes":"31","size_leaf_vector":"1"}},{"base_weights":[-4.37244E-2,-1.2909266E0,5.5245936E-2,-7.6839366E0,-5.646547E-1,-9.684505E-2,8.2608974E-1,-9.3299665E-2,1.2654769E-2,-1.9033871E0,1.0787944E0,2.5282867E0,-1.3647208E-1,1.2319914E0,-4.6409312E-1,-2.8687134E-2,4.239709E-2,3.2448396E-2,-3.0663405E-3,3.827242E-2,8.985279E-3,-2.6141103E-2,-3.054551E-4,-1.4808602E-2,1.5070132E-2,-5.3428907E-2,1.2044838E-3],"categories":[],"categories_nodes":[],"categories_segments":[],"categories_sizes":[],"default_left":[0,0,0,0,0,0,0,0,0,0,0,0,0,0,0,0,0,0,0,0,0,0,0,0,0,0,0],"id":51,"left_children":[1,3,5,7,9,11,13,-1,-1,15,17,19,21,23,25,-1,-1,-1,-1,-1,-1,-1,-1,-1,-1,-1,-1],"loss_changes":[1.494289E2,4.0889386E2,1.3162148E2,1.1207068E2,1.8026459E2,9.7921585E1,9.7453926E1,0E0,0E0,2.3893604E2,1.04191246E2,2.3486748E1,2.3494344E2,8.1818054E1,1.2213496E2,0E0,0E0,0E0,0E0,0E0,0E0,0E0,0E0,0E0,0E0,0E0,0E0],"parents":[2147483647,0,0,1,1,2,2,3,3,4,4,5,5,6,6,9,9,10,10,11,11,12,12,13,13,14,14],"right_children":[2,4,6,8,10,12,14,-1,-1,16,18,20,22,24,26,-1,-1,-1,-1,-1,-1,-1,-1,-1,-1,-1,-1],"split_conditions":[-1.8334659E0,-6.0697813E-3,1.670982E-2,3.268104E-5,4E0,-3.1870803E-1,6.978504E1,-9.3299665E-2,1.2654769E-2,6.8863586E-2,5.0852797E-3,-1.241494E-2,-2.2266942E-1,-2.0459456E-2,2.244963E-3,-2.8687134E-2,4.239709E-2,3.2448396E-2,-3.0663405E-3,3.827242E-2,8.985279E-3,-2.6141103E-2,-3.054551E-4,-1.4808602E-2,1.5070132E-2,-5.3428907E-2,1.2044838E-3],"split_indices":[49,57,58,6,0,54,50,0,0,5,5,36,54,57,43,0,0,0,0,0,0,0,0,0,0,0,0],"split_type":[0,0,0,0,0,0,0,0,0,0,0,0,0,0,0,0,0,0,0,0,0,0,0,0,0,0,0],"sum_hessian":[1.209E3,8.8E1,1.121E3,8E0,8E1,9.37E2,1.84E2,7E0,1E0,4.4E1,3.6E1,1.3E1,9.24E2,1.4E2,4.4E1,3.9E1,5E0,1.4E1,2.2E1,7E0,6E0,3.9E1,8.85E2,1E1,1.3E2,4E0,4E1],"tree_param":{"num_deleted":"0","num_feature":"62","num_nodes":"27","size_leaf_vector":"1"}},{"base_weights":[-2.2459617E-2,2.5772613E-2,-2.3366709E0,-1.1095406E0,1.036108E-1,3.7494773E-1,-4.300323E0,-2.3997285E0,6.5882254E-1,5.9414476E-1,-7.237132E-2,1.4173548E0,-7.299506E-1,-4.886676E0,-5.214708E-1,-2.00197E-2,-6.8790674E-2,2.623375E-2,-2.7590176E-2,4.0458585E-3,2.7450146E-2,-1.795614E-2,-1.4968423E-4,8.751458E-4,1.7384553E-2,-2.1319021E-3,-1.2379941E-2,-6.065022E-2,-1.6397992E-2,2.1832564E-3,-1.0339367E-2],"categories":[],"categories_nodes":[],"categories_segments":[],"categories_sizes":[],"default_left":[0,0,0,0,0,0,0,0,0,0,0,0,0,0,0,0,0,0,0,0,0,0,0,0,0,0,0,0,0,0,0],"id":52,"left_children":[1,3,5,7,9,11,13,15,17,19,21,23,25,27,29,-1,-1,-1,-1,-1,-1,-1,-1,-1,-1,-1,-1,-1,-1,-1,-1],"loss_changes":[1.312132E2,1.0191802E2,1.2940462E2,1.7041351E2,9.318789E1,1.3703891E1,2.8472107E1,7.392697E1,2.030553E2,1.1873068E2,7.606387E1,1.859395E0,1.1992171E0,2.783493E1,1.2383888E0,0E0,0E0,0E0,0E0,0E0,0E0,0E0,0E0,0E0,0E0,0E0,0E0,0E0,0E0,0E0,0E0],"parents":[2147483647,0,0,1,1,2,2,3,3,4,4,5,5,6,6,7,7,8,8,9,9,10,10,11,11,12,12,13,13,14,14],"right_children":[2,4,6,8,10,12,14,16,18,20,22,24,26,28,30,-1,-1,-1,-1,-1,-1,-1,-1,-1,-1,-1,-1,-1,-1,-1,-1],"split_conditions":[1.2252475E-1,-1.5760511E-2,-2.6228126E-2,3.268104E-5,-1.0183829E-2,2.9522025E-3,1.0485263E-1,3.7859254E-2,1.1938851E0,7.057424E-3,-2.4964293E-2,6.350998E-2,1.6264077E-2,4.6241552E-1,3E0,-2.00197E-2,-6.8790674E-2,2.623375E-2,-2.7590176E-2,4.0458585E-3,2.7450146E-2,-1.795614E-2,-1.4968423E-4,8.751458E-4,1.7384553E-2,-2.1319021E-3,-1.2379941E-2,-6.065022E-2,-1.6397992E-2,2.1832564E-3,-1.0339367E-2],"split_indices":[31,44,32,6,61,36,25,58,52,56,43,3,5,3,0,0,0,0,0,0,0,0,0,0,0,0,0,0,0,0,0],"split_type":[0,0,0,0,0,0,0,0,0,0,0,0,0,0,0,0,0,0,0,0,0,0,0,0,0,0,0,0,0,0,0],"sum_hessian":[1.174E3,1.151E3,2.3E1,7.3E1,1.078E3,1E1,1.3E1,4.2E1,3.1E1,2.84E2,7.94E2,5E0,5E0,1.1E1,2E0,3.9E1,3E0,2E1,1.1E1,2.59E2,2.5E1,2.6E1,7.68E2,1E0,4E0,3E0,2E0,8E0,3E0,1E0,1E0],"tree_param":{"num_deleted":"0","num_feature":"62","num_nodes":"31","size_leaf_vector":"1"}},{"base_weights":[-1.0266365E-1,-4.94507E0,-7.425972E-2,-1.7716995E0,-7.1760826E-2,-2.8140793E-2,-2.7869515E0,-3.7650268E-3,-2.2121472E-2,1.5269232E0,-1.04208745E-1,-8.329526E0,8.382447E-1,3.072521E-2,9.060101E-3,3.859493E-2,-1.3698187E-3,1.3744679E-3,-9.965266E-2,2.802381E-2,-1.8427487E-2],"categories":[],"categories_nodes":[],"categories_segments":[],"categories_sizes":[],"default_left":[0,0,0,0,0,0,0,0,0,0,0,0,0,0,0,0,0,0,0,0,0],"id":53,"left_children":[1,3,5,7,-1,9,11,-1,-1,13,15,17,19,-1,-1,-1,-1,-1,-1,-1,-1],"loss_changes":[1.6509746E2,3.0836868E1,1.4967397E2,1.2079372E0,0E0,1.3950536E2,4.0884064E2,0E0,0E0,4.8822235E1,1.16675804E2,8.435657E1,6.739081E1,0E0,0E0,0E0,0E0,0E0,0E0,0E0,0E0],"parents":[2147483647,0,0,1,1,2,2,3,3,5,5,6,6,9,9,10,10,11,11,12,12],"right_children":[2,4,6,8,-1,10,12,-1,-1,14,16,18,20,-1,-1,-1,-1,-1,-1,-1,-1],"split_conditions":[-1.391047E-1,6.5369904E-3,3.5732687E-2,3E0,-7.1760826E-2,-5.1099736E-2,-4.3537438E-2,-3.7650268E-3,-2.2121472E-2,-1.4075518E-1,-3.3897015E-1,-3.7369464E-2,1.9463986E-2,3.072521E-2,9.060101E-3,3.859493E-2,-1.3698187E-3,1.3744679E-3,-9.965266E-2,2.802381E-2,-1.8427487E-2],"split_indices":[37,2,51,0,0,61,8,0,0,54,54,44,5,0,0,0,0,0,0,0,0],"split_type":[0,0,0,0,0,0,0,0,0,0,0,0,0,0,0,0,0,0,0,0,0],"sum_hessian":[1.202E3,6E0,1.196E3,3E0,3E0,1.177E3,1.9E1,1E0,2E0,5.4E1,1.123E3,7E0,1.2E1,1.6E1,3.8E1,7E0,1.116E3,1E0,6E0,7E0,5E0],"tree_param":{"num_deleted":"0","num_feature":"62","num_nodes":"21","size_leaf_vector":"1"}},{"base_weights":[-3.386841E-2,-1.0217094E0,6.770756E-2,-7.7354546E0,-5.1019853E-1,7.5652957E-1,-8.46807E-2,-8.9196734E-2,-1.0443632E-2,-1.6383822E0,1.1423913E0,8.411894E-1,-5.329704E-2,-1.8998967E-1,1.200095E0,2.4361722E-2,-2.4308395E-2,3.567922E-2,2.908114E-3,6.762365E-3,2.6411481E-2,-8.462088E-4,-1.5293808E-2,1.9944433E-2,-1.3628239E-3],"categories":[],"categories_nodes":[],"categories_segments":[],"categories_sizes":[],"default_left":[0,0,0,0,0,0,0,0,0,0,0,0,0,0,0,0,0,0,0,0,0,0,0,0,0],"id":54,"left_children":[1,3,5,7,9,11,13,-1,-1,15,17,19,-1,21,23,-1,-1,-1,-1,-1,-1,-1,-1,-1,-1],"loss_changes":[1.22685776E2,3.8754697E2,1.1647401E2,3.5546722E1,2.0136513E2,1.0415228E2,1.2321425E2,0E0,0E0,1.8171008E2,8.564824E1,6.3215668E1,0E0,1.1674202E2,6.569014E1,0E0,0E0,0E0,0E0,0E0,0E0,0E0,0E0,0E0,0E0],"parents":[2147483647,0,0,1,1,2,2,3,3,4,4,5,5,6,6,9,9,10,10,11,11,13,13,14,14],"right_children":[2,4,6,8,10,12,14,-1,-1,16,18,20,-1,22,24,-1,-1,-1,-1,-1,-1,-1,-1,-1,-1],"split_conditions":[-1.7298157E0,-1.404256E-2,-2.0404914E-2,7E0,4E0,1.1E1,1.8858023E0,-8.9196734E-2,-1.0443632E-2,-2.0698793E-3,-7.243539E-2,9.612391E-2,-5.329704E-2,1.9513555E-2,9.9962875E-2,2.4361722E-2,-2.4308395E-2,3.567922E-2,2.908114E-3,6.762365E-3,2.6411481E-2,-8.462088E-4,-1.5293808E-2,1.9944433E-2,-1.3628239E-3],"split_indices":[49,57,61,0,0,0,49,0,0,20,15,15,0,45,5,0,0,0,0,0,0,0,0,0,0],"split_type":[0,0,0,0,0,0,0,0,0,0,0,0,0,0,0,0,0,0,0,0,0,0,0,0,0],"sum_hessian":[1.221E3,1.13E2,1.108E3,7E0,1.06E2,2E2,9.08E2,6E0,1E0,6.3E1,4.3E1,1.98E2,2E0,8.4E2,6.8E1,9E0,5.4E1,1.1E1,3.2E1,1.79E2,1.9E1,7.75E2,6.5E1,4.4E1,2.4E1],"tree_param":{"num_deleted":"0","num_feature":"62","num_nodes":"25","size_leaf_vector":"1"}},{"base_weights":[1.5474778E-2,1.22394525E-1,-8.030726E-1,-8.962162E-1,2.1288198E-1,-6.037869E-1,-3.9909027E0,-1.0825474E-2,-3.6783574E0,2.92506E-1,-9.2881894E-1,-5.151936E-1,-4.422708E-2,-6.329782E-2,-1.594315E-2,2.5939805E-2,-1.096581E-2,-1.701813E-2,-7.0898704E-2,1.8542178E-2,2.41274E-3,-3.2672152E-2,-5.817518E-3,-9.826401E-3,2.703482E-3],"categories":[],"categories_nodes":[],"categories_segments":[],"categories_sizes":[],"default_left":[0,0,0,0,0,0,0,0,0,0,0,0,0,0,0,0,0,0,0,0,0,0,0,0,0],"id":55,"left_children":[1,3,5,7,