{"learner":{"attributes":{"scikit_learn":"{\"_estimator_type\": \"regressor\"}"},"feature_names":["ret_1","ret_3","ret_5","ret_accel","price_to_ma_5","bb_pos_5","bb_width_5","vol_5","vol_10","drawdown","vol_ratio_5","rel_strength_5","spy_ret_5","vix_ret_5","vix_z_score_5","hyg_ret_5","uup_ret_5","target_spy_rel_ret_5","uso_ret_5","uso_shock_5","xop_ret_5","xop_shock_5","oih_ret_5","oih_shock_5","xlb_shock_5"],"feature_types":["float","float","float","float","float","float","float","float","float","float","float","float","float","float","float","float","float","float","float","float","float","float","float","float","float"],"gradient_booster":{"model":{"cats":{"enc":[],"feature_segments":[],"sorted_idx":[]},"gbtree_model_param":{"num_parallel_tree":"1","num_trees":"216"},"iteration_indptr":[0,1,2,3,4,5,6,7,8,9,10,11,12,13,14,15,16,17,18,19,20,21,22,23,24,25,26,27,28,29,30,31,32,33,34,35,36,37,38,39,40,41,42,43,44,45,46,47,48,49,50,51,52,53,54,55,56,57,58,59,60,61,62,63,64,65,66,67,68,69,70,71,72,73,74,75,76,77,78,79,80,81,82,83,84,85,86,87,88,89,90,91,92,93,94,95,96,97,98,99,100,101,102,103,104,105,106,107,108,109,110,111,112,113,114,115,116,117,118,119,120,121,122,123,124,125,126,127,128,129,130,131,132,133,134,135,136,137,138,139,140,141,142,143,144,145,146,147,148,149,150,151,152,153,154,155,156,157,158,159,160,161,162,163,164,165,166,167,168,169,170,171,172,173,174,175,176,177,178,179,180,181,182,183,184,185,186,187,188,189,190,191,192,193,194,195,196,197,198,199,200,201,202,203,204,205,206,207,208,209,210,211,212,213,214,215,216],"tree_info":[0,0,0,0,0,0,0,0,0,0,0,0,0,0,0,0,0,0,0,0,0,0,0,0,0,0,0,0,0,0,0,0,0,0,0,0,0,0,0,0,0,0,0,0,0,0,0,0,0,0,0,0,0,0,0,0,0,0,0,0,0,0,0,0,0,0,0,0,0,0,0,0,0,0,0,0,0,0,0,0,0,0,0,0,0,0,0,0,0,0,0,0,0,0,0,0,0,0,0,0,0,0,0,0,0,0,0,0,0,0,0,0,0,0,0,0,0,0,0,0,0,0,0,0,0,0,0,0,0,0,0,0,0,0,0,0,0,0,0,0,0,0,0,0,0,0,0,0,0,0,0,0,0,0,0,0,0,0,0,0,0,0,0,0,0,0,0,0,0,0,0,0,0,0,0,0,0,0,0,0,0,0,0,0,0,0,0,0,0,0,0,0,0,0,0,0,0,0,0,0,0,0,0,0,0,0,0,0,0,0,0,0,0,0,0,0],"trees":[{"base_weights":[-1.0963112E-2,-4.44381E0,1.036513E-1,-1.4483644E-1,-2.698911E0,6.6556797E0,2.1299845E-2,9.570885E-1,-3.3614159E0,1.0623403E1,-3.9356163E0,7.4763685E-2,-7.23755E0,1.6635017E-2,5.2084256E-4,-3.8417997E0,3.1972576E-2,1.5849984E-1,5.4287463E-2,-9.641882E-2,-5.5529973E-3,-1.7179605E-1,1.8316531E0,-1.923499E-2,-1.0595634E-1,-8.017591E-3,-4.2335443E0,-1.9617687E0,2.3356076E-2,-1.6760984E-1,2.064597E0,-3.412609E-2,-6.735567E-2,-1.9437166E-2,-2.8316987E-1,-3.436007E-3,1.6045334E-2,6.8569556E-2,1.8199513E-2],"categories":[],"categories_nodes":[],"categories_segments":[],"categories_sizes":[],"default_left":[0,0,0,0,0,0,0,0,0,0,0,0,0,0,0,0,0,0,0,0,0,0,0,0,0,0,0,0,0,0,0,0,0,0,0,0,0,0,0],"id":0,"left_children":[1,3,5,-1,7,9,11,13,15,17,19,21,23,-1,-1,25,-1,-1,-1,-1,-1,27,29,-1,-1,-1,31,33,35,-1,37,-1,-1,-1,-1,-1,-1,-1,-1],"loss_changes":[5.0395615E2,2.5154669E2,5.216215E2,0E0,5.408165E1,5.4608954E2,3.7155127E2,1.0266831E0,5.907068E1,2.7209229E1,4.355534E1,4.1183398E2,1.786496E1,0E0,0E0,1.9022186E1,0E0,0E0,0E0,0E0,0E0,2.913762E2,4.191912E2,0E0,0E0,0E0,7.747864E0,7.627756E2,2.509817E2,0E0,2.4262814E2,0E0,0E0,0E0,0E0,0E0,0E0,0E0,0E0],"parents":[2147483647,0,0,1,1,2,2,4,4,5,5,6,6,7,7,8,8,9,9,10,10,11,11,12,12,15,15,21,21,22,22,26,26,27,27,28,28,30,30],"right_children":[2,4,6,-1,8,10,12,14,16,18,20,22,24,-1,-1,26,-1,-1,-1,-1,-1,28,30,-1,-1,-1,32,34,36,-1,38,-1,-1,-1,-1,-1,-1,-1,-1],"split_conditions":[-2.072355E0,-4.0383406E-2,-5.031245E-1,-1.4483644E-1,1.5194575E-1,2.7767405E-1,1.9708039E-1,4.751154E-3,3.2206777E-2,1.9329903E0,-6.7785375E-2,9.7782016E-2,5.5656392E-2,1.6635017E-2,5.2084256E-4,-1.7610881E-2,3.1972576E-2,1.5849984E-1,5.4287463E-2,-9.641882E-2,-5.5529973E-3,-5.6218024E-2,-2.762621E0,-1.923499E-2,-1.0595634E-1,-8.017591E-3,4.9524065E-2,-8.623157E-3,7.3342347E-3,-1.6760984E-1,-3.5645676E-1,-3.412609E-2,-6.735567E-2,-1.9437166E-2,-2.8316987E-1,-3.436007E-3,1.6045334E-2,6.8569556E-2,1.8199513E-2],"split_indices":[24,15,9,0,14,6,22,0,17,10,0,6,1,0,0,15,0,0,0,0,0,22,21,0,0,0,6,2,15,0,9,0,0,0,0,0,0,0,0],"split_type":[0,0,0,0,0,0,0,0,0,0,0,0,0,0,0,0,0,0,0,0,0,0,0,0,0,0,0,0,0,0,0,0,0,0,0,0,0,0,0],"sum_hessian":[9.9E2,2.4E1,9.66E2,4E0,2E1,1.1E1,9.55E2,3E0,1.7E1,8E0,3E0,9.49E2,6E0,2E0,1E0,1.6E1,1E0,6E0,2E0,1E0,2E0,8.33E2,1.16E2,1E0,5E0,2E0,1.4E1,8.1E1,7.52E2,1E0,1.15E2,6E0,8E0,8E1,1E0,6.08E2,1.44E2,2E1,9.5E1],"tree_param":{"num_deleted":"0","num_feature":"25","num_nodes":"39","size_leaf_vector":"1"}},{"base_weights":[5.0521318E-2,-1.2877795E1,1.2788597E-1,-2.5870112E-1,2.1860811E-3,7.9718885E0,-7.485158E-3,1.2975796E0,9.925708E0,-8.065714E-1,5.1454353E-1,-1.6791676E0,5.1125683E-2,1.0777169E1,-1.9417268E-3,-5.999159E-1,-8.599489E0,1.6316551E-1,2.393054E0,-5.146474E-3,-2.8372414E-2,1.23083725E1,2.7690312E-2,-3.39517E-1,-2.0442147E0,-2.858777E-1,-9.518785E-3,2.8041175E-1,-2.193443E0,3.4552708E0,5.857249E-1,1.8534914E-1,8.513056E-2,-2.9684503E-3,-8.61604E-2,3.2831132E-2,-3.74661E-2,-1.6027693E-2,2.641725E-2,1.3768242E-3,3.2801624E-2,2.9401695E-3,-8.306636E-2,3.2642197E-2,8.6527705E-2,1.7379092E-2,-7.322543E-2],"categories":[],"categories_nodes":[],"categories_segments":[],"categories_sizes":[],"default_left":[0,0,0,0,0,0,0,0,0,0,0,0,0,0,0,0,0,0,0,0,0,0,0,0,0,0,0,0,0,0,0,0,0,0,0,0,0,0,0,0,0,0,0,0,0,0,0],"id":1,"left_children":[1,3,5,-1,-1,7,9,11,13,15,17,19,-1,21,-1,23,25,27,29,-1,-1,31,-1,33,35,-1,37,39,41,43,45,-1,-1,-1,-1,-1,-1,-1,-1,-1,-1,-1,-1,-1,-1,-1,-1],"loss_changes":[1.00884296E3,5.1669366E2,1.0640348E3,0E0,0E0,2.0880737E2,4.1172095E2,4.431854E1,1.13055176E2,6.2291626E2,3.9366968E2,9.313545E-1,0E0,1.3418066E2,0E0,1.4259772E2,1.1064049E3,1.3987202E2,1.78435E2,0E0,0E0,6.63855E0,0E0,2.3003592E2,2.0871979E2,0E0,1.9074041E1,1.8567062E2,2.3597076E2,1.6424274E2,1.6503871E2,0E0,0E0,0E0,0E0,0E0,0E0,0E0,0E0,0E0,0E0,0E0,0E0,0E0,0E0,0E0,0E0],"parents":[2147483647,0,0,1,1,2,2,5,5,6,6,7,7,8,8,9,9,10,10,11,11,13,13,15,15,16,16,17,17,18,18,21,21,23,23,24,24,26,26,27,27,28,28,29,29,30,30],"right_children":[2,4,6,-1,-1,8,10,12,14,16,18,20,-1,22,-1,24,26,28,30,-1,-1,32,-1,34,36,-1,38,40,42,44,46,-1,-1,-1,-1,-1,-1,-1,-1,-1,-1,-1,-1,-1,-1,-1,-1],"split_conditions":[-2.9226325E0,-1.2257938E-1,-1.3291702E-1,-2.5870112E-1,2.1860811E-3,4.3247934E-2,-1.8939279E-1,-1.3425512E-2,4.2048258E-1,3.49407E-2,2.2111053E-2,-4.88827E-2,5.1125683E-2,2.4807753E-2,-1.9417268E-3,3.1162983E-1,4.2204365E-2,7.420884E-2,2.691361E-2,-5.146474E-3,-2.8372414E-2,1.8642593E-2,2.7690312E-2,2.0242577E-2,-1.96278E-2,-2.858777E-1,-7.7749595E-2,8.662024E-2,2.1600064E-2,9.112926E-1,1.5577376E-1,1.8534914E-1,8.513056E-2,-2.9684503E-3,-8.61604E-2,3.2831132E-2,-3.74661E-2,-1.6027693E-2,2.641725E-2,1.3768242E-3,3.2801624E-2,2.9401695E-3,-8.306636E-2,3.2642197E-2,8.6527705E-2,1.7379092E-2,-7.322543E-2],"split_indices":[19,1,18,0,0,8,23,16,13,7,8,0,0,4,0,19,7,18,4,0,0,12,0,17,12,0,2,6,4,23,2,0,0,0,0,0,0,0,0,0,0,0,0,0,0,0,0],"split_type":[0,0,0,0,0,0,0,0,0,0,0,0,0,0,0,0,0,0,0,0,0,0,0,0,0,0,0,0,0,0,0,0,0,0,0,0,0,0,0,0,0,0,0,0,0,0,0],"sum_hessian":[1.006E3,5E0,1.001E3,3E0,2E0,1.6E1,9.85E2,4E0,1.2E1,3.89E2,5.96E2,2E0,2E0,1.1E1,1E0,3.8E2,9E0,5.03E2,9.3E1,1E0,1E0,9E0,2E0,3.23E2,5.7E1,3E0,6E0,4.8E2,2.3E1,5.8E1,3.5E1,6E0,3E0,3.18E2,5E0,8E0,4.9E1,4E0,2E0,4.45E2,3.5E1,1.5E1,8E0,4.5E1,1.3E1,3.2E1,3E0],"tree_param":{"num_deleted":"0","num_feature":"25","num_nodes":"47","size_leaf_vector":"1"}},{"base_weights":[8.601442E-2,-9.931863E0,2.1180344E-1,-1.5637867E1,1.1841165E0,-1.61275E-1,2.403122E0,6.235308E-1,-2.8162178E-1,1.312205E-1,-3.4500868E0,-2.4141443E0,-7.53012E-2,5.571933E0,1.3239648E0,-5.1122303E-3,1.7558908E-2,-9.567062E-2,1.926148E-1,2.1486635E0,-3.4126523E0,2.3514116E0,-2.150778E-1,4.052155E0,9.512162E0,-3.6305704E0,1.7149068E0,8.051951E-3,-4.20705E-3,-6.361857E-1,4.9240425E-2,-3.786077E0,5.878224E-1,9.3360054E-1,4.6856174E0,-1.0179211E0,7.6156748E-3,4.78212E0,-1.3406751E0,1.0465224E1,5.479635E-2,-1.5138199E-2,-5.6850486E-2,2.0669467E0,-3.1568906E0,-2.0452179E-2,7.7528884E-3,-6.932797E-2,-3.047902E-2,1.907415E-2,-7.3402673E-3,-3.952662E-2,2.0239266E-2,1.0079116E-1,2.1261161E-2,-6.654203E-2,-8.475843E-3,-2.3003074E-3,1.5513216E-2,4.3536354E-2,1.0624095E-1,-2.0620448E-3,-2.2413777E-2,4.181166E-2,1.4854267E-1,1.607112E-2,6.1113458E-2,-7.1904115E-2,2.1814337E-2],"categories":[],"categories_nodes":[],"categories_segments":[],"categories_sizes":[],"default_left":[0,0,0,0,0,0,0,0,0,0,0,0,0,0,0,0,0,0,0,0,0,0,0,0,0,0,0,0,0,0,0,0,0,0,0,0,0,0,0,0,0,0,0,0,0,0,0,0,0,0,0,0,0,0,0,0,0,0,0,0,0,0,0,0,0,0,0,0,0],"id":2,"left_children":[1,3,5,7,9,11,13,15,-1,-1,17,19,21,23,25,-1,-1,-1,27,29,31,33,35,37,39,41,43,-1,-1,45,-1,47,49,51,53,55,57,59,61,63,-1,-1,-1,65,67,-1,-1,-1,-1,-1,-1,-1,-1,-1,-1,-1,-1,-1,-1,-1,-1,-1,-1,-1,-1,-1,-1,-1,-1],"loss_changes":[1.2193977E3,7.796509E2,7.811322E2,7.318694E2,2.3505927E2,1.5806107E2,4.6795367E2,2.6106787E0,0E0,0E0,5.58651E1,1.4401265E2,2.6779352E2,1.710448E2,2.0960437E2,0E0,0E0,0E0,8.207719E-1,2.8277647E1,3.957245E1,1.3793243E2,1.3338358E2,1.1269888E2,3.1799927E0,7.9329224E0,1.7460172E2,0E0,0E0,4.1885123E0,0E0,3.7040833E1,3.6806421E0,6.870892E1,1.3060092E2,2.426193E2,1.2246959E2,8.9943726E1,1.3686395E0,6.5509033E-1,0E0,0E0,0E0,1.9409811E2,8.42712E1,0E0,0E0,0E0,0E0,0E0,0E0,0E0,0E0,0E0,0E0,0E0,0E0,0E0,0E0,0E0,0E0,0E0,0E0,0E0,0E0,0E0,0E0,0E0,0E0],"parents":[2147483647,0,0,1,1,2,2,3,3,4,4,5,5,6,6,7,7,10,10,11,11,12,12,13,13,14,14,18,18,19,19,20,20,21,21,22,22,23,23,24,24,25,25,26,26,29,29,31,31,32,32,33,33,34,34,35,35,36,36,37,37,38,38,39,39,43,43,44,44],"right_children":[2,4,6,8,10,12,14,16,-1,-1,18,20,22,24,26,-1,-1,-1,28,30,32,34,36,38,40,42,44,-1,-1,46,-1,48,50,52,54,56,58,60,62,64,-1,-1,-1,66,68,-1,-1,-1,-1,-1,-1,-1,-1,-1,-1,-1,-1,-1,-1,-1,-1,-1,-1,-1,-1,-1,-1,-1,-1],"split_conditions":[-1.6928768E-1,-1.9670602E0,2.3191867E-2,2.3025725E-2,-1.8061297E-1,-3.4398234E-1,-3.831648E-1,-1.3264857E-1,-2.8162178E-1,1.312205E-1,-5.8555458E-2,-3.441023E-2,-2.2008689E-1,9.599877E-3,-1.3813272E0,-5.1122303E-3,1.7558908E-2,-9.567062E-2,-1.1946955E-2,-2.0435486E-2,7.79975E-1,-2.0201027E-2,-3.684218E-2,7.032013E-2,2.9230876E-2,8.298351E-2,1.3613684E-1,8.051951E-3,-4.20705E-3,-5.6172058E-2,4.9240425E-2,-2.716402E-3,-6.3732886E-3,-9.546469E-3,6.691886E-1,-1.7851795E-1,7.291442E-2,4.0120322E-2,1.3026688E0,1.4385432E-1,5.479635E-2,-1.5138199E-2,-5.6850486E-2,3.1657675E-1,-2.4877717E-1,-2.0452179E-2,7.7528884E-3,-6.932797E-2,-3.047902E-2,1.907415E-2,-7.3402673E-3,-3.952662E-2,2.0239266E-2,1.0079116E-1,2.1261161E-2,-6.654203E-2,-8.475843E-3,-2.3003074E-3,1.5513216E-2,4.3536354E-2,1.0624095E-1,-2.0620448E-3,-2.2413777E-2,4.181166E-2,1.4854267E-1,1.607112E-2,6.1113458E-2,-7.1904115E-2,2.1814337E-2],"split_indices":[22,23,8,7,2,9,9,2,0,0,3,18,9,16,14,0,0,0,3,3,5,22,22,18,22,6,22,0,0,2,0,16,2,16,5,9,6,18,10,5,0,0,0,14,9,0,0,0,0,0,0,0,0,0,0,0,0,0,0,0,0,0,0,0,0,0,0,0,0],"split_type":[0,0,0,0,0,0,0,0,0,0,0,0,0,0,0,0,0,0,0,0,0,0,0,0,0,0,0,0,0,0,0,0,0,0,0,0,0,0,0,0,0,0,0,0,0,0,0,0,0,0,0,0,0,0,0,0,0,0,0,0,0,0,0,0,0,0,0,0,0],"sum_hessian":[9.65E2,1.1E1,9.54E2,7E0,4E0,8.16E2,1.38E2,2E0,5E0,1E0,3E0,2.9E1,7.87E2,3.4E1,1.04E2,1E0,1E0,1E0,2E0,5E0,2.4E1,4.2E1,7.45E2,2.6E1,8E0,7E0,9.7E1,1E0,1E0,2E0,3E0,2.2E1,2E0,2.7E1,1.5E1,1.61E2,5.84E2,2.3E1,3E0,6E0,2E0,2E0,5E0,9.1E1,6E0,1E0,1E0,1E1,1.2E1,1E0,1E0,3E0,2.4E1,7E0,8E0,1.3E1,1.48E2,5.06E2,7.8E1,1.7E1,6E0,1E0,2E0,1E0,5E0,6.9E1,2.2E1,4E0,2E0],"tree_param":{"num_deleted":"0","num_feature":"25","num_nodes":"69","size_leaf_vector":"1"}},{"base_weights":[1.10724755E-1,-8.659104E0,2.2912087E-1,-2.81597E-1,-2.7926798E0,6.7183666E0,7.716281E-2,-5.1106673E-1,-1.5521613E-1,8.192395E0,6.819196E-2,1.1809518E-1,-6.3211474E0,-2.1884887E0,1.2685685E0,1.1427105E1,4.461916E0,-9.5847845E-3,1.1097251E-2,3.7348253E-1,-7.1974134E-1,-1.9207902E-2,-9.326106E-2,-5.078214E-3,-2.5448117E0,3.763742E-3,2.4372559E-2,1.6146842E-1,3.84366E-2,-2.801931E-3,5.004473E0,2.4874312E-1,2.27861E0,-7.4833775E0,-5.911567E-1,-3.9603457E-2,-8.326196E-3,7.299768E-2,7.701302E-3,1.2506599E-3,2.9029552E-2,1.88898E-2,7.268731E-2,2.6747243E-2,-1.5061395E-1,-1.744643E-2,1.184036E-3],"categories":[],"categories_nodes":[],"categories_segments":[],"categories_sizes":[],"default_left":[0,0,0,0,0,0,0,0,0,0,0,0,0,0,0,0,0,0,0,0,0,0,0,0,0,0,0,0,0,0,0,0,0,0,0,0,0,0,0,0,0,0,0,0,0,0,0],"id":3,"left_children":[1,3,5,-1,7,9,11,13,-1,15,17,19,21,23,25,27,29,-1,-1,31,33,-1,-1,-1,35,-1,-1,-1,-1,-1,37,39,41,43,45,-1,-1,-1,-1,-1,-1,-1,-1,-1,-1,-1,-1],"loss_changes":[1.01330145E3,8.94298E2,9.481032E2,0E0,1.9643915E2,2.1509729E2,2.4719252E2,2.9643044E1,0E0,1.6621948E2,3.6191323E0,2.005474E2,9.987701E0,2.248085E0,2.2563448E0,1.9235107E1,2.6404495E1,0E0,0E0,1.7006195E2,1.860404E2,0E0,0E0,0E0,1.4478722E0,0E0,0E0,0E0,0E0,0E0,1.5980011E1,2.0169073E2,1.1258855E2,1.6835146E2,1.05867294E2,0E0,0E0,0E0,0E0,0E0,0E0,0E0,0E0,0E0,0E0,0E0,0E0],"parents":[2147483647,0,0,1,1,2,2,4,4,5,5,6,6,7,7,9,9,10,10,11,11,12,12,13,13,14,14,15,15,16,16,19,19,20,20,24,24,30,30,31,31,32,32,33,33,34,34],"right_children":[2,4,6,-1,8,10,12,14,-1,16,18,20,22,24,26,28,30,-1,-1,32,34,-1,-1,-1,36,-1,-1,-1,-1,-1,38,40,42,44,46,-1,-1,-1,-1,-1,-1,-1,-1,-1,-1,-1,-1],"split_conditions":[-2.5858574E0,-1.6490556E-2,-4.8027954E-1,-2.81597E-1,1.1020544E-2,-5.2079356E-1,1.9708039E-1,-1.4099443E0,-1.5521613E-1,3.1657675E-1,-2.1197034E-2,-4.045106E-2,5.5656392E-2,-4.88827E-2,-2.5908527E0,7.065033E-2,-6.5896735E-2,-9.5847845E-3,1.1097251E-2,1.7086349E0,-2.5209423E-2,-1.9207902E-2,-9.326106E-2,-5.078214E-3,-8.1638224E-2,3.763742E-3,2.4372559E-2,1.6146842E-1,3.84366E-2,-2.801931E-3,2.7651873E0,1.2151464E-2,3.724985E0,-2.8745143E-2,-3.19211E-1,-3.9603457E-2,-8.326196E-3,7.299768E-2,7.701302E-3,1.2506599E-3,2.9029552E-2,1.88898E-2,7.268731E-2,2.6747243E-2,-1.5061395E-1,-1.744643E-2,1.184036E-3],"split_indices":[21,16,9,0,0,19,22,24,0,14,0,9,1,0,19,0,4,0,0,19,15,0,0,0,1,0,0,0,0,0,10,16,10,0,14,0,0,0,0,0,0,0,0,0,0,0,0],"split_type":[0,0,0,0,0,0,0,0,0,0,0,0,0,0,0,0,0,0,0,0,0,0,0,0,0,0,0,0,0,0,0,0,0,0,0,0,0,0,0,0,0,0,0,0,0,0,0],"sum_hessian":[9.73E2,1.2E1,9.61E2,3E0,9E0,2.1E1,9.4E2,8E0,1E0,1.7E1,4E0,9.35E2,5E0,4E0,4E0,8E0,9E0,2E0,2E0,7.17E2,2.18E2,1E0,4E0,1E0,3E0,2E0,2E0,7E0,1E0,1E0,8E0,6.74E2,4.3E1,3E0,2.15E2,2E0,1E0,7E0,1E0,6.25E2,4.9E1,3.5E1,8E0,1E0,2E0,1.04E2,1.11E2],"tree_param":{"num_deleted":"0","num_feature":"25","num_nodes":"47","size_leaf_vector":"1"}},{"base_weights":[1.8659106E-1,5.9075723E0,4.109885E-2,7.4260087E0,-3.541113E0,-2.2230618E-1,7.65344E-2,1.1486903E1,3.4230962E0,2.5327148E-2,-5.990277E0,-3.5049953E-3,4.719038E0,1.6136505E-1,3.8180847E-2,-9.671995E-2,4.6071153E0,-9.4970256E-2,-2.4605306E-2,2.5601476E-1,-8.0720055E-1,1.6426293E0,5.9680758E0,-2.2847991E-2,1.3515829E-2,-2.7832875E-3,5.2352915E0,-4.1753187E0,3.4555483E-1,-1.3287188E-1,-6.397156E-1,3.8100474E-2,3.1667054E-1,1.0779017E-1,2.8416622E0,3.164029E-2,8.61596E-2,-3.1344026E-2,-9.28913E-2,8.411612E-2,3.7780546E-3,-2.6852528E-2,-3.752701E-3,-5.6950026E-3,9.415561E-3,6.5492564E-3,4.275962E-2],"categories":[],"categories_nodes":[],"categories_segments":[],"categories_sizes":[],"default_left":[0,0,0,0,0,0,0,0,0,0,0,0,0,0,0,0,0,0,0,0,0,0,0,0,0,0,0,0,0,0,0,0,0,0,0,0,0,0,0,0,0,0,0,0,0,0,0],"id":4,"left_children":[1,3,5,7,9,-1,11,13,15,-1,17,19,21,-1,-1,23,25,-1,-1,27,29,31,33,-1,-1,-1,35,37,39,-1,41,-1,43,-1,45,-1,-1,-1,-1,-1,-1,-1,-1,-1,-1,-1,-1],"loss_changes":[8.0548E2,3.7062982E2,5.6204926E2,3.0204272E2,6.473658E1,0E0,3.5079108E2,2.0257202E1,5.0455933E1,0E0,1.0453186E0,1.9397272E2,5.167749E1,0E0,0E0,8.952592E0,2.8324097E1,0E0,0E0,2.8038052E2,3.425273E2,8.802578E0,5.0294617E1,0E0,0E0,0E0,1.2934586E1,5.5028656E1,2.5240918E2,0E0,1.0985746E2,0E0,1.4669313E0,0E0,3.655449E0,0E0,0E0,0E0,0E0,0E0,0E0,0E0,0E0,0E0,0E0,0E0,0E0],"parents":[2147483647,0,0,1,1,2,2,3,3,4,4,6,6,7,7,8,8,10,10,11,11,12,12,15,15,16,16,19,19,20,20,21,21,22,22,26,26,27,27,28,28,30,30,32,32,34,34],"right_children":[2,4,6,8,10,-1,12,14,16,-1,18,20,22,-1,-1,24,26,-1,-1,28,30,32,34,-1,-1,-1,36,38,40,-1,42,-1,44,-1,46,-1,-1,-1,-1,-1,-1,-1,-1,-1,-1,-1,-1],"split_conditions":[-4.8027954E-1,5.1513195E-2,-1.8061297E-1,-4.55247E-2,1.0214999E-1,-2.2230618E-1,4.0637624E-2,5.5656392E-2,7.7825926E-2,2.5327148E-2,-1.2257938E-1,-4.202408E-2,-5.709634E-2,1.6136505E-1,3.8180847E-2,-3.1797074E-2,1.0831356E0,-9.4970256E-2,-2.4605306E-2,-2.1637025E0,-2.2610499E-2,4.4699896E-2,-3.600163E-1,-2.2847991E-2,1.3515829E-2,-2.7832875E-3,2.9292475E-2,1.9927062E-2,-7.540434E-2,-1.3287188E-1,-4.243263E-3,3.8100474E-2,-8.8859916E-2,1.0779017E-1,4.2204365E-2,3.164029E-2,8.61596E-2,-3.1344026E-2,-9.28913E-2,8.411612E-2,3.7780546E-3,-2.6852528E-2,-3.752701E-3,-5.6950026E-3,9.415561E-3,6.5492564E-3,4.275962E-2],"split_indices":[9,20,2,13,6,0,7,1,6,0,1,9,20,0,0,1,10,0,0,24,15,7,19,0,0,0,7,7,1,0,2,0,1,0,7,0,0,0,0,0,0,0,0,0,0,0,0],"split_type":[0,0,0,0,0,0,0,0,0,0,0,0,0,0,0,0,0,0,0,0,0,0,0,0,0,0,0,0,0,0,0,0,0,0,0,0,0,0,0,0,0,0,0,0,0,0,0],"sum_hessian":[9.67E2,2.3E1,9.44E2,2E1,3E0,1E0,9.43E2,9E0,1.1E1,1E0,2E0,9.28E2,1.5E1,8E0,1E0,3E0,8E0,1E0,1E0,7.02E2,2.26E2,5E0,1E1,1E0,2E0,1E0,7E0,1.3E1,6.89E2,3E0,2.23E2,2E0,3E0,5E0,5E0,3E0,4E0,9E0,4E0,6E0,6.83E2,4.5E1,1.78E2,1E0,2E0,1E0,4E0],"tree_param":{"num_deleted":"0","num_feature":"25","num_nodes":"47","size_leaf_vector":"1"}},{"base_weights":[-5.5452574E-2,-1.16961775E1,4.9579464E-2,-1.3469404E0,-2.622447E-1,-7.6570675E-2,5.4005775E0,-4.523518E-2,1.1542625E0,-4.1208267E-2,-1.1523617E-1,6.2757516E0,-9.217774E-2,2.0698467E-2,2.3424716E-3,2.7667665E0,-1.4582798E-1,-1.7263308E0,7.1622767E0,1.1793573E0,6.1229906E0,-1.2519268E0,1.0739178E-1,-3.772837E-2,3.268029E-3,1.7698097E-1,5.741568E0,-1.6041944E-3,6.0406312E-2,9.605694E-2,3.1964827E-2,-7.911531E-3,-7.7144526E-2,-8.559024E-3,4.9560047E-3,-1.6906595E-2,8.9128196E-2],"categories":[],"categories_nodes":[],"categories_segments":[],"categories_sizes":[],"default_left":[0,0,0,0,0,0,0,0,0,0,0,0,0,0,0,0,0,0,0,0,0,0,0,0,0,0,0,0,0,0,0,0,0,0,0,0,0],"id":5,"left_children":[1,3,5,7,-1,9,11,-1,13,15,-1,17,-1,-1,-1,19,21,23,25,27,29,31,33,-1,-1,-1,35,-1,-1,-1,-1,-1,-1,-1,-1,-1,-1],"loss_changes":[1.230565E3,7.1953357E2,6.7409265E2,2.9588655E1,0E0,2.958662E2,2.9160413E2,0E0,9.0335727E-1,2.862412E2,0E0,1.6843347E2,0E0,0E0,0E0,1.7924835E2,2.6313528E2,7.2551985E0,9.801514E1,1.0973349E2,2.7487427E1,5.194543E2,1.5240884E2,0E0,0E0,0E0,1.2915881E2,0E0,0E0,0E0,0E0,0E0,0E0,0E0,0E0,0E0,0E0],"parents":[2147483647,0,0,1,1,2,2,3,3,5,5,6,6,8,8,9,9,11,11,15,15,16,16,17,17,18,18,19,19,20,20,21,21,22,22,26,26],"right_children":[2,4,6,8,-1,10,12,-1,14,16,-1,18,-1,-1,-1,20,22,24,26,28,30,32,34,-1,-1,-1,36,-1,-1,-1,-1,-1,-1,-1,-1,-1,-1],"split_conditions":[-2.762621E0,2.6452765E-2,4.9019393E-2,-3.0051552E-2,-2.622447E-1,1.5577376E-1,6.787984E-1,-4.523518E-2,-1.8433971E-2,-5.1856227E-2,-1.1523617E-1,1.2117423E-1,-9.217774E-2,2.0698467E-2,2.3424716E-3,-5.651568E-1,2.4941185E-1,-3.353294E-2,-1.2206299E0,6.5994677E-3,4.6421364E-3,2.3302627E-1,-1.2050473E-2,-3.772837E-2,3.268029E-3,1.7698097E-1,-8.8810235E-2,-1.6041944E-3,6.0406312E-2,9.605694E-2,3.1964827E-2,-7.911531E-3,-7.7144526E-2,-8.559024E-3,4.9560047E-3,-1.6906595E-2,8.9128196E-2],"split_indices":[21,7,7,0,0,2,13,0,0,11,0,6,0,0,0,21,5,0,23,16,0,5,11,0,0,0,2,0,0,0,0,0,0,0,0,0,0],"split_type":[0,0,0,0,0,0,0,0,0,0,0,0,0,0,0,0,0,0,0,0,0,0,0,0,0,0,0,0,0,0,0,0,0,0,0,0,0],"sum_hessian":[1.005E3,8E0,9.97E2,4E0,4E0,9.75E2,2.2E1,2E0,2E0,9.72E2,3E0,2.1E1,1E0,1E0,1E0,3.4E1,9.38E2,2E0,1.9E1,2.4E1,1E1,1.74E2,7.64E2,1E0,1E0,2E0,1.7E1,1.8E1,6E0,7E0,3E0,1.53E2,2.1E1,1.99E2,5.65E2,2E0,1.5E1],"tree_param":{"num_deleted":"0","num_feature":"25","num_nodes":"37","size_leaf_vector":"1"}},{"base_weights":[1.1027127E-1,1.1085604E1,5.528433E-2,1.688393E-1,3.1132216E-2,1.177989E-1,-6.1454377E0,-1.5386017E-1,1.519233E0,-2.4079591E-1,-8.9638793E-1,-1.10739484E-1,-9.041377E0,9.694808E-1,4.3364277E0,4.496179E-2,-4.1371164E0,-2.4263668E0,-8.525765E-3,-1.1658002E0,-2.1736933E-1,1.173416E0,-6.053735E0,-7.906592E-1,4.796629E0,-8.804669E-3,-6.441725E-2,-3.997592E-2,2.182447E-2,-3.2836188E-2,8.6158834E-4,-3.747733E-2,1.4206081E-2,-2.7564973E-2,2.1338161E-2,-5.8403388E-3,-1.0352181E-1,6.6998014E-3,-2.2482632E-2,7.5429276E-2,3.1209672E-2],"categories":[],"categories_nodes":[],"categories_segments":[],"categories_sizes":[],"default_left":[0,0,0,0,0,0,0,0,0,0,0,0,0,0,0,0,0,0,0,0,0,0,0,0,0,0,0,0,0,0,0,0,0,0,0,0,0,0,0,0,0],"id":6,"left_children":[1,3,5,-1,-1,7,9,11,13,-1,15,17,19,21,23,-1,25,27,29,31,-1,33,35,37,39,-1,-1,-1,-1,-1,-1,-1,-1,-1,-1,-1,-1,-1,-1,-1,-1],"loss_changes":[6.05301E2,4.0363037E1,3.8835938E2,0E0,0E0,3.7751962E2,6.109887E2,3.174677E2,2.4514609E2,0E0,1.24810844E2,1.959577E2,2.1069391E2,2.0189372E2,6.513928E1,0E0,9.021889E0,8.71308E1,1.4320944E2,1.406389E1,0E0,1.8889977E2,3.5336075E1,4.3399177E0,3.7977478E1,0E0,0E0,0E0,0E0,0E0,0E0,0E0,0E0,0E0,0E0,0E0,0E0,0E0,0E0,0E0,0E0],"parents":[2147483647,0,0,1,1,2,2,5,5,6,6,7,7,8,8,10,10,11,11,12,12,13,13,14,14,16,16,17,17,18,18,19,19,21,21,22,22,23,23,24,24],"right_children":[2,4,6,-1,-1,8,10,12,14,-1,16,18,20,22,24,-1,26,28,30,32,-1,34,36,38,40,-1,-1,-1,-1,-1,-1,-1,-1,-1,-1,-1,-1,-1,-1,-1,-1],"split_conditions":[-5.241994E-1,2.6829956E-2,3.891325E-2,1.688393E-1,3.1132216E-2,8.849211E-2,1.495662E0,3.6795717E-2,3.6795717E-2,-2.4079591E-1,-3.7755093E-1,-1.274432E-2,-6.1805067E-3,2.6852753E0,-6.311503E-2,4.496179E-2,4.2718258E-2,1.74949E-2,-3.8754135E-1,-3.353294E-2,-2.1736933E-1,-1.5810893E0,6.6972603E-3,-3.586722E-2,2.025025E-1,-8.804669E-3,-6.441725E-2,-3.997592E-2,2.182447E-2,-3.2836188E-2,8.6158834E-4,-3.747733E-2,1.4206081E-2,-2.7564973E-2,2.1338161E-2,-5.8403388E-3,-1.0352181E-1,6.6998014E-3,-2.2482632E-2,7.5429276E-2,3.1209672E-2],"split_indices":[9,1,3,0,0,6,10,7,7,0,9,15,0,23,11,0,0,16,9,0,0,24,0,0,6,0,0,0,0,0,0,0,0,0,0,0,0,0,0,0,0],"split_type":[0,0,0,0,0,0,0,0,0,0,0,0,0,0,0,0,0,0,0,0,0,0,0,0,0,0,0,0,0,0,0,0,0,0,0,0,0,0,0,0,0],"sum_hessian":[1.003E3,4E0,9.99E2,3E0,1E0,9.9E2,9E0,8.3E2,1.6E2,2E0,7E0,8.27E2,3E0,1.35E2,2.5E1,3E0,4E0,3.4E1,7.93E2,2E0,1E0,1.32E2,3E0,2E0,2.3E1,1E0,3E0,3E1,4E0,2.2E1,7.71E2,1E0,1E0,1.5E1,1.17E2,1E0,2E0,1E0,1E0,1.6E1,7E0],"tree_param":{"num_deleted":"0","num_feature":"25","num_nodes":"41","size_leaf_vector":"1"}},{"base_weights":[9.1531314E-2,8.206198E0,-8.3340004E-2,1.0709501E1,2.7996418E0,-1.0794665E1,3.8844366E-2,1.2655825E1,2.679739E0,4.5925647E-1,4.6620045E-2,-6.009753E-1,-3.0483904E-1,-2.815683E-1,1.6896404E0,1.8784922E-1,5.399385E-2,5.276683E-2,-7.827706E-3,8.755753E-4,8.291923E-3,1.9527388E0,-6.197202E-2,-2.2204466E-1,-7.0695534E0,1.9910822E0,-6.228491E0,-4.3514627E-3,3.465891E-2,-3.5335672E-1,2.5060198E0,-1.2043303E0,-2.8119847E-1,5.141354E0,1.5562972E0,-1.9280192E-2,-9.175249E-2,-4.205472E-2,-3.5429075E-3,9.616877E-2,1.5485996E-2,-4.9469847E-2,3.3905968E-2,3.5936388E-3,1.0053342E-1,2.4641166E-2,-1.501889E-2],"categories":[],"categories_nodes":[],"categories_segments":[],"categories_sizes":[],"default_left":[0,0,0,0,0,0,0,0,0,0,0,0,0,0,0,0,0,0,0,0,0,0,0,0,0,0,0,0,0,0,0,0,0,0,0,0,0,0,0,0,0,0,0,0,0,0,0],"id":7,"left_children":[1,3,5,7,9,11,13,15,17,19,-1,21,-1,23,25,-1,-1,-1,-1,-1,-1,27,-1,29,31,33,35,-1,-1,37,39,41,-1,43,45,-1,-1,-1,-1,-1,-1,-1,-1,-1,-1,-1,-1],"loss_changes":[1.4126113E3,2.5423657E2,1.2764569E3,1.8488477E2,1.1564419E1,1.3443856E3,5.108989E2,8.081616E1,1.9134579E1,1.5239125E-1,0E0,8.159624E1,0E0,3.2530298E2,3.871377E2,0E0,0E0,0E0,0E0,0E0,0E0,8.279854E0,0E0,2.885424E2,5.518438E2,2.0019159E2,9.115845E0,0E0,0E0,1.8672923E2,2.2604156E2,6.6047455E1,0E0,2.0955399E2,1.0913995E2,0E0,0E0,0E0,0E0,0E0,0E0,0E0,0E0,0E0,0E0,0E0,0E0],"parents":[2147483647,0,0,1,1,2,2,3,3,4,4,5,5,6,6,7,7,8,8,9,9,11,11,13,13,14,14,21,21,23,23,24,24,25,25,26,26,29,29,30,30,31,31,33,33,34,34],"right_children":[2,4,6,8,10,12,14,16,18,20,-1,22,-1,24,26,-1,-1,-1,-1,-1,-1,28,-1,30,32,34,36,-1,-1,38,40,42,-1,44,46,-1,-1,-1,-1,-1,-1,-1,-1,-1,-1,-1,-1],"split_conditions":[-4.8869556E-1,3.1657675E-1,-2.5858574E0,5.7241052E-2,8.298351E-2,2.6452765E-2,8.849211E-2,2.1307519E-2,9.968853E-2,-5.4181844E-2,4.6620045E-2,1.9688573E-2,-3.0483904E-1,2.987996E-2,1.9708039E-1,1.8784922E-1,5.399385E-2,5.276683E-2,-7.827706E-3,8.755753E-4,8.291923E-3,-1.3264857E-1,-6.197202E-2,1.6605083E-2,5.6871017E-3,-3.831648E-1,-4.599702E-1,-4.3514627E-3,3.465891E-2,-3.741815E-1,-3.1872183E-1,3.7030697E-2,-2.8119847E-1,2.7607283E-2,3.8455516E-2,-1.9280192E-2,-9.175249E-2,-4.205472E-2,-3.5429075E-3,9.616877E-2,1.5485996E-2,-4.9469847E-2,3.3905968E-2,3.5936388E-3,1.0053342E-1,2.4641166E-2,-1.501889E-2],"split_indices":[9,14,21,22,6,7,6,15,2,2,0,7,0,7,22,0,0,0,0,0,0,2,0,15,15,9,9,0,0,9,9,2,0,8,8,0,0,0,0,0,0,0,0,0,0,0,0],"split_type":[0,0,0,0,0,0,0,0,0,0,0,0,0,0,0,0,0,0,0,0,0,0,0,0,0,0,0,0,0,0,0,0,0,0,0,0,0,0,0,0,0,0,0,0,0,0,0],"sum_hessian":[9.94E2,2E1,9.74E2,1.3E1,7E0,1E1,9.64E2,1E1,3E0,2E0,5E0,6E0,4E0,8.08E2,1.56E2,8E0,2E0,2E0,1E0,1E0,1E0,4E0,2E0,8.02E2,6E0,1.51E2,5E0,1E0,3E0,7.66E2,3.6E1,5E0,1E0,1.7E1,1.34E2,1E0,4E0,2.2E1,7.44E2,7E0,2.9E1,3E0,2E0,6E0,1.1E1,1.21E2,1.3E1],"tree_param":{"num_deleted":"0","num_feature":"25","num_nodes":"47","size_leaf_vector":"1"}},{"base_weights":[-1.1557318E-1,-1.1388352E1,-4.748047E-2,-3.6240501E0,-2.3880257E-1,3.4338305E0,-2.1216135E-1,-4.3225084E-3,-6.1422218E-2,2.5837345E0,1.5305741E-1,-8.735149E0,-1.6693738E-1,-9.299804E-2,2.9876435E0,-1.5973285E-2,-1.3731973E-1,-3.36215E-1,1.4687525E0,1.0692482E0,4.053285E0,-2.4988006E-1,-1.2568516E1,2.4914203E0,-1.2489337E0,-3.0431561E-3,3.687143E-2,6.1530262E-2,-2.4761569E-2,-3.7748977E-3,9.314961E-2,-3.2891956E-1,-4.1981316E-3,1.4822467E-2,6.598783E-2,4.1250643E-4,-7.062704E-2],"categories":[],"categories_nodes":[],"categories_segments":[],"categories_sizes":[],"default_left":[0,0,0,0,0,0,0,0,0,0,0,0,0,0,0,0,0,0,0,0,0,0,0,0,0,0,0,0,0,0,0,0,0,0,0,0,0],"id":8,"left_children":[1,3,5,7,-1,9,11,-1,-1,13,-1,15,17,-1,19,-1,-1,21,23,25,27,29,31,33,35,-1,-1,-1,-1,-1,-1,-1,-1,-1,-1,-1,-1],"loss_changes":[7.6705334E2,2.4039758E2,5.711674E2,1.1585274E1,0E0,2.7890222E2,3.6509848E2,0E0,0E0,1.8325958E2,0E0,4.7276672E1,2.6270453E2,0E0,7.9483215E1,0E0,0E0,9.0402747E2,2.5046841E2,3.596676E1,9.630359E1,2.1113185E2,8.8529535E2,2.1539816E2,1.3002252E2,0E0,0E0,0E0,0E0,0E0,0E0,0E0,0E0,0E0,0E0,0E0,0E0],"parents":[2147483647,0,0,1,1,2,2,3,3,5,5,6,6,9,9,11,11,12,12,14,14,17,17,18,18,19,19,20,20,21,21,22,22,23,23,24,24],"right_children":[2,4,6,8,-1,10,12,-1,-1,14,-1,16,18,-1,20,-1,-1,22,24,26,28,30,32,34,36,-1,-1,-1,-1,-1,-1,-1,-1,-1,-1,-1,-1],"split_conditions":[-2.762621E0,2.7209273E-2,-8.088233E-2,-1.2222491E-2,-2.3880257E-1,3.1292517E-2,-6.6564254E-2,-4.3225084E-3,-6.1422218E-2,-1.2257938E-1,1.5305741E-1,1.0892873E-1,9.9579446E-2,-9.299804E-2,9.679339E-2,-1.5973285E-2,-1.3731973E-1,3.3196133E-2,2.2838935E-2,-8.916163E-1,5.2439207E-1,6.149213E-2,9.609232E-1,2.7495546E-2,8.8622594E-1,-3.0431561E-3,3.687143E-2,6.1530262E-2,-2.4761569E-2,-3.7748977E-3,9.314961E-2,-3.2891956E-1,-4.1981316E-3,1.4822467E-2,6.598783E-2,4.1250643E-4,-7.062704E-2],"split_indices":[21,3,18,3,0,16,12,0,0,1,0,5,6,0,6,0,0,7,12,21,21,12,10,7,5,0,0,0,0,0,0,0,0,0,0,0,0],"split_type":[0,0,0,0,0,0,0,0,0,0,0,0,0,0,0,0,0,0,0,0,0,0,0,0,0,0,0,0,0,0,0,0,0,0,0,0,0],"sum_hessian":[9.99E2,5E0,9.94E2,3E0,2E0,4.4E1,9.5E2,1E0,2E0,4.1E1,3E0,4E0,9.46E2,1E0,4E1,1E0,3E0,8.58E2,8.8E1,1.5E1,2.5E1,8.53E2,5E0,6.4E1,2.4E1,9E0,6E0,2.3E1,2E0,8.5E2,3E0,2E0,3E0,4.2E1,2.2E1,1.9E1,5E0],"tree_param":{"num_deleted":"0","num_feature":"25","num_nodes":"37","size_leaf_vector":"1"}},{"base_weights":[5.1483517E-3,-1.0666413E1,1.2395607E-1,-1.4625526E1,-8.158323E-2,6.351205E-2,1.00060425E1,-1.2756869E-2,-2.5313184E-1,7.3618577E-3,-6.3554896E-3,-9.591634E0,1.02856E-1,1.5524788E-1,1.1353743E-2,-2.39966E0,-2.0738487E-1,-1.4054112E-1,1.815768E0,-5.040031E-2,2.4992316E-3,-9.897729E-2,-6.033036E0,2.3190427E0,-5.645774E0,-3.050395E-2,-5.447433E-4,-2.1186334E-1,-1.1597956E-2,-2.1972058E-3,4.0068526E-2,-2.1812331E-2,-1.02762125E-1],"categories":[],"categories_nodes":[],"categories_segments":[],"categories_sizes":[],"default_left":[0,0,0,0,0,0,0,0,0,0,0,0,0,0,0,0,0,0,0,0,0,0,0,0,0,0,0,0,0,0,0,0,0],"id":9,"left_children":[1,3,5,7,9,11,13,-1,-1,-1,-1,15,17,-1,-1,19,-1,21,23,-1,-1,25,27,29,31,-1,-1,-1,-1,-1,-1,-1,-1],"loss_changes":[1.2666504E3,4.597787E2,5.895098E2,4.623905E2,1.2696834E0,3.7440036E2,8.120636E1,0E0,0E0,0E0,0E0,1.349856E2,4.088347E2,0E0,0E0,1.1482609E1,0E0,2.0978459E2,4.7122766E2,0E0,0E0,1.08621155E2,2.9232507E2,1.9815045E2,5.3893112E1,0E0,0E0,0E0,0E0,0E0,0E0,0E0,0E0],"parents":[2147483647,0,0,1,1,2,2,3,3,4,4,5,5,6,6,11,11,12,12,15,15,17,17,18,18,21,21,22,22,23,23,24,24],"right_children":[2,4,6,8,10,12,14,-1,-1,-1,-1,16,18,-1,-1,20,-1,22,24,-1,-1,26,28,30,32,-1,-1,-1,-1,-1,-1,-1,-1],"split_conditions":[-1.6928768E-1,-1.9670602E0,3.1292517E-2,1.9927062E-2,-5.3700175E-2,-2.8834882E0,-9.525589E-2,-1.2756869E-2,-2.5313184E-1,7.3618577E-3,-6.3554896E-3,-1.4905815E-2,9.7782016E-2,1.5524788E-1,1.1353743E-2,-4.3483548E-2,-2.0738487E-1,3.6795717E-2,1.9708039E-1,-5.040031E-2,2.4992316E-3,-7.735841E-2,9.609232E-1,1.264193E0,8.8808846E-1,-3.050395E-2,-5.447433E-4,-2.1186334E-1,-1.1597956E-2,-2.1972058E-3,4.0068526E-2,-2.1812331E-2,-1.02762125E-1],"split_indices":[22,23,16,7,0,21,2,0,0,0,0,0,6,0,0,0,0,7,22,0,0,20,10,10,21,0,0,0,0,0,0,0,0],"split_type":[0,0,0,0,0,0,0,0,0,0,0,0,0,0,0,0,0,0,0,0,0,0,0,0,0,0,0,0,0,0,0,0,0],"sum_hessian":[9.97E2,1E1,9.87E2,7E0,3E0,9.82E2,5E0,2E0,5E0,1E0,2E0,3E0,9.79E2,4E0,1E0,2E0,1E0,8.58E2,1.21E2,1E0,1E0,8.53E2,5E0,1.14E2,7E0,2.1E1,8.32E2,1E0,4E0,2.5E1,8.9E1,3E0,4E0],"tree_param":{"num_deleted":"0","num_feature":"25","num_nodes":"33","size_leaf_vector":"1"}},{"base_weights":[6.237526E-2,6.231559E0,-5.9607E-2,-9.069494E-2,7.2769256E0,-7.932853E0,3.1249179E-3,8.363891E0,1.1098347E0,-2.1559572E-1,-2.4767494E0,-9.325475E-2,3.7849383E0,1.4976588E-1,4.0669813E0,4.0966857E-2,-7.618716E-3,-3.7688005E0,7.156873E-2,-6.1075673E-2,-2.1045364E-1,-3.1093688E0,5.246205E0,7.7668745E-3,6.8279676E-2,-1.4756675E-2,-5.7034507E-2,5.815237E-3,-4.38661E-3,-1.1291174E-2,-6.1084805E0,2.6151951E-2,-6.4799316E-2,2.8202385E-1,6.0579004E0,5.0349746E-2,-7.269472E-4,-1.074506E-1,-1.8723361E-3,1.0870566E-2,-8.799648E-3,8.974347E-2,5.069943E-3],"categories":[],"categories_nodes":[],"categories_segments":[],"categories_sizes":[],"default_left":[0,0,0,0,0,0,0,0,0,0,0,0,0,0,0,0,0,0,0,0,0,0,0,0,0,0,0,0,0,0,0,0,0,0,0,0,0,0,0,0,0,0,0],"id":10,"left_children":[1,3,5,-1,7,9,11,13,15,-1,17,19,21,-1,23,-1,-1,25,27,29,-1,31,33,-1,-1,-1,-1,-1,-1,35,37,-1,-1,39,41,-1,-1,-1,-1,-1,-1,-1,-1],"loss_changes":[7.762309E2,3.2236664E2,4.998555E2,0E0,1.1808215E2,3.2075992E2,3.6666534E2,1.5292957E2,1.5009726E1,0E0,2.0025074E1,4.9531357E2,2.6817288E2,0E0,2.6651321E1,0E0,0E0,7.484131E-1,5.838494E-1,2.949767E2,0E0,5.4223045E1,8.290906E1,0E0,0E0,0E0,0E0,0E0,0E0,1.6021255E2,9.271637E1,0E0,0E0,2.5581172E0,6.750946E1,0E0,0E0,0E0,0E0,0E0,0E0,0E0,0E0],"parents":[2147483647,0,0,1,1,2,2,4,4,5,5,6,6,7,7,8,8,10,10,11,11,12,12,14,14,17,17,18,18,19,19,21,21,22,22,29,29,30,30,33,33,34,34],"right_children":[2,4,6,-1,8,10,12,14,16,-1,18,20,22,-1,24,-1,-1,26,28,30,-1,32,34,-1,-1,-1,-1,-1,-1,36,38,-1,-1,40,42,-1,-1,-1,-1,-1,-1,-1,-1],"split_conditions":[-4.8027954E-1,-1.8462811E-1,-1.55786E-1,-9.069494E-2,4.170738E-2,-3.4068188E-1,3.850438E-2,1.830489E0,9.968853E-2,-2.1559572E-1,-7.1356274E-2,3.6795717E-2,1.7165688E0,1.4976588E-1,7.7825926E-2,4.0966857E-2,-7.618716E-3,-8.8859916E-2,-3.586722E-2,4.2718258E-2,-2.1045364E-1,2.8990151E-2,-1.3100181E0,7.7668745E-3,6.8279676E-2,-1.4756675E-2,-5.7034507E-2,5.815237E-3,-4.38661E-3,-1.1935667E-1,-1.4025775E-1,2.6151951E-2,-6.4799316E-2,9.335906E-2,4.3401435E-2,5.0349746E-2,-7.269472E-4,-1.074506E-1,-1.8723361E-3,1.0870566E-2,-8.799648E-3,8.974347E-2,5.069943E-3],"split_indices":[9,20,20,0,11,9,7,10,2,0,1,7,10,0,6,0,0,1,0,0,0,8,14,0,0,0,0,0,0,20,9,0,0,1,3,0,0,0,0,0,0,0,0],"split_type":[0,0,0,0,0,0,0,0,0,0,0,0,0,0,0,0,0,0,0,0,0,0,0,0,0,0,0,0,0,0,0,0,0,0,0,0,0,0,0,0,0,0,0],"sum_hessian":[1.03E3,1.9E1,1.011E3,1E0,1.8E1,7E0,1.004E3,1.5E1,3E0,2E0,5E0,9.8E2,2.4E1,8E0,7E0,1E0,2E0,3E0,2E0,9.79E2,1E0,4E0,2E1,2E0,5E0,1E0,2E0,1E0,1E0,9.72E2,7E0,1E0,3E0,3E0,1.7E1,1E1,9.62E2,5E0,2E0,2E0,1E0,1.5E1,2E0],"tree_param":{"num_deleted":"0","num_feature":"25","num_nodes":"43","size_leaf_vector":"1"}},{"base_weights":[-4.7593076E-2,9.889242E0,-1.2594326E-1,1.6766264E-1,1.1735499E0,-2.0516056E-1,-6.532139E-2,2.9484514E-2,-6.0585705E-3,6.707939E0,-1.0565364E-1,3.1999055E-2,1.0990197E-1,3.90519E0,-1.5391944E-1,1.14925094E-1,1.3687162E0,-1.2586944E-1,-9.411021E-2,5.6032546E-2,-2.324641E-2,-2.4092654E-3,3.6051948E-2],"categories":[],"categories_nodes":[],"categories_segments":[],"categories_sizes":[],"default_left":[0,0,0,0,0,0,0,0,0,0,0,0,0,0,0,0,0,0,0,0,0,0,0],"id":11,"left_children":[1,3,5,-1,7,-1,9,-1,-1,11,13,-1,-1,15,17,-1,19,21,-1,-1,-1,-1,-1],"loss_changes":[7.9614795E2,1.7414563E2,9.3892053E2,0E0,6.100569E0,0E0,2.7689456E2,0E0,0E0,2.01781E1,1.9534917E2,0E0,0E0,1.3217346E2,1.9218733E2,0E0,8.70392E1,1.5565265E2,0E0,0E0,0E0,0E0,0E0],"parents":[2147483647,0,0,1,1,2,2,4,4,6,6,9,9,10,10,13,13,14,14,16,16,17,17],"right_children":[2,4,6,-1,8,-1,10,-1,-1,12,14,-1,-1,16,18,-1,20,22,-1,-1,-1,-1,-1],"split_conditions":[-5.241994E-1,3.1657675E-1,-1.8061297E-1,1.6766264E-1,-5.3700175E-2,-2.0516056E-1,-2.96146E-1,2.9484514E-2,-6.0585705E-3,2.987996E-2,-4.8027954E-1,3.1999055E-2,1.0990197E-1,-1.1245512E0,1.5577376E-1,1.14925094E-1,-6.7607784E-1,3.8461577E-2,-9.411021E-2,5.6032546E-2,-2.324641E-2,-2.4092654E-3,3.6051948E-2],"split_indices":[9,14,2,0,0,0,18,0,0,7,9,0,0,14,2,0,19,4,0,0,0,0,0],"split_type":[0,0,0,0,0,0,0,0,0,0,0,0,0,0,0,0,0,0,0,0,0,0,0],"sum_hessian":[1.02E3,7E0,1.013E3,5E0,2E0,3E0,1.01E3,1E0,1E0,5E0,1.005E3,2E0,3E0,1.1E1,9.94E2,3E0,8E0,9.91E2,3E0,4E0,4E0,9.73E2,1.8E1],"tree_param":{"num_deleted":"0","num_feature":"25","num_nodes":"23","size_leaf_vector":"1"}},{"base_weights":[-3.434497E-2,-2.063787E-1,4.4477303E-2,5.3693194E0,-9.452639E-2,1.2102145E0,7.6331778E0,-1.9047068E0,8.847064E-2,-1.8840188E-2,2.0436673E0,9.122864E0,8.834038E-1,-1.1063796E1,-5.8862114E-1,-1.9866472E0,2.527269E-1,2.804354E0,5.818924E-1,-6.0182572E-3,1.325248E-1,-7.3448857E-3,3.4529544E-2,-3.226534E-1,-3.0899475E0,1.4296879E0,-1.8798494E0,-2.607993E0,2.6887722E0,-1.0242351E-1,1.3186853E0,7.840979E-3,4.2729028E-2,1.0509156E-2,-2.7638845E-4,-5.1497005E-2,1.5758643E-2,-3.1180917E-3,5.957121E-2,-3.3024803E-2,3.6545366E-2,-5.2022535E-2,-7.0690025E-5,8.774646E-3,6.059465E-2,-2.5723134E-3,3.425819E-2,2.8131269E-2,-1.0543837E-2],"categories":[],"categories_nodes":[],"categories_segments":[],"categories_sizes":[],"default_left":[0,0,0,0,0,0,0,0,0,0,0,0,0,0,0,0,0,0,0,0,0,0,0,0,0,0,0,0,0,0,0,0,0,0,0,0,0,0,0,0,0,0,0,0,0,0,0,0,0],"id":12,"left_children":[1,-1,3,5,7,9,11,13,15,-1,17,19,21,23,25,27,29,31,33,-1,-1,-1,-1,-1,35,37,39,41,43,45,47,-1,-1,-1,-1,-1,-1,-1,-1,-1,-1,-1,-1,-1,-1,-1,-1,-1,-1],"loss_changes":[1.2032963E3,0E0,7.273572E2,2.2615277E2,3.175133E2,2.4779308E1,1.5282153E2,1.0542524E3,2.9738345E2,0E0,7.26379E0,1.08517456E2,1.1257154E1,1.0812844E3,2.0596323E2,1.9293564E2,3.060241E2,2.6102982E0,5.1735795E-1,0E0,0E0,0E0,0E0,0E0,3.124453E1,1.5821165E2,1.4043837E2,1.9301596E2,2.7269432E1,1.4814253E2,3.407721E2,0E0,0E0,0E0,0E0,0E0,0E0,0E0,0E0,0E0,0E0,0E0,0E0,0E0,0E0,0E0,0E0,0E0,0E0],"parents":[2147483647,0,0,2,2,3,3,4,4,5,5,6,6,7,7,8,8,10,10,11,11,12,12,13,13,14,14,15,15,16,16,17,17,18,18,24,24,25,25,26,26,27,27,28,28,29,29,30,30],"right_children":[2,-1,4,6,8,10,12,14,16,-1,18,20,22,24,26,28,30,32,34,-1,-1,-1,-1,-1,36,38,40,42,44,46,48,-1,-1,-1,-1,-1,-1,-1,-1,-1,-1,-1,-1,-1,-1,-1,-1,-1,-1],"split_conditions":[-8.578592E-2,-2.063787E-1,-4.8027954E-1,2.7607283E-2,-2.6463994E-1,1.951178E-2,5.2978586E-2,-1.5228408E-2,-1.225289E-2,-1.8840188E-2,-1.4100405E-2,1.0831356E0,7.065033E-2,1.0861715E0,-4.334364E-2,1.9499613E-2,1.7377751E-2,-3.465364E-2,-2.7915023E-3,-6.0182572E-3,1.325248E-1,-7.3448857E-3,3.4529544E-2,-3.226534E-1,1.1421987E-3,-8.7783456E-2,2.755611E-2,1.674471E0,8.592103E-1,7.760717E-2,2.5300694E0,7.840979E-3,4.2729028E-2,1.0509156E-2,-2.7638845E-4,-5.1497005E-2,1.5758643E-2,-3.1180917E-3,5.957121E-2,-3.3024803E-2,3.6545366E-2,-5.2022535E-2,-7.0690025E-5,8.774646E-3,6.059465E-2,-2.5723134E-3,3.425819E-2,2.8131269E-2,-1.0543837E-2],"split_indices":[4,0,9,8,9,8,4,16,15,0,4,10,0,10,13,16,8,3,0,0,0,0,0,0,0,13,4,10,10,20,10,0,0,0,0,0,0,0,0,0,0,0,0,0,0,0,0,0,0],"split_type":[0,0,0,0,0,0,0,0,0,0,0,0,0,0,0,0,0,0,0,0,0,0,0,0,0,0,0,0,0,0,0,0,0,0,0,0,0,0,0,0,0,0,0,0,0,0,0,0,0],"sum_hessian":[9.85E2,4E0,9.81E2,2.4E1,9.57E2,9E0,1.5E1,8.7E1,8.7E2,2E0,7E0,1.2E1,3E0,1E1,7.7E1,6.3E1,8.07E2,4E0,3E0,1E0,1.1E1,2E0,1E0,3E0,7E0,3E1,4.7E1,5.6E1,7E0,6.06E2,2.01E2,1E0,3E0,2E0,1E0,6E0,1E0,2E1,1E1,4.2E1,5E0,3.7E1,1.9E1,4E0,3E0,5.87E2,1.9E1,1.46E2,5.5E1],"tree_param":{"num_deleted":"0","num_feature":"25","num_nodes":"49","size_leaf_vector":"1"}},{"base_weights":[-3.7430577E-2,5.589971E0,-1.8051055E-1,1.4813548E-1,4.0043635E0,-6.927472E0,-1.1105456E-1,-1.6851234E0,5.0462294E0,3.6175677E-1,-2.388973E-1,-1.775441E-1,5.7259426E0,-3.1613606E-1,-3.8539786E-2,5.9128923E0,5.346855E-1,-4.2662825E-2,2.4299788E0,-3.9629524E0,-8.0809414E-2,-3.612675E-2,6.8414803E0,-2.745494E-4,-6.0360353E-3,6.3644643E0,-2.7221825E-3,2.8406527E-2,-9.45041E-3,3.9161615E-2,2.5205857E-3,-1.9131542E0,-5.29044E0,-3.1070802E-1,1.0870035E0,1.0529118E-1,4.335204E-2,4.0846545E-2,9.815202E-2,-4.1916E-2,-4.760224E-3,1.3575155E-2,-7.7907965E-2,-8.207788E-2,-3.5315054E-3,-3.8557928E-2,1.685951E-2],"categories":[],"categories_nodes":[],"categories_segments":[],"categories_sizes":[],"default_left":[0,0,0,0,0,0,0,0,0,0,0,0,0,0,0,0,0,0,0,0,0,0,0,0,0,0,0,0,0,0,0,0,0,0,0,0,0,0,0,0,0,0,0,0,0,0,0],"id":13,"left_children":[1,3,5,-1,7,9,11,13,15,17,-1,19,21,23,-1,25,27,-1,29,31,33,-1,35,-1,-1,37,-1,-1,-1,-1,-1,39,41,43,45,-1,-1,-1,-1,-1,-1,-1,-1,-1,-1,-1,-1],"loss_changes":[8.118137E2,1.7509369E2,4.59881E2,0E0,1.329848E2,8.1007935E2,3.7902527E2,5.7153893E0,6.721826E1,5.9440628E1,0E0,3.5267758E2,1.2214731E2,1.124827E-1,0E0,4.2738953E1,9.48228E0,0E0,5.1873436E0,5.518454E1,2.5297606E2,0E0,1.2591797E1,0E0,0E0,2.4004456E1,0E0,0E0,0E0,0E0,0E0,2.0031364E1,5.579065E1,2.0733548E2,1.1476883E2,0E0,0E0,0E0,0E0,0E0,0E0,0E0,0E0,0E0,0E0,0E0,0E0],"parents":[2147483647,0,0,1,1,2,2,4,4,5,5,6,6,7,7,8,8,9,9,11,11,12,12,13,13,15,15,16,16,18,18,19,19,20,20,22,22,25,25,31,31,32,32,33,33,34,34],"right_children":[2,4,6,-1,8,10,12,14,16,18,-1,20,22,24,-1,26,28,-1,30,32,34,-1,36,-1,-1,38,-1,-1,-1,-1,-1,40,42,44,46,-1,-1,-1,-1,-1,-1,-1,-1,-1,-1,-1,-1],"split_conditions":[-4.8027954E-1,-2.4607593E-1,-2.762621E0,1.4813548E-1,8.298351E-2,2.6452765E-2,4.9019393E-2,-4.2677924E-2,2.7767405E-1,-8.4486544E-2,-2.388973E-1,-4.0308458E-1,-7.37684E-2,-5.4181844E-2,-3.8539786E-2,9.968853E-2,-5.8555458E-2,-4.2662825E-2,-3.772522E-2,-3.4960493E-1,1.1198814E0,-3.612675E-2,2.7767405E-1,-2.745494E-4,-6.0360353E-3,2.9292475E-2,-2.7221825E-3,2.8406527E-2,-9.45041E-3,3.9161615E-2,2.5205857E-3,-7.891329E-3,-2.5516993E-1,-3.41593E-2,-1.0143147E-2,1.0529118E-1,4.335204E-2,4.0846545E-2,9.815202E-2,-4.1916E-2,-4.760224E-3,1.3575155E-2,-7.7907965E-2,-8.207788E-2,-3.5315054E-3,-3.8557928E-2,1.685951E-2],"split_indices":[9,13,21,0,6,7,7,2,6,2,0,9,2,2,0,2,3,0,2,23,19,0,6,0,0,7,0,0,0,0,0,15,13,15,15,0,0,0,0,0,0,0,0,0,0,0,0],"split_type":[0,0,0,0,0,0,0,0,0,0,0,0,0,0,0,0,0,0,0,0,0,0,0,0,0,0,0,0,0,0,0,0,0,0,0,0,0,0,0,0,0,0,0,0,0,0,0],"sum_hessian":[1.006E3,2.4E1,9.82E2,4E0,2E1,9E0,9.73E2,3E0,1.7E1,6E0,3E0,9.63E2,1E1,2E0,1E0,1.4E1,3E0,2E0,4E0,2.3E1,9.4E2,1E0,9E0,1E0,1E0,1.3E1,1E0,1E0,2E0,3E0,1E0,1E1,1.3E1,7.86E2,1.54E2,6E0,3E0,4E0,9E0,5E0,5E0,1E0,1.2E1,5E0,7.81E2,6E0,1.48E2],"tree_param":{"num_deleted":"0","num_feature":"25","num_nodes":"47","size_leaf_vector":"1"}},{"base_weights":[-2.8234104E-2,5.0000887E0,-1.5035102E-1,1.1051322E1,2.3690486E0,8.8329405E-2,-1.0568385E0,-5.9153303E-3,1.7355126E-1,-2.08807E0,5.395221E0,-3.5914435E0,1.9942854E-1,-1.9133127E0,1.8488726E-1,-9.4803266E-2,-3.5095996E-1,7.16417E0,-2.2756658E-2,-2.724329E-1,-3.580703E-2,-4.47611E-2,1.74248E0,-1.6563686E0,-6.6048374E0,-2.0850947E-1,2.379739E0,-2.4796212E0,1.8654413E0,1.0793229E-1,-2.7040695E-3,-2.6439695E0,1.2708318E0,-2.2043067E-1,1.344583E0,2.1312172E0,-4.962098E0,-6.208916E0,-1.4821005E0,2.7221403E-1,-1.3456011E-1,1.233846E0,-1.0326602E0,3.1822813E0,-2.2155109E-1,-5.9958724E-3,-4.000029E-2,3.793004E-2,7.8130495E-3,6.971346E-3,-5.344217E-2,-1.316254E-2,4.1113045E-2,-2.2014435E-3,-4.480276E-2,1.0904233E-2,4.465698E-2,3.8760486E-3,3.9998468E-2,1.0476776E-2,-1.06909044E-1,-2.5219738E-2,-9.33557E-2,2.5847139E-2,-2.2494432E-2,3.188819E-2,-2.645436E-2,3.1021891E-2,4.441829E-3,2.4131678E-2,-2.0973627E-2,-1.0970852E-2,4.949238E-2,-1.2400769E-2,1.2704465E-2],"categories":[],"categories_nodes":[],"categories_segments":[],"categories_sizes":[],"default_left":[0,0,0,0,0,0,0,0,0,0,0,0,0,0,0,0,0,0,0,0,0,0,0,0,0,0,0,0,0,0,0,0,0,0,0,0,0,0,0,0,0,0,0,0,0,0,0,0,0,0,0,0,0,0,0,0,0,0,0,0,0,0,0,0,0,0,0,0,0,0,0,0,0,0,0],"id":14,"left_children":[1,3,5,7,9,11,13,-1,-1,15,17,19,21,23,25,-1,27,29,-1,-1,31,33,35,37,39,41,43,45,47,-1,-1,49,51,53,55,57,59,61,63,65,-1,67,69,71,73,-1,-1,-1,-1,-1,-1,-1,-1,-1,-1,-1,-1,-1,-1,-1,-1,-1,-1,-1,-1,-1,-1,-1,-1,-1,-1,-1,-1,-1,-1],"loss_changes":[6.2154956E2,3.5592377E2,2.1385783E2,1.6593817E2,2.540498E2,3.20822E2,2.1943597E2,0E0,0E0,6.748239E1,1.5050806E2,1.3797334E3,2.8682065E2,1.36126E2,7.388924E1,0E0,3.7651363E1,6.439499E1,0E0,0E0,7.151857E1,1.6089146E2,2.816325E2,8.362134E1,1.4744202E2,8.805059E1,2.7844429E1,2.9162617E0,3.3621483E0,0E0,0E0,3.252536E1,6.059346E1,1.0068229E2,7.54115E1,1.5840808E2,1.12279724E2,6.170654E-1,8.456996E1,1.9164814E1,0E0,2.5887611E1,7.554288E1,2.4573273E1,4.2314525E0,0E0,0E0,0E0,0E0,0E0,0E0,0E0,0E0,0E0,0E0,0E0,0E0,0E0,0E0,0E0,0E0,0E0,0E0,0E0,0E0,0E0,0E0,0E0,0E0,0E0,0E0,0E0,0E0,0E0,0E0],"parents":[2147483647,0,0,1,1,2,2,3,3,4,4,5,5,6,6,9,9,10,10,11,11,12,12,13,13,14,14,16,16,17,17,20,20,21,21,22,22,23,23,24,24,25,25,26,26,27,27,28,28,31,31,32,32,33,33,34,34,35,35,36,36,37,37,38,38,39,39,41,41,42,42,43,43,44,44],"right_children":[2,4,6,8,10,12,14,-1,-1,16,18,20,22,24,26,-1,28,30,-1,-1,32,34,36,38,40,42,44,46,48,-1,-1,50,52,54,56,58,60,62,64,66,-1,68,70,72,74,-1,-1,-1,-1,-1,-1,-1,-1,-1,-1,-1,-1,-1,-1,-1,-1,-1,-1,-1,-1,-1,-1,-1,-1,-1,-1,-1,-1,-1,-1],"split_conditions":[-4.8027954E-1,-6.46449E-2,-4.1425813E-2,1.0831356E0,3.5771167E-1,-1.6490556E-2,2.4130246E-2,-5.9153303E-3,1.7355126E-1,-6.7785375E-2,3.4400493E-2,-3.704915E-2,2.252112E-2,4.3793954E-2,9.471737E-3,-9.4803266E-2,1.968579E-2,8.7621436E-2,-2.2756658E-2,-2.724329E-1,-3.0190223E-1,1.0127459E-2,1.9879489E-1,-4.6533022E-2,7.1131256E-3,-2.888373E-3,9.4062194E-2,-2.1197034E-2,-4.003132E-2,1.0793229E-1,-2.7040695E-3,-2.515018E-3,1.2624221E-2,3.821946E-2,1.4796482E-1,-2.0068021E-2,3.748084E-2,-3.1182148E-2,-2.5538515E-2,-1.944014E-2,-1.3456011E-1,7.6570064E-1,3.2107275E-2,-1.7487688E-2,1.4869156E-2,-5.9958724E-3,-4.000029E-2,3.793004E-2,7.8130495E-3,6.971346E-3,-5.344217E-2,-1.316254E-2,4.1113045E-2,-2.2014435E-3,-4.480276E-2,1.0904233E-2,4.465698E-2,3.8760486E-3,3.9998468E-2,1.0476776E-2,-1.06909044E-1,-2.5219738E-2,-9.33557E-2,2.5847139E-2,-2.2494432E-2,3.188819E-2,-2.645436E-2,3.1021891E-2,4.441829E-3,2.4131678E-2,-2.0973627E-2,-1.0970852E-2,4.949238E-2,-1.2400769E-2,1.2704465E-2],"split_indices":[9,11,9,10,5,16,2,0,0,0,0,20,8,17,16,0,8,20,0,0,9,16,20,20,16,16,11,0,0,0,0,2,8,12,13,11,0,0,12,0,0,5,20,0,0,0,0,0,0,0,0,0,0,0,0,0,0,0,0,0,0,0,0,0,0,0,0,0,0,0,0,0,0,0,0],"split_type":[0,0,0,0,0,0,0,0,0,0,0,0,0,0,0,0,0,0,0,0,0,0,0,0,0,0,0,0,0,0,0,0,0,0,0,0,0,0,0,0,0,0,0,0,0,0,0,0,0,0,0,0,0,0,0,0,0,0,0,0,0,0,0,0,0,0,0,0,0,0,0,0,0,0,0],"sum_hessian":[1.01E3,2.3E1,9.87E2,6E0,1.7E1,7.82E2,2.05E2,1E0,5E0,7E0,1E1,2.2E1,7.6E2,1.21E2,8.4E1,1E0,6E0,8E0,2E0,3E0,1.9E1,6.57E2,1.03E2,1.16E2,5E0,7.2E1,1.2E1,3E0,3E0,7E0,1E0,6E0,1.3E1,5.84E2,7.3E1,9.8E1,5E0,3E0,1.13E2,2E0,3E0,2.6E1,4.6E1,9E0,3E0,1E0,2E0,1E0,2E0,2E0,4E0,6E0,7E0,5.75E2,9E0,5.9E1,1.4E1,3.2E1,6.6E1,2E0,3E0,1E0,2E0,6E0,1.07E2,1E0,1E0,1.1E1,1.5E1,7E0,3.9E1,1E0,8E0,2E0,1E0],"tree_param":{"num_deleted":"0","num_feature":"25","num_nodes":"75","size_leaf_vector":"1"}},{"base_weights":[5.4550324E-2,-8.559557E-2,6.1101956E0,-4.571915E0,-3.9345827E-3,-1.4022008E-1,7.4046555E0,-8.306074E0,1.9491794E0,3.5626166E0,-8.9777246E-2,9.310949E0,3.1430597E0,-2.266961E0,-1.0287371E1,-4.0376626E-2,4.5492935E0,2.0341396E0,6.5473332E0,-4.557371E-1,4.5691428E-1,1.3866173E-1,5.235716E-2,1.083017E0,6.563841E-2,-4.6562783E-2,9.507913E-3,-1.532051E-1,-5.8660887E-2,2.4965132E-2,7.593623E-2,3.0271878E0,-7.5600356E-1,9.556124E-2,1.8272001E-2,-1.8671402E-1,-1.21635E0,5.613528E-1,-4.9944024E0,-7.112785E-3,3.1133635E-2,4.8528463E-2,-6.214324E-4,-1.373732E-2,2.32289E-3,-4.641559E-2,-1.3719123E-3,-3.6671314E-2,-9.460791E-3,2.6906745E-3,3.6470428E-2,-6.0319193E-3,-8.943074E-2],"categories":[],"categories_nodes":[],"categories_segments":[],"categories_sizes":[],"default_left":[0,0,0,0,0,0,0,0,0,0,0,0,0,0,0,0,0,0,0,0,0,0,0,0,0,0,0,0,0,0,0,0,0,0,0,0,0,0,0,0,0,0,0,0,0,0,0,0,0,0,0,0,0],"id":15,"left_children":[1,3,5,7,9,-1,11,13,15,17,19,21,23,25,27,-1,29,31,33,35,37,-1,-1,39,-1,-1,-1,-1,-1,-1,-1,41,43,-1,-1,45,47,49,51,-1,-1,-1,-1,-1,-1,-1,-1,-1,-1,-1,-1,-1,-1],"loss_changes":[8.2543396E2,3.483878E2,5.52094E2,4.3015366E2,2.8658154E2,0E0,1.4133606E2,1.08296936E2,1.04502014E2,8.704736E1,1.8306961E2,4.2458984E1,2.414627E1,1.7191896E1,6.875366E0,0E0,4.7587357E0,4.6620506E1,1.3087372E1,1.11905975E2,2.1174677E2,0E0,0E0,1.1412357E1,0E0,0E0,0E0,0E0,0E0,0E0,0E0,2.3019585E1,1.4656405E0,0E0,0E0,1.11717186E2,1.0929439E2,2.819958E2,5.1813736E1,0E0,0E0,0E0,0E0,0E0,0E0,0E0,0E0,0E0,0E0,0E0,0E0,0E0,0E0],"parents":[2147483647,0,0,1,1,2,2,3,3,4,4,6,6,7,7,8,8,9,9,10,10,11,11,12,12,13,13,14,14,16,16,17,17,18,18,19,19,20,20,23,23,31,31,32,32,35,35,36,36,37,37,38,38],"right_children":[2,4,6,8,10,-1,12,14,16,18,20,22,24,26,28,-1,30,32,34,36,38,-1,-1,40,-1,-1,-1,-1,-1,-1,-1,42,44,-1,-1,46,48,50,52,-1,-1,-1,-1,-1,-1,-1,-1,-1,-1,-1,-1,-1,-1],"split_conditions":[4.9019393E-2,-1.9206153E-2,-2.9226325E0,2.2980707E-2,-6.46449E-2,-1.4022008E-1,5.7241052E-2,3.4495912E-4,4.701647E-3,-8.182341E-1,3.0997142E-1,1.2818482E0,8.357188E-1,-7.303525E-4,4.1717604E-1,-4.0376626E-2,2.3596485E-3,-9.7816944E-1,2.8620534E-2,2.654618E-1,1.6867162E-1,1.3866173E-1,5.235716E-2,4.8033864E-5,6.563841E-2,-4.6562783E-2,9.507913E-3,-1.532051E-1,-5.8660887E-2,2.4965132E-2,7.593623E-2,2.2858272E-3,-2.0414548E-2,9.556124E-2,1.8272001E-2,-2.9403228E-2,-3.7780234E-1,2.2255886E-2,2.1256028E-2,-7.112785E-3,3.1133635E-2,4.8528463E-2,-6.214324E-4,-1.373732E-2,2.32289E-3,-4.641559E-2,-1.3719123E-3,-3.6671314E-2,-9.460791E-3,2.6906745E-3,3.6470428E-2,-6.0319193E-3,-8.943074E-2],"split_indices":[7,15,19,8,11,0,22,16,16,21,23,14,21,0,5,0,0,19,7,19,6,0,0,3,0,0,0,0,0,0,0,0,0,0,0,3,23,8,0,0,0,0,0,0,0,0,0,0,0,0,0,0,0],"split_type":[0,0,0,0,0,0,0,0,0,0,0,0,0,0,0,0,0,0,0,0,0,0,0,0,0,0,0,0,0,0,0,0,0,0,0,0,0,0,0,0,0,0,0,0,0,0,0,0,0,0,0,0,0],"sum_hessian":[9.71E2,9.5E2,2.1E1,1.6E1,9.34E2,1E0,2E1,1E1,6E0,2.1E1,9.13E2,1.3E1,7E0,3E0,7E0,2E0,4E0,1.5E1,6E0,5.47E2,3.66E2,1E1,3E0,4E0,3E0,2E0,1E0,5E0,2E0,2E0,2E0,1.1E1,4E0,5E0,1E0,4.05E2,1.42E2,3.6E2,6E0,2E0,2E0,9E0,2E0,3E0,1E0,9E0,3.96E2,3.4E1,1.08E2,3.1E2,5E1,2E0,4E0],"tree_param":{"num_deleted":"0","num_feature":"25","num_nodes":"53","size_leaf_vector":"1"}},{"base_weights":[2.092453E-1,-1.1292873E1,3.0379492E-1,-1.1486783E0,-2.8145736E-1,1.9206077E-1,4.5241327E0,-5.849521E-2,3.3018023E-2,5.13237E0,1.4981127E-1,-1.4849901E-1,5.6425424E0,1.9196132E-2,8.146893E-2,-9.993681E-1,3.192026E-1,9.593095E0,3.4515445E0,-4.0995148E-1,-3.2000375E-1,3.8026232E-1,-2.0220816E0,1.5436834E-1,3.1696413E-2,-1.095787E0,4.9350147E0,-6.994532E-2,1.1026674E-3,3.58432E-3,4.886529E-2,-7.439818E-3,-5.761733E-2,1.8933605E-4,-3.6834795E-2,8.379496E-2,-2.2661317E-2],"categories":[],"categories_nodes":[],"categories_segments":[],"categories_sizes":[],"default_left":[0,0,0,0,0,0,0,0,0,0,0,0,0,0,0,0,0,0,0,0,0,0,0,0,0,0,0,0,0,0,0,0,0,0,0,0,0],"id":16,"left_children":[1,3,5,7,-1,9,11,-1,-1,13,15,-1,17,-1,-1,19,21,23,25,27,-1,29,31,-1,-1,33,35,-1,-1,-1,-1,-1,-1,-1,-1,-1,-1],"loss_changes":[1.0670265E3,7.756381E2,4.570119E2,6.9833786E1,0E0,1.968943E2,5.0146396E2,0E0,0E0,2.0379929E1,1.8330035E2,0E0,1.7462457E2,0E0,0E0,1.6338455E3,1.179946E2,8.8144165E1,1.2008685E2,2.846287E2,0E0,2.9110516E2,6.847478E1,0E0,0E0,9.319855E0,1.2822638E2,0E0,0E0,0E0,0E0,0E0,0E0,0E0,0E0,0E0,0E0],"parents":[2147483647,0,0,1,1,2,2,3,3,5,5,6,6,9,9,10,10,12,12,15,15,16,16,17,17,18,18,19,19,21,21,22,22,25,25,26,26],"right_children":[2,4,6,8,-1,10,12,-1,-1,14,16,-1,18,-1,-1,20,22,24,26,28,-1,30,32,-1,-1,34,36,-1,-1,-1,-1,-1,-1,-1,-1,-1,-1],"split_conditions":[-2.762621E0,2.609198E-1,4.3247934E-2,-8.1638224E-2,-2.8145736E-1,-7.540434E-2,-1.6473464E0,-5.849521E-2,3.3018023E-2,1.131815E0,9.700764E-1,-1.4849901E-1,-1.0094047E0,1.9196132E-2,8.146893E-2,2.1215087E-2,3.7254687E-2,5.0456755E-2,2.0318763E-2,-1.1818464E-2,-3.2000375E-1,2.8061872E-2,-5.119446E-3,1.5436834E-1,3.1696413E-2,2.3309726E-3,8.921129E-2,-6.994532E-2,1.1026674E-3,3.58432E-3,4.886529E-2,-7.439818E-3,-5.761733E-2,1.8933605E-4,-3.6834795E-2,8.379496E-2,-2.2661317E-2],"split_indices":[21,5,8,1,0,1,21,0,0,10,10,0,19,0,0,7,8,1,11,15,0,8,16,0,0,16,8,0,0,0,0,0,0,0,0,0,0],"split_type":[0,0,0,0,0,0,0,0,0,0,0,0,0,0,0,0,0,0,0,0,0,0,0,0,0,0,0,0,0,0,0,0,0,0,0,0,0],"sum_hessian":[9.77E2,7E0,9.7E2,4E0,3E0,9.46E2,2.4E1,2E0,2E0,7E0,9.39E2,1E0,2.3E1,2E0,5E0,1.2E2,8.19E2,7E0,1.6E1,1.18E2,2E0,7.99E2,2E1,5E0,2E0,4E0,1.2E1,1E1,1.08E2,7.74E2,2.5E1,1.3E1,7E0,3E0,1E0,1E1,2E0],"tree_param":{"num_deleted":"0","num_feature":"25","num_nodes":"37","size_leaf_vector":"1"}},{"base_weights":[6.480266E-3,-1.3979629E1,9.2541985E-2,-2.219842E-1,-3.1513039E-3,7.140637E0,-6.2539205E-2,8.4212697E-1,9.603899E0,-3.405397E0,5.3298444E-2,-9.506086E-1,3.5493107E0,1.4772215E-1,4.390666E0,5.4474455E-1,-3.3063227E-1,1.0982567E-1,-6.4327974E0,-1.7734315E-2,3.8424996E-3,5.9066594E-2,1.1783362E-2,6.781422E-2,1.0446166E-2,3.6212666E0,-6.532041E-1,-1.21292055E-1,1.3019042E0,-8.802678E-1,-1.08284146E-1,-7.0719556E-3,8.2762964E-2,-5.1914483E-2,1.3951034E-3,-4.653122E-2,-5.979148E-4,-4.3164913E-2,2.0611297E-2,-1.8544879E-2,9.7331643E-4],"categories":[],"categories_nodes":[],"categories_segments":[],"categories_sizes":[],"default_left":[0,0,0,0,0,0,0,0,0,0,0,0,0,0,0,0,0,0,0,0,0,0,0,0,0,0,0,0,0,0,0,0,0,0,0,0,0,0,0,0,0],"id":17,"left_children":[1,3,5,-1,-1,7,9,11,13,15,17,19,21,-1,23,25,-1,27,29,-1,-1,-1,-1,-1,-1,31,33,35,37,39,-1,-1,-1,-1,-1,-1,-1,-1,-1,-1,-1],"loss_changes":[1.180889E3,2.1878308E2,1.0661478E3,0E0,0E0,3.1772473E2,3.69985E2,3.734686E1,6.829114E1,2.723611E3,3.394828E2,2.7520885E0,3.1760483E0,0E0,8.71328E0,1.0555986E2,0E0,2.5280101E2,6.853525E1,0E0,0E0,0E0,0E0,0E0,0E0,8.961077E1,5.211116E1,1.9804678E2,1.722549E2,1.5699966E0,0E0,0E0,0E0,0E0,0E0,0E0,0E0,0E0,0E0,0E0,0E0],"parents":[2147483647,0,0,1,1,2,2,5,5,6,6,7,7,8,8,9,9,10,10,11,11,12,12,14,14,15,15,17,17,18,18,25,25,26,26,27,27,28,28,29,29],"right_children":[2,4,6,-1,-1,8,10,12,14,16,18,20,22,-1,24,26,-1,28,30,-1,-1,-1,-1,-1,-1,32,34,36,38,40,-1,-1,-1,-1,-1,-1,-1,-1,-1,-1,-1],"split_conditions":[-2.1686742E-1,-8.8859916E-2,-4.8027954E-1,-2.219842E-1,-3.1513039E-3,6.914456E-2,-1.5228408E-2,-5.1534763E-3,-5.405077E-2,3.3196133E-2,1.9708039E-1,-1.5757369E-2,-4.2557027E-3,1.4772215E-1,2.7651873E0,-1.53881265E-2,-3.3063227E-1,8.849211E-2,-4.599702E-1,-1.7734315E-2,3.8424996E-3,5.9066594E-2,1.1783362E-2,6.781422E-2,1.0446166E-2,-8.974757E-3,-3.0190223E-1,-3.9762452E-1,-6.6564254E-2,5.5656392E-2,-1.08284146E-1,-7.0719556E-3,8.2762964E-2,-5.1914483E-2,1.3951034E-3,-4.653122E-2,-5.979148E-4,-4.3164913E-2,2.0611297E-2,-1.8544879E-2,9.7331643E-4],"split_indices":[22,1,9,0,0,6,16,1,14,7,22,2,1,0,10,1,0,6,9,0,0,0,0,0,0,18,9,9,12,1,0,0,0,0,0,0,0,0,0,0,0],"split_type":[0,0,0,0,0,0,0,0,0,0,0,0,0,0,0,0,0,0,0,0,0,0,0,0,0,0,0,0,0,0,0,0,0,0,0,0,0,0,0,0,0],"sum_hessian":[9.79E2,5E0,9.74E2,4E0,1E0,2E1,9.54E2,6E0,1.4E1,3.1E1,9.23E2,4E0,2E0,1E1,4E0,2.7E1,4E0,9.16E2,7E0,3E0,1E0,1E0,1E0,3E0,1E0,7E0,2E1,7.68E2,1.48E2,2E0,5E0,3E0,4E0,3E0,1.7E1,1.6E1,7.52E2,7E0,1.41E2,1E0,1E0],"tree_param":{"num_deleted":"0","num_feature":"25","num_nodes":"41","size_leaf_vector":"1"}},{"base_weights":[-1.0361243E-1,7.790409E0,-1.9997154E-1,1.7993976E-1,4.3776846E0,-6.962071E0,-1.5126799E-1,9.524733E-2,7.225444E-1,-1.8809776E-1,-1.266221E0,-1.9854972E-1,5.59464E0,3.492251E-2,-1.4199847E0,-3.7676096E-2,-1.6720551E-1,2.2330656E0,-2.8129295E-1,6.1996883E-1,9.514416E-2,-1.4568381E-3,-2.6888343E-2,-6.1787763E-3,4.8179096E-3,-3.1963296E-2,2.6221223E0,-1.4590563E-1,-1.6208754E0,1.9082109E-2,-6.7065316E-3,3.9664406E-2,-2.1255909E-2,-3.74643E-3,1.7988825E-2,-2.6879284E-1,-1.5499418E-2],"categories":[],"categories_nodes":[],"categories_segments":[],"categories_sizes":[],"default_left":[0,0,0,0,0,0,0,0,0,0,0,0,0,0,0,0,0,0,0,0,0,0,0,0,0,0,0,0,0,0,0,0,0,0,0,0,0],"id":18,"left_children":[1,3,5,-1,7,9,11,-1,13,-1,15,17,19,-1,21,-1,23,25,27,29,-1,-1,-1,-1,-1,-1,31,33,35,-1,-1,-1,-1,-1,-1,-1,-1],"loss_changes":[7.5689404E2,1.7550842E2,3.22357E2,0E0,8.626709E1,2.6807278E2,2.6626706E2,0E0,2.4098392E1,0E0,8.125979E0,1.9559064E2,5.7448273E1,0E0,2.139773E0,0E0,7.970344E-1,6.400192E1,1.6988148E2,3.4670596E0,0E0,0E0,0E0,0E0,0E0,0E0,5.0131195E1,1.7363206E2,7.052979E2,0E0,0E0,0E0,0E0,0E0,0E0,0E0,0E0],"parents":[2147483647,0,0,1,1,2,2,4,4,5,5,6,6,8,8,10,10,11,11,12,12,14,14,16,16,17,17,18,18,19,19,26,26,27,27,28,28],"right_children":[2,4,6,-1,8,10,12,-1,14,-1,16,18,20,-1,22,-1,24,26,28,30,-1,-1,-1,-1,-1,-1,32,34,36,-1,-1,-1,-1,-1,-1,-1,-1],"split_conditions":[-5.031245E-1,-3.2832514E-2,-1.55786E-1,1.7993976E-1,-1.0692136E0,1.0457872E-1,5.473423E-2,9.524733E-2,-2.4987184E-2,-1.8809776E-1,-8.1638224E-2,-5.1856227E-2,-8.8859916E-2,3.492251E-2,-6.690898E-3,-3.7676096E-2,-4.488486E-2,-4.7611192E-1,2.5760906E-2,-1.2257938E-1,9.514416E-2,-1.4568381E-3,-2.6888343E-2,-6.1787763E-3,4.8179096E-3,-3.1963296E-2,4.0637624E-2,6.532805E-2,9.036797E-1,1.9082109E-2,-6.7065316E-3,3.9664406E-2,-2.1255909E-2,-3.74643E-3,1.7988825E-2,-2.6879284E-1,-1.5499418E-2],"split_indices":[9,11,20,0,14,5,7,0,1,0,1,11,1,0,1,0,1,9,7,1,0,0,0,0,0,0,7,20,10,0,0,0,0,0,0,0,0],"split_type":[0,0,0,0,0,0,0,0,0,0,0,0,0,0,0,0,0,0,0,0,0,0,0,0,0,0,0,0,0,0,0,0,0,0,0,0,0],"sum_hessian":[9.92E2,1.1E1,9.81E2,3E0,8E0,6E0,9.75E2,4E0,4E0,2E0,4E0,9.68E2,7E0,2E0,2E0,1E0,3E0,3.1E1,9.37E2,2E0,5E0,1E0,1E0,2E0,1E0,2E0,2.9E1,8.52E2,8.5E1,1E0,1E0,2.7E1,2E0,7.82E2,7E1,1E0,8.4E1],"tree_param":{"num_deleted":"0","num_feature":"25","num_nodes":"37","size_leaf_vector":"1"}},{"base_weights":[2.1655766E-2,-5.881871E0,1.2783386E-1,-1.4701722E0,-1.3724957E1,3.1542357E-2,5.382362E0,5.537329E0,-4.4212646E0,-1.2263975E-3,-2.1868724E-1,-1.163468E0,1.9181016E-1,6.5059257E0,-2.0295775E0,1.2058048E-1,1.786546E-2,-2.2352314E0,-1.4578317E-1,-8.472744E-1,-1.2158615E1,1.146468E-2,1.4755422E0,7.887732E0,7.3402464E-1,-6.6619073E-3,-3.3851728E-2,-2.7448136E-1,-4.4671223E-2,-8.121594E0,-4.8940063E-1,-2.0245117E-1,-4.0254362E-2,-3.9278882E0,9.514574E-2,1.8734258E0,-4.1350985E0,4.01919E0,1.2402288E-1,3.293773E-2,-8.934207E-3,-8.06087E-3,4.7858516E-3,-1.3277751E-1,-4.645112E-3,2.1133961E-2,-1.3346978E-2,-2.6978193E-2,-7.732371E-2,4.5716755E-2,-3.651018E-4,8.1851594E-2,2.0174043E-2,-8.509574E-2,-1.1204692E-2,1.610392E-2,7.303997E-2],"categories":[],"categories_nodes":[],"categories_segments":[],"categories_sizes":[],"default_left":[0,0,0,0,0,0,0,0,0,0,0,0,0,0,0,0,0,0,0,0,0,0,0,0,0,0,0,0,0,0,0,0,0,0,0,0,0,0,0,0,0,0,0,0,0,0,0,0,0,0,0,0,0,0,0,0,0],"id":19,"left_children":[1,3,5,7,9,11,13,15,17,-1,-1,19,21,23,25,-1,-1,27,-1,29,31,33,35,37,39,-1,-1,41,-1,43,45,-1,-1,47,49,51,53,55,-1,-1,-1,-1,-1,-1,-1,-1,-1,-1,-1,-1,-1,-1,-1,-1,-1,-1,-1],"loss_changes":[6.03131E2,5.680446E2,4.7796848E2,2.7263943E2,2.2000195E2,1.781468E2,1.5477664E2,4.695961E1,1.0405559E2,0E0,0E0,3.7212378E2,1.8982562E2,1.1384491E2,1.0851059E0,0E0,0E0,1.6671322E1,0E0,2.7718042E2,3.7677216E1,2.3772116E2,2.3321735E2,2.9013855E1,1.1449031E1,0E0,0E0,1.0580251E0,0E0,6.864154E1,1.1254971E2,0E0,0E0,4.1891098E1,2.8916296E2,1.3592676E2,4.6698547E1,1.3995705E1,0E0,0E0,0E0,0E0,0E0,0E0,0E0,0E0,0E0,0E0,0E0,0E0,0E0,0E0,0E0,0E0,0E0,0E0,0E0],"parents":[2147483647,0,0,1,1,2,2,3,3,4,4,5,5,6,6,7,7,8,8,11,11,12,12,13,13,14,14,17,17,19,19,20,20,21,21,22,22,23,23,24,24,27,27,29,29,30,30,33,33,34,34,35,35,36,36,37,37],"right_children":[2,4,6,8,10,12,14,16,18,-1,-1,20,22,24,26,-1,-1,28,-1,30,32,34,36,38,40,-1,-1,42,-1,44,46,-1,-1,48,50,52,54,56,-1,-1,-1,-1,-1,-1,-1,-1,-1,-1,-1,-1,-1,-1,-1,-1,-1,-1,-1],"split_conditions":[-1.4349782E-1,8.5987884E-1,4.692114E-2,1.384906E-1,2.2823006E-2,-6.064123E-2,-3.5180157E-1,-1.8061297E-1,2.6112465E-2,-1.2263975E-3,-2.1868724E-1,1.17516285E-2,2.252112E-2,5.9133377E-2,-1.1010045E-1,1.2058048E-1,1.786546E-2,-8.14733E-2,-1.4578317E-1,-2.6474422E-2,-2.3447558E-2,-3.7755093E-1,1.6867162E-1,-7.282403E-2,-1.2128941E-3,-6.6619073E-3,-3.3851728E-2,-1.3264857E-1,-4.4671223E-2,-5.3013712E-2,-5.0983597E-2,-2.0245117E-1,-4.0254362E-2,-1.8152464E-2,-2.3090795E-1,-2.935855E-2,2.025025E-1,4.968585E-2,1.2402288E-1,3.293773E-2,-8.934207E-3,-8.06087E-3,4.7858516E-3,-1.3277751E-1,-4.645112E-3,2.1133961E-2,-1.3346978E-2,-2.6978193E-2,-7.732371E-2,4.5716755E-2,-3.651018E-4,8.1851594E-2,2.0174043E-2,-8.509574E-2,-1.1204692E-2,1.610392E-2,7.303997E-2],"split_indices":[22,14,8,5,8,22,9,2,3,0,0,4,8,4,2,0,0,11,0,3,2,9,6,22,2,0,0,2,0,2,11,0,0,22,9,4,6,8,0,0,0,0,0,0,0,0,0,0,0,0,0,0,0,0,0,0,0],"split_type":[0,0,0,0,0,0,0,0,0,0,0,0,0,0,0,0,0,0,0,0,0,0,0,0,0,0,0,0,0,0,0,0,0,0,0,0,0,0,0,0,0,0,0,0,0,0,0,0,0,0,0,0,0,0,0,0,0],"sum_hessian":[9.6E2,1.6E1,9.44E2,1.1E1,5E0,9.28E2,1.6E1,3E0,8E0,1E0,4E0,1.09E2,8.19E2,1.4E1,2E0,1E0,2E0,7E0,1E0,1.07E2,2E0,7.19E2,1E2,1.1E1,3E0,1E0,1E0,3E0,4E0,4E0,1.03E2,1E0,1E0,1.4E1,7.05E2,9.4E1,6E0,4E0,7E0,1E0,2E0,2E0,1E0,3E0,1E0,2E1,8.3E1,8E0,6E0,2.4E1,6.81E2,6E0,8.8E1,3E0,3E0,2E0,2E0],"tree_param":{"num_deleted":"0","num_feature":"25","num_nodes":"57","size_leaf_vector":"1"}},{"base_weights":[-2.8568923E-2,-2.2763878E-1,3.942836E-2,7.462597E0,-2.7620735E-2,3.226164E0,1.5904875E-1,-8.410678E0,1.4617842E-2,5.890058E-2,-1.8452588E-2,-1.7601193E-1,-7.915132E-1,-2.0105426E-1,1.0825592E0,-3.035587E-3,-1.2764291E-2,-4.609388E0,-1.0839985E-1,1.681349E0,-1.3998402E0,-1.1832047E-1,-1.9504165E-2,-2.42506E-3,4.197687E-2,-1.22200735E-2,3.1954918E-2,-3.0253811E-3,-5.9901435E-2],"categories":[],"categories_nodes":[],"categories_segments":[],"categories_sizes":[],"default_left":[0,0,0,0,0,0,0,0,0,0,0,0,0,0,0,0,0,0,0,0,0,0,0,0,0,0,0,0,0],"id":20,"left_children":[1,-1,3,5,7,9,-1,11,13,-1,-1,-1,15,17,19,-1,-1,21,23,25,27,-1,-1,-1,-1,-1,-1,-1,-1],"loss_changes":[1.1711655E3,0E0,5.0041147E2,1.325983E2,3.5314908E2,3.9345654E1,0E0,1.7298566E2,2.2893054E2,0E0,0E0,0E0,6.457317E-2,3.372898E2,2.5058836E2,0E0,0E0,2.1580072E2,1.9593231E2,2.5484528E2,1.1897793E2,0E0,0E0,0E0,0E0,0E0,0E0,0E0,0E0],"parents":[2147483647,0,0,2,2,3,3,4,4,5,5,7,7,8,8,12,12,13,13,14,14,17,17,18,18,19,19,20,20],"right_children":[2,-1,4,6,8,10,-1,12,14,-1,-1,-1,16,18,20,-1,-1,22,24,26,28,-1,-1,-1,-1,-1,-1,-1,-1],"split_conditions":[-1.8462811E-1,-2.2763878E-1,-1.5461847E-1,1.5349026E-1,-1.6928768E-1,1.2117423E-1,1.5904875E-1,-3.2845918E-2,8.849211E-2,5.890058E-2,-1.8452588E-2,-1.7601193E-1,-1.3264857E-1,-3.735985E-2,1.336042E-2,-3.035587E-3,-1.2764291E-2,-1.6956894E-2,2.1307519E-2,1.1687003E0,9.8681554E-2,-1.1832047E-1,-1.9504165E-2,-2.42506E-3,4.197687E-2,-1.22200735E-2,3.1954918E-2,-3.0253811E-3,-5.9901435E-2],"split_indices":[20,0,18,6,22,6,0,3,6,0,0,0,2,12,15,0,0,15,15,10,18,0,0,0,0,0,0,0,0],"split_type":[0,0,0,0,0,0,0,0,0,0,0,0,0,0,0,0,0,0,0,0,0,0,0,0,0,0,0,0,0],"sum_hessian":[1.007E3,3E0,1.004E3,8E0,9.96E2,5E0,3E0,4E0,9.92E2,4E0,1E0,2E0,2E0,8.26E2,1.66E2,1E0,1E0,1.6E1,8.1E2,1.34E2,3.2E1,6E0,1E1,7.93E2,1.7E1,2.9E1,1.05E2,2.4E1,8E0],"tree_param":{"num_deleted":"0","num_feature":"25","num_nodes":"29","size_leaf_vector":"1"}},{"base_weights":[-3.57955E-2,-8.28948E0,8.3736435E-2,-3.2927594E0,-1.2815806E1,5.971014E0,-3.422143E-2,-7.087141E-4,-5.267848E0,-1.9563873E-1,-1.0006736E-2,1.3635695E-1,3.2095532E0,3.9126718E0,-7.617325E-2,-1.25051215E-2,1.873882E-2,-8.527169E-2,-3.1566907E-2,1.5331303E-2,5.9452677E0,5.2395266E-2,4.8711915E0,-1.16628386E-1,3.697817E0,-2.7517805E0,3.6977023E-2,9.3959585E-2,-4.965488E-3,-6.830204E-3,7.876097E-3,5.2594876E0,1.4326573E-2,-1.3646688E0,-2.5021725E-3,8.660925E-2,-2.1447835E0,-8.114787E-3,-4.3416783E-2,7.493505E-2,2.0166479E-2,-1.6799268E-1,-9.927475E-3,3.6959443E-2,-1.1934649E-3,3.1800587E-2,-5.9256684E-2],"categories":[],"categories_nodes":[],"categories_segments":[],"categories_sizes":[],"default_left":[0,0,0,0,0,0,0,0,0,0,0,0,0,0,0,0,0,0,0,0,0,0,0,0,0,0,0,0,0,0,0,0,0,0,0,0,0,0,0,0,0,0,0,0,0,0,0],"id":21,"left_children":[1,3,5,7,9,11,13,15,17,-1,-1,-1,19,21,23,-1,-1,-1,-1,25,27,29,31,33,35,37,-1,-1,-1,-1,-1,39,-1,41,43,-1,45,-1,-1,-1,-1,-1,-1,-1,-1,-1,-1],"loss_changes":[9.675414E2,2.7443573E2,6.7173816E2,5.2013016E1,1.4815503E2,1.9143549E2,1.5743285E2,6.6146097E0,1.3039551E0,0E0,0E0,0E0,1.1350908E2,3.6746292E1,1.4394792E2,0E0,0E0,0E0,0E0,6.1170242E1,5.19608E1,1.2191733E0,6.1253815E0,1.3260275E2,1.781573E2,2.3866081E0,0E0,0E0,0E0,0E0,0E0,1.2021179E0,0E0,5.3390625E2,2.0720892E2,0E0,5.2502525E1,0E0,0E0,0E0,0E0,0E0,0E0,0E0,0E0,0E0,0E0],"parents":[2147483647,0,0,1,1,2,2,3,3,4,4,5,5,6,6,7,7,8,8,12,12,13,13,14,14,19,19,20,20,21,21,22,22,23,23,24,24,25,25,31,31,33,33,34,34,36,36],"right_children":[2,4,6,8,10,12,14,16,18,-1,-1,-1,20,22,24,-1,-1,-1,-1,26,28,30,32,34,36,38,-1,-1,-1,-1,-1,40,-1,42,44,-1,46,-1,-1,-1,-1,-1,-1,-1,-1,-1,-1],"split_conditions":[-1.5140188E-1,2.5206918E-2,-4.8027954E-1,1.9290519E-1,-6.7627676E-2,-5.930269E-2,-6.7627676E-2,-8.1638224E-2,-6.7627676E-2,-1.9563873E-1,-1.0006736E-2,1.3635695E-1,-1.1371687E-3,-4.5673866E-2,4.692114E-2,-1.25051215E-2,1.873882E-2,-8.527169E-2,-3.1566907E-2,6.7388774E-3,2.1107938E-2,-8.8859916E-2,1.5800582E-1,-2.6463994E-1,4.1075447E-3,-4.96956E-2,3.6977023E-2,9.3959585E-2,-4.965488E-3,-6.830204E-3,7.876097E-3,-9.990159E-3,1.4326573E-2,-1.5535806E0,-2.3090795E-1,8.660925E-2,-7.2419737E-3,-8.114787E-3,-4.3416783E-2,7.493505E-2,2.0166479E-2,-1.6799268E-1,-9.927475E-3,3.6959443E-2,-1.1934649E-3,3.1800587E-2,-5.9256684E-2],"split_indices":[22,8,9,5,1,17,1,1,1,0,0,0,16,12,8,0,0,0,0,15,2,1,5,9,16,2,0,0,0,0,0,3,0,21,9,0,1,0,0,0,0,0,0,0,0,0,0],"split_type":[0,0,0,0,0,0,0,0,0,0,0,0,0,0,0,0,0,0,0,0,0,0,0,0,0,0,0,0,0,0,0,0,0,0,0,0,0,0,0,0,0,0,0,0,0,0,0],"sum_hessian":[9.79E2,1.3E1,9.66E2,7E0,6E0,1.8E1,9.48E2,3E0,4E0,5E0,1E0,6E0,1.2E1,9E0,9.39E2,2E0,1E0,2E0,2E0,6E0,6E0,2E0,7E0,9.3E2,9E0,3E0,3E0,5E0,1E0,1E0,1E0,6E0,1E0,7.7E1,8.53E2,6E0,3E0,1E0,2E0,5E0,1E0,3E0,7.4E1,2.5E1,8.28E2,1E0,2E0],"tree_param":{"num_deleted":"0","num_feature":"25","num_nodes":"47","size_leaf_vector":"1"}},{"base_weights":[-1.041756E-1,-5.7494717E0,-1.2369591E-2,-2.1416026E-1,-2.3799995E-1,8.067975E0,-7.845383E-2,-3.6297235E0,1.3276634E0,3.6195364E-2,1.2505765E-1,-6.4534903E0,-3.9061565E-2,-1.2596152E-2,-5.600712E-2,-1.7890324E-1,3.4183558E-2,-1.085789E-1,1.3803129E-2,3.9364352E0,-1.0541739E-1,4.7188825E-3,-8.686879E-3,7.828856E0,8.1809694E-1,3.1645133E0,-1.6431698E-1,1.18407585E-1,4.5750923E-2,3.3870187E-2,-1.887018E-2,2.06631E-2,7.799261E-2,-2.1693174E-2,-3.5117468E-4],"categories":[],"categories_nodes":[],"categories_segments":[],"categories_sizes":[],"default_left":[0,0,0,0,0,0,0,0,0,0,0,0,0,0,0,0,0,0,0,0,0,0,0,0,0,0,0,0,0,0,0,0,0,0,0],"id":22,"left_children":[1,3,5,7,-1,9,11,13,15,-1,-1,17,19,-1,-1,21,-1,-1,-1,23,25,-1,-1,27,29,31,33,-1,-1,-1,-1,-1,-1,-1,-1],"loss_changes":[5.18201E2,1.070893E3,5.266066E2,6.8013405E1,0E0,3.1317993E1,2.4535025E2,2.229519E0,1.7286852E1,0E0,0E0,8.511928E1,2.570898E2,0E0,0E0,1.4955065E0,0E0,0E0,0E0,1.8780139E2,1.8502843E2,0E0,0E0,2.2615662E0,4.2227295E1,6.477704E1,1.9040602E2,0E0,0E0,0E0,0E0,0E0,0E0,0E0,0E0],"parents":[2147483647,0,0,1,1,2,2,3,3,5,5,6,6,7,7,8,8,11,11,12,12,15,15,19,19,20,20,23,23,24,24,25,25,26,26],"right_children":[2,4,6,8,-1,10,12,14,16,-1,-1,18,20,-1,-1,22,-1,-1,-1,24,26,-1,-1,28,30,32,34,-1,-1,-1,-1,-1,-1,-1,-1],"split_conditions":[-2.5858574E0,2.6452765E-2,-1.5461847E-1,-5.1915742E-2,-2.3799995E-1,1.2117423E-1,-7.932848E-2,1.9927062E-2,-6.2379673E-2,3.6195364E-2,1.2505765E-1,-4.1105404E-2,-4.8027954E-1,-1.2596152E-2,-5.600712E-2,-1.4905815E-2,3.4183558E-2,-1.085789E-1,1.3803129E-2,-8.9561516E-1,-5.1526524E-2,4.7188825E-3,-8.686879E-3,5.2978586E-2,-4.6692565E-2,5.858654E-3,-2.6463994E-1,1.18407585E-1,4.5750923E-2,3.3870187E-2,-1.887018E-2,2.06631E-2,7.799261E-2,-2.1693174E-2,-3.5117468E-4],"split_indices":[21,7,18,4,0,6,12,7,18,0,0,4,9,0,0,0,0,0,0,14,12,0,0,4,18,3,9,0,0,0,0,0,0,0,0],"split_type":[0,0,0,0,0,0,0,0,0,0,0,0,0,0,0,0,0,0,0,0,0,0,0,0,0,0,0,0,0,0,0,0,0,0,0],"sum_hessian":[9.99E2,1.5E1,9.84E2,1.1E1,4E0,7E0,9.77E2,3E0,8E0,2E0,5E0,5E0,9.72E2,1E0,2E0,4E0,4E0,4E0,1E0,1.5E1,9.57E2,2E0,2E0,6E0,9E0,1.6E1,9.41E2,4E0,2E0,5E0,4E0,1.1E1,5E0,8E1,8.61E2],"tree_param":{"num_deleted":"0","num_feature":"25","num_nodes":"35","size_leaf_vector":"1"}},{"base_weights":[-1.9791289E-1,-1.2357925E1,-1.2016795E-1,1.05855E-2,-2.0158148E-1,6.9793544E0,-1.8084891E-1,2.5996588E-2,9.872033E-2,-1.2170541E0,1.2509649E-1,-3.033008E-1,-8.003205E-1,-2.7113382E-2,2.4156117E0,3.4274584E-1,-1.5650849E0,-2.0166662E0,7.4562095E-2,6.3896017E0,9.419798E-1,3.217732E-2,-1.3374671E-3,-1.6069517E-2,-7.441623E-2,-3.7204895E-2,2.6017852E-2,3.55732E-2,-6.907627E-4,9.1988966E-2,4.247645E-3,2.5171427E-2,-3.1677168E-2],"categories":[],"categories_nodes":[],"categories_segments":[],"categories_sizes":[],"default_left":[0,0,0,0,0,0,0,0,0,0,0,0,0,0,0,0,0,0,0,0,0,0,0,0,0,0,0,0,0,0,0,0,0],"id":23,"left_children":[1,3,5,-1,-1,7,9,-1,-1,11,13,-1,15,17,19,21,23,25,27,29,31,-1,-1,-1,-1,-1,-1,-1,-1,-1,-1,-1,-1],"loss_changes":[8.92844E2,2.3221747E2,4.0665045E2,0E0,0E0,3.1556702E0,2.96251E2,0E0,0E0,1.8967825E3,2.5178287E2,0E0,1.841135E2,1.3730212E2,2.5751E2,7.842835E1,1.746648E2,1.0757672E2,2.1243823E2,3.587982E1,1.117583E2,0E0,0E0,0E0,0E0,0E0,0E0,0E0,0E0,0E0,0E0,0E0,0E0],"parents":[2147483647,0,0,1,1,2,2,5,5,6,6,9,9,10,10,12,12,13,13,14,14,15,15,16,16,17,17,18,18,19,19,20,20],"right_children":[2,4,6,-1,-1,8,10,-1,-1,12,14,-1,16,18,20,22,24,26,28,30,32,-1,-1,-1,-1,-1,-1,-1,-1,-1,-1,-1,-1],"split_conditions":[-1.2257938E-1,2.428255E-1,-5.031245E-1,1.05855E-2,-2.0158148E-1,-5.3700175E-2,-3.889548E-2,2.5996588E-2,9.872033E-2,-1.6490556E-2,2.8061872E-2,-3.033008E-1,-4.0970244E-2,-3.4068188E-1,1.3783542E-2,-9.7564214E-1,-4.044582E-2,2.5944285E-2,-2.0361918E-1,3.940764E-2,5.077945E-3,3.217732E-2,-1.3374671E-3,-1.6069517E-2,-7.441623E-2,-3.7204895E-2,2.6017852E-2,3.55732E-2,-6.907627E-4,9.1988966E-2,4.247645E-3,2.5171427E-2,-3.1677168E-2],"split_indices":[1,6,9,0,0,0,22,0,0,16,8,0,18,9,2,14,22,8,9,8,16,0,0,0,0,0,0,0,0,0,0,0,0],"split_type":[0,0,0,0,0,0,0,0,0,0,0,0,0,0,0,0,0,0,0,0,0,0,0,0,0,0,0,0,0,0,0,0,0],"sum_hessian":[9.45E2,5E0,9.4E2,1E0,4E0,7E0,9.33E2,1E0,6E0,2.12E2,7.21E2,3E0,2.09E2,6.77E2,4.4E1,8.4E1,1.25E2,3.2E1,6.45E2,1.1E1,3.3E1,1.4E1,7E1,1.16E2,9E0,2.7E1,5E0,2.9E1,6.16E2,1E1,1E0,2.6E1,7E0],"tree_param":{"num_deleted":"0","num_feature":"25","num_nodes":"33","size_leaf_vector":"1"}},{"base_weights":[6.1410066E-2,-8.535645E0,1.6389838E-1,-2.8532702E-1,-2.2275037E-1,5.8525175E-2,5.355871E0,1.2980132E0,-1.7973354E0,-4.833656E0,9.337404E-2,7.222594E0,1.652964E0,4.688883E-3,2.751392E-2,-8.597944E-3,-3.494003E-2,-1.07417025E-1,2.8936625E-2,3.5206301E0,3.2900754E-2,-6.507257E-1,8.7132635E0,-4.9338672E-1,5.2201755E-2,4.544394E0,-9.427011E-1,1.1076082E-1,-3.6515255E0,-1.5603909E-3,-1.1429142E-2,1.4361249E-1,4.0608664E0,1.3375636E-2,-1.1192844E0,2.4161432E-2,7.258514E-2,3.9058842E-4,-2.5676325E-2,3.852861E-4,4.3281768E-2,-3.0974185E-1,-2.3691952E-3,4.4579213E-3,6.532223E-2,-4.5961128E-3,-1.679612E-2],"categories":[],"categories_nodes":[],"categories_segments":[],"categories_sizes":[],"default_left":[0,0,0,0,0,0,0,0,0,0,0,0,0,0,0,0,0,0,0,0,0,0,0,0,0,0,0,0,0,0,0,0,0,0,0,0,0,0,0,0,0,0,0,0,0,0,0],"id":24,"left_children":[1,3,5,7,-1,9,11,13,15,17,19,21,23,-1,-1,-1,-1,-1,-1,25,27,29,31,33,-1,35,37,39,41,-1,-1,-1,43,-1,45,-1,-1,-1,-1,-1,-1,-1,-1,-1,-1,-1,-1],"loss_changes":[8.9747534E2,8.073288E2,5.5006396E2,1.909113E1,0E0,1.68722E2,1.2630737E2,2.1822991E0,2.1175632E0,1.7640211E2,2.0320374E2,1.5824463E2,4.090792E1,0E0,0E0,0E0,0E0,0E0,0E0,8.1963776E1,2.772337E2,2.3235762E-1,6.2540894E1,5.8144984E0,0E0,2.4860565E1,3.8932266E0,2.4303893E2,1.3591189E3,0E0,0E0,0E0,1.4148254E1,0E0,6.300926E-3,0E0,0E0,0E0,0E0,0E0,0E0,0E0,0E0,0E0,0E0,0E0,0E0],"parents":[2147483647,0,0,1,1,2,2,3,3,5,5,6,6,7,7,8,8,9,9,10,10,11,11,12,12,19,19,20,20,21,21,22,22,23,23,25,25,26,26,27,27,28,28,32,32,34,34],"right_children":[2,4,6,8,-1,10,12,14,16,18,20,22,24,-1,-1,-1,-1,-1,-1,26,28,30,32,34,-1,36,38,40,42,-1,-1,-1,44,-1,46,-1,-1,-1,-1,-1,-1,-1,-1,-1,-1,-1,-1],"split_conditions":[-2.5858574E0,2.0978611E-2,4.3247934E-2,-6.5998873E-3,-2.2275037E-1,-6.6564254E-2,5.0268784E-2,-1.4905815E-2,-4.216459E-3,-6.3448705E-2,-6.3448705E-2,-4.7851026E-2,8.357188E-1,4.688883E-3,2.751392E-2,-8.597944E-3,-3.494003E-2,-1.07417025E-1,2.8936625E-2,-2.4453225E-2,3.3196133E-2,3.0725582E-3,1.8642593E-2,-1.8142657E-2,5.2201755E-2,-1.6473464E0,-1.0942601E-2,2.8061872E-2,-1.5228408E-2,-1.5603909E-3,-1.1429142E-2,1.4361249E-1,4.968585E-2,1.3375636E-2,6.6486426E-2,2.4161432E-2,7.258514E-2,3.9058842E-4,-2.5676325E-2,3.852861E-4,4.3281768E-2,-3.0974185E-1,-2.3691952E-3,4.4579213E-3,6.532223E-2,-4.5961128E-3,-1.679612E-2],"split_indices":[21,7,8,0,0,12,11,0,0,1,1,12,21,0,0,0,0,0,0,0,7,0,12,1,0,21,0,8,16,0,0,0,8,0,1,0,0,0,0,0,0,0,0,0,0,0,0],"split_type":[0,0,0,0,0,0,0,0,0,0,0,0,0,0,0,0,0,0,0,0,0,0,0,0,0,0,0,0,0,0,0,0,0,0,0,0,0,0,0,0,0,0,0,0,0,0,0],"sum_hessian":[1.016E3,1.1E1,1.005E3,6E0,5E0,9.86E2,1.9E1,3E0,3E0,6E0,9.8E2,1.2E1,7E0,2E0,1E0,2E0,1E0,4E0,2E0,1.6E1,9.64E2,2E0,1E1,4E0,3E0,1.3E1,3E0,9.45E2,1.9E1,1E0,1E0,6E0,4E0,1E0,3E0,4E0,9E0,2E0,1E0,9.22E2,2.3E1,2E0,1.7E1,1E0,3E0,1E0,2E0],"tree_param":{"num_deleted":"0","num_feature":"25","num_nodes":"47","size_leaf_vector":"1"}},{"base_weights":[-9.636238E-2,-1.138533E1,-1.7084694E-2,1.1105284E-2,-2.1878138E-1,-1.7963172E-1,2.9434755E0,-9.474267E-2,-9.016431E0,1.2514922E-1,2.0560696E0,-1.1780433E-1,-4.7809396E-2,-3.0699384E-1,-1.7059172E0,7.4453897E0,1.3815888E0,-1.066273E-1,4.485153E0,4.3658726E-2,-3.0838041E0,1.1469611E-1,1.8311087E-2,-5.3914423E0,2.214501E0,-1.8623276E-2,1.2278232E-4,8.904164E-2,7.827825E-4,-7.2070817E-3,-5.6152385E-2,-9.732324E-2,-2.2256617E-2,4.0571507E-2,-2.7075678E-2],"categories":[],"categories_nodes":[],"categories_segments":[],"categories_sizes":[],"default_left":[0,0,0,0,0,0,0,0,0,0,0,0,0,0,0,0,0,0,0,0,0,0,0,0,0,0,0,0,0,0,0,0,0,0,0],"id":25,"left_children":[1,3,5,-1,-1,7,9,11,13,-1,15,-1,17,-1,19,21,23,25,27,-1,29,-1,-1,31,33,-1,-1,-1,-1,-1,-1,-1,-1,-1,-1],"loss_changes":[8.9834863E2,4.4610333E2,4.8079657E2,0E0,0E0,7.095356E2,2.7879697E2,3.8552612E2,8.8521814E2,0E0,1.6055818E2,0E0,2.4976736E2,0E0,5.8214016E1,2.3748901E1,2.545169E2,1.384061E2,1.1677037E2,0E0,1.5038483E1,0E0,0E0,2.3505295E1,1.4444405E2,0E0,0E0,0E0,0E0,0E0,0E0,0E0,0E0,0E0,0E0],"parents":[2147483647,0,0,1,1,2,2,5,5,6,6,7,7,8,8,10,10,12,12,14,14,15,15,16,16,17,17,18,18,20,20,23,23,24,24],"right_children":[2,4,6,-1,-1,8,10,12,14,-1,16,-1,18,-1,20,22,24,26,28,-1,30,-1,-1,32,34,-1,-1,-1,-1,-1,-1,-1,-1,-1,-1],"split_conditions":[-1.8462811E-1,1.8578997E-1,3.4050383E-2,1.1105284E-2,-2.1878138E-1,3.1021668E-2,-1.41079975E-2,-3.41593E-2,9.609232E-1,1.2514922E-1,1.4385432E-1,-1.1780433E-1,2.8061872E-2,-3.0699384E-1,6.5986164E-2,-6.7627676E-2,-3.463798E-2,-1.0143147E-2,3.4400493E-2,4.3658726E-2,-6.4382376E-3,1.1469611E-1,1.8311087E-2,-4.88827E-2,3.2849737E-2,-1.8623276E-2,1.2278232E-4,8.904164E-2,7.827825E-4,-7.2070817E-3,-5.6152385E-2,-9.732324E-2,-2.2256617E-2,4.0571507E-2,-2.7075678E-2],"split_indices":[20,5,8,0,0,8,16,15,10,0,5,0,8,0,6,1,0,15,0,0,1,0,0,0,12,0,0,0,0,0,0,0,0,0,0],"split_type":[0,0,0,0,0,0,0,0,0,0,0,0,0,0,0,0,0,0,0,0,0,0,0,0,0,0,0,0,0,0,0,0,0,0,0],"sum_hessian":[1.003E3,6E0,9.97E2,2E0,4E0,9.46E2,5.1E1,9.38E2,8E0,5E0,4.6E1,4E0,9.34E2,2E0,6E0,4E0,4.2E1,9.23E2,1.1E1,1E0,5E0,3E0,1E0,4E0,3.8E1,7.5E1,8.48E2,7E0,4E0,2E0,3E0,2E0,2E0,3.2E1,6E0],"tree_param":{"num_deleted":"0","num_feature":"25","num_nodes":"35","size_leaf_vector":"1"}},{"base_weights":[-7.77983E-3,-4.5779796E0,9.94879E-2,-1.2820485E0,-2.1541135E-1,7.6686835E0,-2.2672957E-3,-4.0762315E0,6.875777E-1,1.3734823E-1,3.9209118E0,-1.1797978E-1,2.5517263E0,-9.4459844E-1,-7.6736316E-2,1.606371E0,-1.5516015E0,5.649673E-2,1.3134478E-2,-6.881509E-2,-7.65329E0,-1.3688828E0,3.987068E0,4.872439E-3,-2.000892E-2,2.9235583E-2,3.1900638E-1,2.221587E-3,-2.9012136E-2,-9.966535E-2,5.609055E0,-1.6540491E1,9.2543435E-1,5.050299E-1,-6.977203E-2,6.462647E0,2.302367E0,6.6486113E-3,1.2279314E-3,-1.0100598E-3,-9.744914E-2,8.7826975E-2,1.0955661E-2,-2.607902E-1,-6.9384634E-2,-1.0517193E-2,4.0406667E-2,4.3498065E-2,-1.8917501E-2,9.272285E-2,3.4936722E-2,6.1846E-3,5.9841204E-2],"categories":[],"categories_nodes":[],"categories_segments":[],"categories_sizes":[],"default_left":[0,0,0,0,0,0,0,0,0,0,0,0,0,0,0,0,0,0,0,0,0,0,0,0,0,0,0,0,0,0,0,0,0,0,0,0,0,0,0,0,0,0,0,0,0,0,0,0,0,0,0,0,0],"id":26,"left_children":[1,3,5,7,-1,9,11,13,15,-1,17,19,21,23,-1,25,27,-1,-1,29,31,33,35,-1,-1,-1,37,-1,-1,39,41,43,45,47,-1,49,51,-1,-1,-1,-1,-1,-1,-1,-1,-1,-1,-1,-1,-1,-1,-1,-1],"loss_changes":[4.9167093E2,8.5927997E2,7.5481836E2,1.0736916E2,0E0,8.8752625E1,2.863731E2,3.6894363E1,2.7180565E1,0E0,2.474121E0,3.4290005E2,2.4180911E2,3.4810796E0,0E0,6.1410484E0,4.684311E0,0E0,0E0,1.6206E2,4.727523E2,8.976417E1,1.14409515E2,0E0,0E0,0E0,1.17691964E-1,0E0,0E0,1.570259E2,1.8271713E1,1.680542E0,1.6886618E1,5.2564926E1,0E0,4.9596863E0,7.855844E1,0E0,0E0,0E0,0E0,0E0,0E0,0E0,0E0,0E0,0E0,0E0,0E0,0E0,0E0,0E0,0E0],"parents":[2147483647,0,0,1,1,2,2,3,3,5,5,6,6,7,7,8,8,10,10,11,11,12,12,13,13,15,15,16,16,19,19,20,20,21,21,22,22,26,26,29,29,30,30,31,31,32,32,33,33,35,35,36,36],"right_children":[2,4,6,8,-1,10,12,14,16,-1,18,20,22,24,-1,26,28,-1,-1,30,32,34,36,-1,-1,-1,38,-1,-1,40,42,44,46,48,-1,50,52,-1,-1,-1,-1,-1,-1,-1,-1,-1,-1,-1,-1,-1,-1,-1,-1],"split_conditions":[-2.2233388E0,2.6452765E-2,-1.3291702E-1,-4.2964026E-2,-2.1541135E-1,-4.599702E-1,3.49407E-2,-1.771979E-2,2.2966941E-4,1.3734823E-1,1.592234E-2,3.3196133E-2,-2.4482101E-2,-2.6473647E-2,-7.6736316E-2,-1.11311406E-1,-1.4905815E-2,5.649673E-2,1.3134478E-2,6.149213E-2,1.793084E0,3.9984873E-3,1.5472356E-2,4.872439E-3,-2.000892E-2,2.9235583E-2,-2.419223E-3,2.221587E-3,-2.9012136E-2,1.9708039E-1,1.9989787E-2,-3.586722E-2,-2.5989197E-2,-3.5180157E-1,-6.977203E-2,1.0127459E-2,4.968585E-2,6.6486113E-3,1.2279314E-3,-1.0100598E-3,-9.744914E-2,8.7826975E-2,1.0955661E-2,-2.607902E-1,-6.9384634E-2,-1.0517193E-2,4.0406667E-2,4.3498065E-2,-1.8917501E-2,9.272285E-2,3.4936722E-2,6.1846E-3,5.9841204E-2],"split_indices":[23,7,18,12,0,9,7,11,15,0,3,7,11,0,0,9,0,0,0,12,10,16,18,0,0,0,0,0,0,22,0,0,0,9,0,16,8,0,0,0,0,0,0,0,0,0,0,0,0,0,0,0,0],"split_type":[0,0,0,0,0,0,0,0,0,0,0,0,0,0,0,0,0,0,0,0,0,0,0,0,0,0,0,0,0,0,0,0,0,0,0,0,0,0,0,0,0,0,0,0,0,0,0,0,0,0,0,0,0],"sum_hessian":[1.001E3,2.2E1,9.79E2,1.8E1,4E0,1.2E1,9.67E2,7E0,1.1E1,6E0,6E0,9.26E2,4.1E1,3E0,4E0,8E0,3E0,5E0,1E0,9.21E2,5E0,1.1E1,3E1,1E0,2E0,5E0,3E0,1E0,2E0,9.17E2,4E0,2E0,3E0,8E0,3E0,1.1E1,1.9E1,1E0,2E0,9.15E2,2E0,3E0,1E0,1E0,1E0,2E0,1E0,3E0,5E0,9E0,2E0,1.1E1,8E0],"tree_param":{"num_deleted":"0","num_feature":"25","num_nodes":"53","size_leaf_vector":"1"}},{"base_weights":[-6.375593E-2,-1.2326174E1,-1.4096244E-2,-2.2357959E-1,7.302379E-3,-1.9854371E-1,1.1745172E0,-9.074093E-2,-4.705553E0,-7.063841E0,1.4189703E0,-1.2236669E-1,8.695039E-2,-3.030295E-1,-1.4332389E0,-3.1262424E-2,-1.4111388E-1,1.6916457E0,-5.7362456E0,6.8777226E-2,-7.67212E-1,-2.957809E0,8.421998E-1,-2.6984358E0,2.0121465E0,-1.0614047E0,-1.13102555E-1,-4.7376958E-5,4.43065E-2,-1.7097764E-2,9.5559945E-3,-4.4431034E-2,5.665536E-3,-2.0170182E-2,3.406859E-2,1.5622392E-2,-6.428005E-2,4.2704837E-3,3.5836115E-2,-1.9981332E-2,-1.2060144E-3],"categories":[],"categories_nodes":[],"categories_segments":[],"categories_sizes":[],"default_left":[0,0,0,0,0,0,0,0,0,0,0,0,0,0,0,0,0,0,0,0,0,0,0,0,0,0,0,0,0,0,0,0,0,0,0,0,0,0,0,0,0],"id":27,"left_children":[1,3,5,-1,-1,7,9,11,13,15,17,19,-1,-1,21,-1,-1,23,25,27,29,31,33,35,37,39,-1,-1,-1,-1,-1,-1,-1,-1,-1,-1,-1,-1,-1,-1,-1],"loss_changes":[6.0390247E2,2.396565E2,2.1705832E2,0E0,0E0,4.1596207E2,2.7787115E2,1.763662E2,1.149675E3,4.18499E1,2.6334042E2,1.0297341E2,0E0,0E0,6.493426E1,0E0,0E0,1.8271469E2,5.5556427E1,1.5214362E2,1.477569E2,1.5599121E1,3.6284138E1,7.9967834E1,1.3498718E2,1.1455822E0,0E0,0E0,0E0,0E0,0E0,0E0,0E0,0E0,0E0,0E0,0E0,0E0,0E0,0E0,0E0],"parents":[2147483647,0,0,1,1,2,2,5,5,6,6,7,7,8,8,9,9,10,10,11,11,14,14,17,17,18,18,19,19,20,20,21,21,22,22,23,23,24,24,25,25],"right_children":[2,4,6,-1,-1,8,10,12,14,16,18,20,-1,-1,22,-1,-1,24,26,28,30,32,34,36,38,40,-1,-1,-1,-1,-1,-1,-1,-1,-1,-1,-1,-1,-1,-1,-1],"split_conditions":[-1.2486518E-1,-8.8859916E-2,9.679339E-2,-2.2357959E-1,7.302379E-3,3.0387146E-2,-2.762621E0,6.149213E-2,9.609232E-1,-8.1638224E-2,1.9879489E-1,2.7201056E0,8.695039E-2,-3.030295E-1,3.275863E-1,-3.1262424E-2,-1.4111388E-1,-2.1637025E0,8.345387E-2,2.6452765E-2,3.2643985E-2,4.7135916E-2,3.3196133E-2,-1.7147819E0,1.3026688E0,5.5656392E-2,-1.13102555E-1,-4.7376958E-5,4.43065E-2,-1.7097764E-2,9.5559945E-3,-4.4431034E-2,5.665536E-3,-2.0170182E-2,3.406859E-2,1.5622392E-2,-6.428005E-2,4.2704837E-3,3.5836115E-2,-1.9981332E-2,-1.2060144E-3],"split_indices":[11,1,6,0,0,7,21,12,10,1,20,10,0,0,24,0,0,24,1,7,20,1,7,21,10,1,0,0,0,0,0,0,0,0,0,0,0,0,0,0,0],"split_type":[0,0,0,0,0,0,0,0,0,0,0,0,0,0,0,0,0,0,0,0,0,0,0,0,0,0,0,0,0,0,0,0,0,0,0,0,0,0,0,0,0],"sum_hessian":[9.91E2,3E0,9.88E2,2E0,1E0,8.56E2,1.32E2,8.37E2,1.9E1,3E0,1.29E2,8.34E2,3E0,2E0,1.7E1,2E0,1E0,1.25E2,4E0,6.44E2,1.9E2,1E1,7E0,8E0,1.17E2,2E0,2E0,6.31E2,1.3E1,1.41E2,4.9E1,9E0,1E0,3E0,4E0,3E0,5E0,3.4E1,8.3E1,1E0,1E0],"tree_param":{"num_deleted":"0","num_feature":"25","num_nodes":"41","size_leaf_vector":"1"}},{"base_weights":[-8.85121E-2,-9.536785E0,5.0672263E-2,1.3661033E0,-1.4034551E1,-1.736311E-1,1.8215663E0,-1.2702256E-1,3.1989966E-2,-2.9938388E0,-2.4404523E-1,-4.9065967E0,-1.2253155E-1,-3.207599E0,2.2603636E0,2.2071202E-3,-4.742695E-3,5.4286426E-4,-5.3483546E-2,-6.911784E-1,-2.5703862E-1,-3.751836E-1,8.1495655E-1,1.41525E-1,-7.8717984E-2,2.9977863E0,-1.4729568E0,4.377118E-2,-2.5661473E0,-2.365101E0,-2.7998123E-1,-2.3584185E0,1.0792735E0,1.1008854E0,-8.650103E-1,1.278618E-1,2.450869E0,-2.4328238E-1,-1.4071436E-1,-7.523569E-3,-4.5581754E-2,-1.38082635E-2,-6.0732655E-2,-6.057292E-3,1.5665578E-2,5.1383497E-3,-4.1813314E-2,9.739817E-3,4.248044E-2,1.8165307E-2,3.8101373E-3,-1.4364724E-2,-2.9022743E-3,3.6114745E-2,-4.114864E-2,-5.1921077E-2,2.3611441E-2],"categories":[],"categories_nodes":[],"categories_segments":[],"categories_sizes":[],"default_left":[0,0,0,0,0,0,0,0,0,0,0,0,0,0,0,0,0,0,0,0,0,0,0,0,0,0,0,0,0,0,0,0,0,0,0,0,0,0,0,0,0,0,0,0,0,0,0,0,0,0,0,0,0,0,0,0,0],"id":28,"left_children":[1,3,5,7,9,11,13,15,-1,17,-1,19,21,23,25,-1,-1,-1,-1,27,-1,29,31,33,-1,35,37,-1,39,41,43,45,47,49,51,-1,53,55,-1,-1,-1,-1,-1,-1,-1,-1,-1,-1,-1,-1,-1,-1,-1,-1,-1,-1,-1],"loss_changes":[1.2681932E3,7.057134E2,3.7807013E2,8.052863E0,4.2029407E2,2.0376407E2,2.4337619E2,2.606321E-1,0E0,1.2607655E1,0E0,5.332859E2,1.9855617E2,8.2450066E1,2.769661E2,0E0,0E0,0E0,0E0,6.814441E1,0E0,1.2437144E2,1.5184763E2,5.7804275E0,0E0,2.7652026E2,1.8767735E2,0E0,8.37635E0,8.282353E1,1.6161678E2,3.1322273E1,1.1877031E2,2.5465012E-1,1.8071938E-1,0E0,1.2207608E2,1.2501463E2,0E0,0E0,0E0,0E0,0E0,0E0,0E0,0E0,0E0,0E0,0E0,0E0,0E0,0E0,0E0,0E0,0E0,0E0,0E0],"parents":[2147483647,0,0,1,1,2,2,3,3,4,4,5,5,6,6,7,7,9,9,11,11,12,12,13,13,14,14,19,19,21,21,22,22,23,23,25,25,26,26,28,28,29,29,30,30,31,31,32,32,33,33,34,34,36,36,37,37],"right_children":[2,4,6,8,10,12,14,16,-1,18,-1,20,22,24,26,-1,-1,-1,-1,28,-1,30,32,34,-1,36,38,-1,40,42,44,46,48,50,52,-1,54,56,-1,-1,-1,-1,-1,-1,-1,-1,-1,-1,-1,-1,-1,-1,-1,-1,-1,-1,-1],"split_conditions":[-2.5858574E0,7.7825926E-2,1.085365E-1,6.2412113E-2,-3.2743535E0,-3.586722E-2,-2.1637025E0,-1.4905815E-2,3.1989966E-2,-4.88827E-2,-2.4404523E-1,2.0103794E-1,6.2666857E-3,1.3837574E-1,3.5649396E-2,2.2071202E-3,-4.742695E-3,5.4286426E-4,-5.3483546E-2,7.708103E-2,-2.5703862E-1,-1.4959594E-2,-1.483123E0,-2.5995309E-2,-7.8717984E-2,-3.41593E-2,2.7767405E-1,4.377118E-2,-3.7167057E-2,1.750418E-2,1.331724E0,-8.173199E-3,1.237451E-2,-4.88827E-2,-4.003132E-2,1.278618E-1,1.9879489E-1,-1.2032093E0,-1.4071436E-1,-7.523569E-3,-4.5581754E-2,-1.38082635E-2,-6.0732655E-2,-6.057292E-3,1.5665578E-2,5.1383497E-3,-4.1813314E-2,9.739817E-3,4.248044E-2,1.8165307E-2,3.8101373E-3,-1.4364724E-2,-2.9022743E-3,3.6114745E-2,-4.114864E-2,-5.1921077E-2,2.3611441E-2],"split_indices":[21,6,6,6,24,0,24,0,0,0,0,24,15,6,0,0,0,0,0,6,0,15,14,11,0,15,6,0,3,20,19,16,3,0,0,0,20,14,0,0,0,0,0,0,0,0,0,0,0,0,0,0,0,0,0,0,0],"split_type":[0,0,0,0,0,0,0,0,0,0,0,0,0,0,0,0,0,0,0,0,0,0,0,0,0,0,0,0,0,0,0,0,0,0,0,0,0,0,0,0,0,0,0,0,0,0,0,0,0,0,0,0,0,0,0,0,0],"sum_hessian":[9.63E2,1.3E1,9.5E2,4E0,9E0,8.44E2,1.06E2,2E0,2E0,3E0,6E0,8E0,8.36E2,8E0,9.8E1,1E0,1E0,1E0,2E0,7E0,1E0,6.59E2,1.77E2,4E0,4E0,8.2E1,1.6E1,2E0,5E0,2.9E1,6.3E2,1.3E1,1.64E2,2E0,2E0,5E0,7.7E1,1.5E1,1E0,2E0,3E0,1.9E1,1E1,5.63E2,6.7E1,3E0,1E1,1.42E2,2.2E1,1E0,1E0,1E0,1E0,7.4E1,3E0,5E0,1E1],"tree_param":{"num_deleted":"0","num_feature":"25","num_nodes":"57","size_leaf_vector":"1"}},{"base_weights":[-1.8659633E-2,-6.734971E0,8.543471E-2,-2.1840663E-1,-2.1922393E-1,5.9354305E0,-6.635909E-3,-1.9284383E0,3.764428E-2,-1.3977808E-1,7.8598924E0,-2.3041402E-1,1.2537161E0,-3.0981886E-1,-5.300905E-2,1.5340574E-1,1.0484127E0,-1.5620333E-1,-1.2161937E1,-9.526837E-2,1.4226178E0,1.36847E-1,-8.692772E-3,2.9290872E-2,-8.37895E-1,-1.8221231E-1,9.148991E-2,-2.9938933E-1,2.9642828E-2,1.0004138E0,4.684948E0,5.39252E-4,2.1924344E-3,-1.957458E-2,2.8488478E-3,-1.1491278E-3,-2.126274E-2,-7.965764E-4,3.240239E-2,8.633017E-2,3.4099523E-2],"categories":[],"categories_nodes":[],"categories_segments":[],"categories_sizes":[],"default_left":[0,0,0,0,0,0,0,0,0,0,0,0,0,0,0,0,0,0,0,0,0,0,0,0,0,0,0,0,0,0,0,0,0,0,0,0,0,0,0,0,0],"id":29,"left_children":[1,3,5,7,-1,9,11,13,-1,-1,15,17,19,21,-1,-1,23,25,27,-1,29,31,-1,-1,33,35,-1,-1,-1,37,39,-1,-1,-1,-1,-1,-1,-1,-1,-1,-1],"loss_changes":[6.8712103E2,9.483202E2,5.2141656E2,5.756242E1,0E0,5.570984E2,2.6935425E2,2.2048447E1,0E0,0E0,3.3766553E2,7.1619745E2,2.1479391E2,8.562995E-1,0E0,0E0,1.4889502E1,1.4883107E2,7.937184E2,0E0,1.9089948E2,1.3870597E-3,0E0,0E0,2.3126454E0,1.0909923E2,0E0,0E0,0E0,1.9329947E2,4.4584137E1,0E0,0E0,0E0,0E0,0E0,0E0,0E0,0E0,0E0,0E0],"parents":[2147483647,0,0,1,1,2,2,3,3,5,5,6,6,7,7,10,10,11,11,12,12,13,13,16,16,17,17,18,18,20,20,21,21,24,24,25,25,29,29,30,30],"right_children":[2,4,6,8,-1,10,12,14,-1,-1,16,18,20,22,-1,-1,24,26,28,-1,30,32,-1,-1,34,36,-1,-1,-1,38,40,-1,-1,-1,-1,-1,-1,-1,-1,-1,-1],"split_conditions":[-2.5858574E0,2.6452765E-2,-1.3291702E-1,-2.0208669E0,-2.1922393E-1,-1.6473464E0,9.182156E-2,1.6635245E-2,3.764428E-2,-1.3977808E-1,4.9486733E-3,3.2509938E-2,-7.932848E-2,-1.4905815E-2,-5.300905E-2,1.5340574E-1,-1.9665226E-1,6.149213E-2,-6.069288E-3,-9.526837E-2,4.5378127E0,-4.88827E-2,-8.692772E-3,2.9290872E-2,-3.1880373E-3,6.2086094E-2,9.148991E-2,-2.9938933E-1,2.9642828E-2,3.0722704E-3,4.0650338E-2,5.39252E-4,2.1924344E-3,-1.957458E-2,2.8488478E-3,-1.1491278E-3,-2.126274E-2,-7.965764E-4,3.240239E-2,8.633017E-2,3.4099523E-2],"split_indices":[21,7,18,23,0,21,6,7,0,0,1,7,12,0,0,0,18,12,2,0,10,0,0,0,0,18,0,0,0,16,1,0,0,0,0,0,0,0,0,0,0],"split_type":[0,0,0,0,0,0,0,0,0,0,0,0,0,0,0,0,0,0,0,0,0,0,0,0,0,0,0,0,0,0,0,0,0,0,0,0,0,0,0,0,0],"sum_hessian":[9.81E2,1.4E1,9.67E2,9E0,5E0,1.4E1,9.53E2,6E0,3E0,1E0,1.3E1,8.1E2,1.43E2,4E0,2E0,8E0,5E0,8.06E2,4E0,2E0,1.41E2,2E0,2E0,3E0,2E0,8.04E2,2E0,2E0,2E0,1.26E2,1.5E1,1E0,1E0,1E0,1E0,7.54E2,5E1,7.3E1,5.3E1,7E0,8E0],"tree_param":{"num_deleted":"0","num_feature":"25","num_nodes":"41","size_leaf_vector":"1"}},{"base_weights":[-7.15369E-2,-1.2236697E1,1.5430105E-2,-2.1165626E-1,-2.0443811E0,6.1363893E0,-8.6073294E-2,-3.8641594E-2,-2.1675425E-3,8.039663E0,-1.5833489E0,4.9180415E-2,-1.6247813E0,9.585125E0,2.1660929E0,-5.360959E-3,-2.4520421E-2,1.5675103E-2,7.935516E-2,-4.817372E0,-5.150085E-1,1.4166322E-1,4.7419257E-2,4.0337585E-2,-2.8547777E-3,4.5089833E-2,-4.2961955E0,-1.550774E0,-7.928892E0,-3.134339E0,1.505535E-1,-1.267867E-3,1.4685158E-2,-1.3575484E-2,-7.557736E-2,-3.3275846E-2,9.79912E-3,-1.833664E-1,-2.3054054E-2,-7.258394E-2,-9.289708E-3,-7.540818E-2,7.008562E-3],"categories":[],"categories_nodes":[],"categories_segments":[],"categories_sizes":[],"default_left":[0,0,0,0,0,0,0,0,0,0,0,0,0,0,0,0,0,0,0,0,0,0,0,0,0,0,0,0,0,0,0,0,0,0,0,0,0,0,0,0,0,0,0],"id":30,"left_children":[1,3,5,-1,7,9,11,-1,-1,13,15,17,19,21,23,-1,-1,25,-1,27,29,-1,-1,-1,-1,31,33,35,37,39,41,-1,-1,-1,-1,-1,-1,-1,-1,-1,-1,-1,-1],"loss_changes":[1.0433447E3,2.2918604E2,6.094003E2,0E0,4.377446E0,2.4781403E2,2.0091179E2,0E0,0E0,9.724365E1,4.817686E-1,1.758612E2,2.7387695E2,2.5902771E1,8.887583E0,0E0,0E0,1.1231365E2,0E0,1.9098578E2,1.0332816E2,0E0,0E0,0E0,0E0,1.3069118E2,2.1391571E1,2.5734451E1,3.38628E2,6.401618E1,1.0799808E2,0E0,0E0,0E0,0E0,0E0,0E0,0E0,0E0,0E0,0E0,0E0,0E0],"parents":[2147483647,0,0,1,1,2,2,4,4,5,5,6,6,9,9,10,10,11,11,12,12,13,13,14,14,17,17,19,19,20,20,25,25,26,26,27,27,28,28,29,29,30,30],"right_children":[2,4,6,-1,8,10,12,-1,-1,14,16,18,20,22,24,-1,-1,26,-1,28,30,-1,-1,-1,-1,32,34,36,38,40,42,-1,-1,-1,-1,-1,-1,-1,-1,-1,-1,-1,-1],"split_conditions":[-1.6928768E-1,-3.4068188E-1,-4.8869556E-1,-2.1165626E-1,-5.3700175E-2,4.170738E-2,1.4267721E0,-3.8641594E-2,-2.1675425E-3,-1.2795912E-1,2.1663949E-2,5.473423E-2,1.5355144E0,2.8246766E-2,-3.0051552E-2,-5.360959E-3,-2.4520421E-2,1.9708039E-1,7.935516E-2,-8.466349E-3,1.1866009E0,1.4166322E-1,4.7419257E-2,4.0337585E-2,-2.8547777E-3,2.376646E-2,-3.1880373E-3,-2.6113546E-2,1.0318548E-1,-1.4130375E-2,-4.3483548E-2,-1.267867E-3,1.4685158E-2,-1.3575484E-2,-7.557736E-2,-3.3275846E-2,9.79912E-3,-1.833664E-1,-2.3054054E-2,-7.258394E-2,-9.289708E-3,-7.540818E-2,7.008562E-3],"split_indices":[22,9,9,0,0,11,14,0,0,14,0,7,14,11,0,0,0,22,0,20,10,0,0,0,0,8,0,22,23,0,0,0,0,0,0,0,0,0,0,0,0,0,0],"split_type":[0,0,0,0,0,0,0,0,0,0,0,0,0,0,0,0,0,0,0,0,0,0,0,0,0,0,0,0,0,0,0,0,0,0,0,0,0,0,0,0,0,0,0],"sum_hessian":[9.85E2,6E0,9.79E2,4E0,2E0,1.5E1,9.64E2,1E0,1E0,1.2E1,3E0,8.87E2,7.7E1,9E0,3E0,1E0,2E0,8.83E2,4E0,1.9E1,5.8E1,7E0,2E0,2E0,1E0,8.78E2,5E0,1E1,9E0,1.1E1,4.7E1,7.76E2,1.02E2,2E0,3E0,7E0,3E0,4E0,5E0,5E0,6E0,2E0,4.5E1],"tree_param":{"num_deleted":"0","num_feature":"25","num_nodes":"43","size_leaf_vector":"1"}},{"base_weights":[-1.0785396E-1,-1.1626851E1,2.1419045E-2,1.3746351E-2,-2.1284123E-1,-1.17193416E-1,5.800025E0,5.315207E-1,-1.0244143E-2,-7.7603474E-2,-7.6554337E0,8.381758E0,2.7349567E0,1.0059923E-2,5.500864E-4,-8.8556933E-1,2.1016537E-1,-1.8538241E-1,-2.604082E0,1.7642515E-2,8.902693E0,-2.1787944E-1,4.23861E0,-2.5006926E-1,-3.953801E0,2.8201395E-1,-3.3562183E0,-1.0141144E-2,-3.944517E-2,1.2754332E-1,5.177738E-2,3.45309E-2,-1.5697484E0,4.638879E-1,7.212177E-2,-8.7012425E-3,3.4827176E-2,-1.5318882E-1,-2.8805107E-2,3.6287715E-4,1.7998818E-2,-7.7501036E-2,-1.7809482E-2,-5.325288E-3,-2.4302881E-2,-1.905613E-3,1.1165562E-2],"categories":[],"categories_nodes":[],"categories_segments":[],"categories_sizes":[],"default_left":[0,0,0,0,0,0,0,0,0,0,0,0,0,0,0,0,0,0,0,0,0,0,0,0,0,0,0,0,0,0,0,0,0,0,0,0,0,0,0,0,0,0,0,0,0,0,0],"id":31,"left_children":[1,3,5,7,-1,9,11,13,-1,15,17,19,21,-1,-1,23,25,-1,27,-1,29,31,33,35,37,39,41,-1,-1,-1,-1,-1,43,45,-1,-1,-1,-1,-1,-1,-1,-1,-1,-1,-1,-1,-1],"loss_changes":[1.4759425E3,5.593917E2,7.8644775E2,2.0319355E0,0E0,2.856084E2,1.5907959E2,2.9878098E-1,0E0,2.2223068E2,1.2220984E2,3.2306152E1,5.4204002E1,0E0,0E0,4.8842654E2,1.8159541E2,0E0,3.9372063E-1,0E0,2.7954102E-1,2.308504E1,3.3147263E1,2.4366779E2,5.565413E2,1.886741E2,6.191693E1,0E0,0E0,0E0,0E0,0E0,4.6907806E-1,8.033692E-1,0E0,0E0,0E0,0E0,0E0,0E0,0E0,0E0,0E0,0E0,0E0,0E0,0E0],"parents":[2147483647,0,0,1,1,2,2,3,3,5,5,6,6,7,7,9,9,10,10,11,11,12,12,15,15,16,16,18,18,20,20,21,21,22,22,23,23,24,24,25,25,26,26,32,32,33,33],"right_children":[2,4,6,8,-1,10,12,14,-1,16,18,20,22,-1,-1,24,26,-1,28,-1,30,32,34,36,38,40,42,-1,-1,-1,-1,-1,44,46,-1,-1,-1,-1,-1,-1,-1,-1,-1,-1,-1,-1,-1],"split_conditions":[-1.6928768E-1,2.5760906E-2,4.9019393E-2,-4.88827E-2,-2.1284123E-1,4.3401435E-2,2.2337793E-3,-5.3700175E-2,-1.0244143E-2,-3.2776583E-2,-8.4486544E-2,-1.2257938E-1,1.6214559E0,1.0059923E-2,5.500864E-4,-1.6569942E-2,7.662552E-2,-1.8538241E-1,-2.2044549E-2,1.7642515E-2,4.9593705E-3,9.968853E-2,-2.3056796E-2,1.1578708E-1,-1.1797686E-2,7.291442E-2,8.7147707E-1,-1.0141144E-2,-3.944517E-2,1.2754332E-1,5.177738E-2,3.45309E-2,2.1663949E-2,9.232397E-4,7.212177E-2,-8.7012425E-3,3.4827176E-2,-1.5318882E-1,-2.8805107E-2,3.6287715E-4,1.7998818E-2,-7.7501036E-2,-1.7809482E-2,-5.325288E-3,-2.4302881E-2,-1.905613E-3,1.1165562E-2],"split_indices":[22,7,7,0,0,3,22,0,0,22,2,1,10,0,0,2,1,0,1,0,12,2,1,6,0,6,19,0,0,0,0,0,0,0,0,0,0,0,0,0,0,0,0,0,0,0,0],"split_type":[0,0,0,0,0,0,0,0,0,0,0,0,0,0,0,0,0,0,0,0,0,0,0,0,0,0,0,0,0,0,0,0,0,0,0,0,0,0,0,0,0,0,0,0,0,0,0],"sum_hessian":[9.9E2,1E1,9.8E2,3E0,7E0,9.58E2,2.2E1,2E0,1E0,9.54E2,4E0,1.1E1,1.1E1,1E0,1E0,2.5E2,7.04E2,1E0,3E0,1E0,1E1,4E0,7E0,2.08E2,4.2E1,6.91E2,1.3E1,1E0,2E0,8E0,2E0,1E0,3E0,2E0,5E0,1.83E2,2.5E1,7E0,3.5E1,5.59E2,1.32E2,5E0,8E0,1E0,2E0,1E0,1E0],"tree_param":{"num_deleted":"0","num_feature":"25","num_nodes":"47","size_leaf_vector":"1"}},{"base_weights":[-4.416259E-2,-1.3217636E1,2.3162775E-2,-2.1950263E-1,-7.3690235E-4,4.324276E0,-7.563436E-2,-1.7760483E0,5.778573E0,-2.2785546E-1,1.359706E0,-7.111778E-2,-3.8445566E-2,6.349962E0,-2.6183277E-2,-1.5129003E-1,-3.161787E0,-7.05765E0,1.7227366E0,-5.536723E-3,4.1170972E-3,3.320964E0,7.7002373E0,1.0012076E0,-2.7462795E-1,-2.1929038E-1,-1.0062044E0,-1.5463199E-1,-1.6637316E0,2.1268275E0,-5.4913545E0,6.0984436E-2,1.4798357E-3,1.2523882E-2,1.10215254E-1,6.414044E-4,5.838117E-2,-2.950655E-2,-2.3002462E-3,-5.5064492E-2,2.5712619E-2,5.464261E-4,-3.3757187E-2,2.1253182E-2,8.547587E-2,-1.3191097E-2,-1.08604774E-1],"categories":[],"categories_nodes":[],"categories_segments":[],"categories_sizes":[],"default_left":[0,0,0,0,0,0,0,0,0,0,0,0,0,0,0,0,0,0,0,0,0,0,0,0,0,0,0,0,0,0,0,0,0,0,0,0,0,0,0,0,0,0,0,0,0,0,0],"id":32,"left_children":[1,3,5,-1,-1,7,9,11,13,15,17,19,-1,21,-1,23,25,27,29,-1,-1,31,33,35,37,-1,39,-1,41,43,45,-1,-1,-1,-1,-1,-1,-1,-1,-1,-1,-1,-1,-1,-1,-1,-1],"loss_changes":[8.721377E2,2.14732E2,4.1634106E2,0E0,0E0,2.0544003E2,2.0962234E2,9.28175E0,9.216235E1,1.9428256E2,2.9328815E2,5.224539E-1,0E0,4.395746E1,0E0,1.2053104E2,6.1493115E2,7.9097305E1,2.7112732E2,0E0,0E0,2.7837921E1,3.5463257E1,2.6437808E2,1.5086897E2,0E0,1.920287E2,0E0,4.568633E0,1.832027E2,5.197966E1,0E0,0E0,0E0,0E0,0E0,0E0,0E0,0E0,0E0,0E0,0E0,0E0,0E0,0E0,0E0,0E0],"parents":[2147483647,0,0,1,1,2,2,5,5,6,6,7,7,8,8,9,9,10,10,11,11,13,13,15,15,16,16,17,17,18,18,21,21,22,22,23,23,24,24,26,26,28,28,29,29,30,30],"right_children":[2,4,6,-1,-1,8,10,12,14,16,18,20,-1,22,-1,24,26,28,30,-1,-1,32,34,36,38,-1,40,-1,42,44,46,-1,-1,-1,-1,-1,-1,-1,-1,-1,-1,-1,-1,-1,-1,-1,-1],"split_conditions":[-2.1686742E-1,-8.8859916E-2,-4.8027954E-1,-2.1950263E-1,-7.3690235E-4,1.9946206E-2,1.085365E-1,6.530189E-2,9.335906E-2,2.8990151E-2,-2.5858574E0,-2.1197034E-2,-3.8445566E-2,-5.189244E-1,-2.6183277E-2,-1.96278E-2,-1.5535806E0,-5.3700175E-2,1.9708039E-1,-5.536723E-3,4.1170972E-3,-1.2650404E0,2.4188168E-2,1.9946206E-2,-9.900199E-3,-2.1929038E-1,-3.9752465E-2,-1.5463199E-1,-4.88827E-2,4.692114E-2,-3.1880373E-3,6.0984436E-2,1.4798357E-3,1.2523882E-2,1.10215254E-1,6.414044E-4,5.838117E-2,-2.950655E-2,-2.3002462E-3,-5.5064492E-2,2.5712619E-2,5.464261E-4,-3.3757187E-2,2.1253182E-2,8.547587E-2,-1.3191097E-2,-1.08604774E-1],"split_indices":[22,1,9,0,0,8,6,6,1,8,21,0,0,21,0,12,21,0,22,0,0,19,8,8,15,0,21,0,0,8,0,0,0,0,0,0,0,0,0,0,0,0,0,0,0,0,0],"split_type":[0,0,0,0,0,0,0,0,0,0,0,0,0,0,0,0,0,0,0,0,0,0,0,0,0,0,0,0,0,0,0,0,0,0,0,0,0,0,0,0,0,0,0,0,0,0,0],"sum_hessian":[9.82E2,4E0,9.78E2,3E0,1E0,2.1E1,9.57E2,4E0,1.7E1,8.66E2,9.1E1,2E0,2E0,1.6E1,1E0,8.45E2,2.1E1,3E0,8.8E1,1E0,1E0,6E0,1E1,8.1E1,7.64E2,2E0,1.9E1,1E0,2E0,8.4E1,4E0,4E0,2E0,1E0,9E0,6.4E1,1.7E1,3.7E1,7.27E2,9E0,1E1,1E0,1E0,7.6E1,8E0,2E0,2E0],"tree_param":{"num_deleted":"0","num_feature":"25","num_nodes":"47","size_leaf_vector":"1"}},{"base_weights":[1.4425418E-1,-5.2477536E0,2.0487696E-1,-8.270116E0,5.5685854E0,1.325436E-1,1.0595579E-1,-1.1329581E1,-1.6133898E0,1.22765355E-1,-1.1607426E-2,1.7024569E-1,-5.9407344E0,-1.726565E-1,-2.0672072E-2,5.427901E-4,-2.8989289E-2,3.2921515E-2,1.1629238E0,-2.2510847E-4,-9.477925E-2,1.6824804E-1,-1.625343E0,8.7755626E-1,4.1286006E0,1.513071E-4,2.1972653E-2,-3.2754221E-3,-4.6660405E-2,1.8915966E-2,-7.770199E-3,6.344128E-2,-1.07740415E-2],"categories":[],"categories_nodes":[],"categories_segments":[],"categories_sizes":[],"default_left":[0,0,0,0,0,0,0,0,0,0,0,0,0,0,0,0,0,0,0,0,0,0,0,0,0,0,0,0,0,0,0,0,0],"id":33,"left_children":[1,3,5,7,9,11,-1,13,15,-1,-1,17,19,-1,-1,-1,-1,21,23,-1,-1,25,27,29,31,-1,-1,-1,-1,-1,-1,-1,-1],"loss_changes":[3.2337732E2,4.056527E2,5.4657477E2,1.6501514E2,7.8699425E1,2.2265953E2,0E0,7.63114E1,3.8272142E0,0E0,0E0,1.3123662E2,4.1869232E1,0E0,0E0,0E0,0E0,1.9034634E2,9.539496E1,0E0,0E0,1.8236314E2,1.6516505E2,8.667201E1,3.5397263E1,0E0,0E0,0E0,0E0,0E0,0E0,0E0,0E0],"parents":[2147483647,0,0,1,1,2,2,3,3,4,4,5,5,7,7,8,8,11,11,12,12,17,17,18,18,21,21,22,22,23,23,24,24],"right_children":[2,4,6,8,10,12,-1,14,16,-1,-1,18,20,-1,-1,-1,-1,22,24,-1,-1,26,28,30,32,-1,-1,-1,-1,-1,-1,-1,-1],"split_conditions":[-1.5140188E-1,8.921129E-2,5.3203903E-2,6.787984E-1,-6.7785375E-2,1.9708039E-1,1.0595579E-1,-6.7627676E-2,-4.88827E-2,1.22765355E-1,-1.1607426E-2,1.2889001E0,2.0318763E-2,-1.726565E-1,-2.0672072E-2,5.427901E-4,-2.8989289E-2,4.3844897E-2,6.3345957E0,-2.2510847E-4,-9.477925E-2,2.7221397E-2,-4.1247852E-2,6.8579996E-3,9.034092E0,1.513071E-4,2.1972653E-2,-3.2754221E-3,-4.6660405E-2,1.8915966E-2,-7.770199E-3,6.344128E-2,-1.07740415E-2],"split_indices":[22,8,8,13,0,22,0,1,0,0,0,19,11,0,0,0,0,18,10,0,0,11,13,3,10,0,0,0,0,0,0,0,0],"split_type":[0,0,0,0,0,0,0,0,0,0,0,0,0,0,0,0,0,0,0,0,0,0,0,0,0,0,0,0,0,0,0,0,0],"sum_hessian":[9.85E2,1E1,9.75E2,8E0,2E0,9.67E2,8E0,5E0,3E0,1E0,1E0,9.62E2,5E0,4E0,1E0,1E0,2E0,8.46E2,1.16E2,1E0,4E0,7.83E2,6.3E1,1.07E2,9E0,7.09E2,7.4E1,3.7E1,2.6E1,7.8E1,2.9E1,8E0,1E0],"tree_param":{"num_deleted":"0","num_feature":"25","num_nodes":"33","size_leaf_vector":"1"}},{"base_weights":[1.4914016E-1,5.9410644E0,-5.781902E-3,-1.6883585E0,7.0096135E0,-1.6583569E0,2.5785002E-1,-4.97512E0,5.437493E-2,1.1940201E1,4.976661E0,-3.0481607E-1,-6.572775E-1,3.1073803E-1,-6.0802107E0,-8.778121E-2,-1.1530192E-2,3.2876246E-2,1.77526E-1,2.9229064E0,1.14406906E-1,-1.3887359E0,1.2708993E0,2.1159442E-1,4.1389356E0,-9.5077276E-1,-1.0568783E-1,3.637156E-1,7.7823795E-2,-1.595833E0,7.219648E-2,-1.5251893E0,2.4049792E0,1.0923978E-1,1.8427281E0,5.7185144E0,1.628473E-1,-2.236106E-4,-1.8755345E-2,3.076089E-2,-1.686434E-2,-2.0821919E-3,-3.4084983E-2,3.955533E-3,-8.628828E-2,4.1169324E-3,4.652685E-2,-7.7376945E-4,1.4625054E-2,3.1583246E-2,-2.1344882E-2,8.656656E-2,5.380756E-3,-3.8661547E-2,4.2454023E-2],"categories":[],"categories_nodes":[],"categories_segments":[],"categories_sizes":[],"default_left":[0,0,0,0,0,0,0,0,0,0,0,0,0,0,0,0,0,0,0,0,0,0,0,0,0,0,0,0,0,0,0,0,0,0,0,0,0,0,0,0,0,0,0,0,0,0,0,0,0,0,0,0,0,0,0],"id":34,"left_children":[1,3,5,7,9,11,13,15,-1,17,19,-1,21,23,25,-1,-1,-1,-1,27,-1,29,31,33,35,37,-1,39,-1,41,-1,43,45,47,49,51,53,-1,-1,-1,-1,-1,-1,-1,-1,-1,-1,-1,-1,-1,-1,-1,-1,-1,-1],"loss_changes":[8.955366E2,2.2379749E2,4.2433603E2,9.6243416E1,1.7112158E2,2.8350908E3,2.8346344E2,1.4267036E1,0E0,4.6581543E1,1.0870764E2,0E0,1.837041E2,3.1566162E2,5.9292572E1,0E0,0E0,0E0,0E0,9.518967E1,0E0,1.4130434E2,1.17823616E2,1.3569934E2,1.309602E2,1.2612271E0,0E0,2.83436E1,0E0,1.2744693E2,0E0,1.0133631E2,5.837599E1,1.2713141E2,9.158449E1,6.0061066E1,7.428381E1,0E0,0E0,0E0,0E0,0E0,0E0,0E0,0E0,0E0,0E0,0E0,0E0,0E0,0E0,0E0,0E0,0E0,0E0],"parents":[2147483647,0,0,1,1,2,2,3,3,4,4,5,5,6,6,7,7,9,9,10,10,12,12,13,13,14,14,19,19,21,21,22,22,23,23,24,24,25,25,27,27,29,29,31,31,32,32,33,33,34,34,35,35,36,36],"right_children":[2,4,6,8,10,12,14,16,-1,18,20,-1,22,24,26,-1,-1,-1,-1,28,-1,30,32,34,36,38,-1,40,-1,42,-1,44,46,48,50,52,54,-1,-1,-1,-1,-1,-1,-1,-1,-1,-1,-1,-1,-1,-1,-1,-1,-1,-1],"split_conditions":[-4.8027954E-1,1.164508E0,-5.6218024E-2,-6.5896735E-2,-3.9577562E-2,-1.5228408E-2,1.9708039E-1,-6.7785375E-2,5.437493E-2,3.3196133E-2,7.402447E-1,-3.0481607E-1,1.09801404E-1,3.6795717E-2,-4.599702E-1,-8.778121E-2,-1.1530192E-2,3.2876246E-2,1.77526E-1,-7.859113E-4,1.14406906E-1,-1.2906982E-2,-1.8355742E0,1.240876E-2,1.1756373E-1,-8.715755E-3,-1.0568783E-1,-4.6692565E-2,7.7823795E-2,-4.0970244E-2,7.219648E-2,-1.1016895E-1,-2.346029E-1,1.2057617E0,2.7651873E0,7.899205E-1,-1.5932359E-2,-2.236106E-4,-1.8755345E-2,3.076089E-2,-1.686434E-2,-2.0821919E-3,-3.4084983E-2,3.955533E-3,-8.628828E-2,4.1169324E-3,4.652685E-2,-7.7376945E-4,1.4625054E-2,3.1583246E-2,-2.1344882E-2,8.656656E-2,5.380756E-3,-3.8661547E-2,4.2454023E-2],"split_indices":[9,10,22,4,4,16,22,0,0,7,24,0,6,7,9,0,0,0,0,16,0,20,24,16,22,0,0,18,0,18,0,9,9,21,10,5,0,0,0,0,0,0,0,0,0,0,0,0,0,0,0,0,0,0,0],"split_type":[0,0,0,0,0,0,0,0,0,0,0,0,0,0,0,0,0,0,0,0,0,0,0,0,0,0,0,0,0,0,0,0,0,0,0,0,0,0,0,0,0,0,0,0,0,0,0,0,0,0,0,0,0,0,0],"sum_hessian":[9.97E2,2.5E1,9.72E2,3E0,2.2E1,1.33E2,8.39E2,2E0,1E0,5E0,1.7E1,5E0,1.28E2,8.33E2,6E0,1E0,1E0,1E0,4E0,1.2E1,5E0,9.3E1,3.5E1,8.13E2,2E1,2E0,4E0,7E0,5E0,9.1E1,2E0,1E1,2.5E1,7.66E2,4.7E1,1.4E1,6E0,1E0,1E0,3E0,4E0,3.7E1,5.4E1,8E0,2E0,9E0,1.6E1,6.56E2,1.1E2,4.1E1,6E0,1.2E1,2E0,3E0,3E0],"tree_param":{"num_deleted":"0","num_feature":"25","num_nodes":"55","size_leaf_vector":"1"}},{"base_weights":[-7.443069E-2,-8.027123E0,3.458873E-2,-1.1186086E0,-9.987817E0,7.012946E-2,-6.6895275E0,-2.1019267E-1,-2.5576523E-2,-1.0906316E1,-1.1453471E-2,-1.6111396E-1,1.2407204E0,-9.7977184E-2,-2.660186E-2,5.1285856E-4,-4.7086426E-3,-1.164279E1,-3.3366E-2,-9.882783E-2,-4.56312E0,5.4452095E0,1.0362394E0,-1.6636759E-1,-3.7470315E-2,-2.4544035E-1,1.3032516E0,-2.5002104E-1,-1.2619038E0,8.503165E-2,2.7361922E-2,-7.003477E-2,1.1569191E0,-6.1596982E-2,-2.6791217E-3,-7.4101123E-3,2.8651947E-2,-3.9185364E-2,2.659167E-2,-5.4741334E-2,1.7224623E-2],"categories":[],"categories_nodes":[],"categories_segments":[],"categories_sizes":[],"default_left":[0,0,0,0,0,0,0,0,0,0,0,0,0,0,0,0,0,0,0,0,0,0,0,0,0,0,0,0,0,0,0,0,0,0,0,0,0,0,0,0,0],"id":35,"left_children":[1,3,5,7,9,11,13,15,-1,17,-1,19,21,-1,-1,-1,-1,23,-1,25,27,29,31,-1,-1,33,35,-1,37,-1,-1,-1,39,-1,-1,-1,-1,-1,-1,-1,-1],"loss_changes":[8.3346277E2,1.649187E2,2.2726115E2,2.5150185E0,7.444617E1,2.560033E2,1.0639038E0,1.2081514E-1,0E0,2.6479614E1,0E0,2.1615434E2,1.2847658E2,0E0,0E0,0E0,0E0,2.5443726E1,0E0,1.6065852E2,4.928322E2,9.267807E0,1.2011189E2,0E0,0E0,1.357925E2,1.1816717E2,0E0,6.074018E1,0E0,0E0,0E0,1.1250853E2,0E0,0E0,0E0,0E0,0E0,0E0,0E0,0E0],"parents":[2147483647,0,0,1,1,2,2,3,3,4,4,5,5,6,6,7,7,9,9,11,11,12,12,17,17,19,19,20,20,21,21,22,22,25,25,26,26,28,28,32,32],"right_children":[2,4,6,8,10,12,14,16,-1,18,-1,20,22,-1,-1,-1,-1,24,-1,26,28,30,32,-1,-1,34,36,-1,38,-1,-1,-1,40,-1,-1,-1,-1,-1,-1,-1,-1],"split_conditions":[-1.5140188E-1,1.9039273E-2,1.9708039E-1,-4.3483548E-2,-6.7627676E-2,8.849211E-2,2.7767405E-1,-4.88827E-2,-2.5576523E-2,9.165507E-1,-1.1453471E-2,3.0387146E-2,-1.5461847E-1,-9.7977184E-2,-2.660186E-2,5.1285856E-4,-4.7086426E-3,-5.495501E-2,-3.3366E-2,2.182727E-2,-4.37645E-2,-1.44031495E-2,-3.1592946E0,-1.6636759E-1,-3.7470315E-2,-9.027497E-2,-8.7953615E-1,-2.5002104E-1,4.6098426E-2,8.503165E-2,2.7361922E-2,-7.003477E-2,-1.4349782E-1,-6.1596982E-2,-2.6791217E-3,-7.4101123E-3,2.8651947E-2,-3.9185364E-2,2.659167E-2,-5.4741334E-2,1.7224623E-2],"split_indices":[22,7,22,0,1,6,6,0,0,13,0,7,18,0,0,0,0,18,0,7,1,1,23,0,0,20,14,0,2,0,0,0,22,0,0,0,0,0,0,0,0],"split_type":[0,0,0,0,0,0,0,0,0,0,0,0,0,0,0,0,0,0,0,0,0,0,0,0,0,0,0,0,0,0,0,0,0,0,0,0,0,0,0,0,0],"sum_hessian":[9.6E2,1.2E1,9.48E2,3E0,9E0,9.44E2,4E0,2E0,1E0,8E0,1E0,7.89E2,1.55E2,3E0,1E0,1E0,1E0,7E0,1E0,7.79E2,1E1,6E0,1.49E2,6E0,1E0,7.06E2,7.3E1,1E0,9E0,4E0,2E0,2E0,1.47E2,6E0,7E2,2.3E1,5E1,6E0,3E0,3E0,1.44E2],"tree_param":{"num_deleted":"0","num_feature":"25",