{"learner":{"attributes":{"scikit_learn":"{\"_estimator_type\": \"regressor\"}"},"feature_names":["ret_1","ret_3","ret_5","ret_10","ret_accel","price_to_ma_5","price_to_ma_20","slope_5","bb_pos_5","bb_width_5","macd_hist","rsi_14","vol_5","vol_10","vol_shock","drawdown","vol_ratio_5","rel_strength_5","spy_ret_5","vix_ret_5","vix_z_score_5","hyg_ret_5","hyg_z_score","uup_ret_5","tlt_ret_5","tlt_ret_20","target_spy_rel_ret_5","target_tlt_rel_ret_5","target_tlt_ratio_20","kbe_ret_5","kbe_shock_5","kre_ret_5","kre_shock_5","kie_ret_5","kie_shock_5","iai_ret_5","iai_shock_5"],"feature_types":["float","float","float","float","float","float","float","float","float","float","float","float","float","float","float","float","float","float","float","float","float","float","float","float","float","float","float","float","float","float","float","float","float","float","float","float","float"],"gradient_booster":{"model":{"cats":{"enc":[],"feature_segments":[],"sorted_idx":[]},"gbtree_model_param":{"num_parallel_tree":"1","num_trees":"144"},"iteration_indptr":[0,1,2,3,4,5,6,7,8,9,10,11,12,13,14,15,16,17,18,19,20,21,22,23,24,25,26,27,28,29,30,31,32,33,34,35,36,37,38,39,40,41,42,43,44,45,46,47,48,49,50,51,52,53,54,55,56,57,58,59,60,61,62,63,64,65,66,67,68,69,70,71,72,73,74,75,76,77,78,79,80,81,82,83,84,85,86,87,88,89,90,91,92,93,94,95,96,97,98,99,100,101,102,103,104,105,106,107,108,109,110,111,112,113,114,115,116,117,118,119,120,121,122,123,124,125,126,127,128,129,130,131,132,133,134,135,136,137,138,139,140,141,142,143,144],"tree_info":[0,0,0,0,0,0,0,0,0,0,0,0,0,0,0,0,0,0,0,0,0,0,0,0,0,0,0,0,0,0,0,0,0,0,0,0,0,0,0,0,0,0,0,0,0,0,0,0,0,0,0,0,0,0,0,0,0,0,0,0,0,0,0,0,0,0,0,0,0,0,0,0,0,0,0,0,0,0,0,0,0,0,0,0,0,0,0,0,0,0,0,0,0,0,0,0,0,0,0,0,0,0,0,0,0,0,0,0,0,0,0,0,0,0,0,0,0,0,0,0,0,0,0,0,0,0,0,0,0,0,0,0,0,0,0,0,0,0,0,0,0,0,0,0],"trees":[{"base_weights":[4.34781E-3,-9.979899E0,5.517967E-2,-1.4241205E-1,-3.0471856E-2,8.637134E0,-1.52929565E-2,1.419589E-1,3.2325435E0,2.9134665E-2,-6.1631603E0,4.6407685E-2,1.2089327E-2,1.3854761E-3,-3.51754E-2,-1.1324417E-1,7.007826E-3],"categories":[],"categories_nodes":[],"categories_segments":[],"categories_sizes":[],"default_left":[0,0,0,0,0,0,0,0,0,0,0,0,0,0,0,0,0],"id":0,"left_children":[1,3,5,-1,-1,7,9,-1,11,13,15,-1,-1,-1,-1,-1,-1],"loss_changes":[5.0096335E2,2.1619324E1,5.940387E2,0E0,0E0,7.5940735E1,2.664863E2,0E0,4.9025345E-1,2.1970038E2,1.3654153E2,0E0,0E0,0E0,0E0,0E0,0E0],"parents":[2147483647,0,0,1,1,2,2,5,5,6,6,8,8,9,9,10,10],"right_children":[2,4,6,-1,-1,8,10,-1,12,14,16,-1,-1,-1,-1,-1,-1],"split_conditions":[-4.9159187E-1,3.2816154E1,-3.2023883E-1,-1.4241205E-1,-3.0471856E-2,-6.525766E-2,3.6736052E-2,1.419589E-1,-1.0765705E-1,2.2898589E-1,-1.4107809E-2,4.6407685E-2,1.2089327E-2,1.3854761E-3,-3.51754E-2,-1.1324417E-1,7.007826E-3],"split_indices":[10,11,15,0,0,33,0,0,3,10,23,0,0,0,0,0,0],"split_type":[0,0,0,0,0,0,0,0,0,0,0,0,0,0,0,0,0],"sum_hessian":[9.85E2,4E0,9.81E2,3E0,1E0,7E0,9.74E2,4E0,3E0,9.68E2,6E0,2E0,1E0,9.42E2,2.6E1,4E0,2E0],"tree_param":{"num_deleted":"0","num_feature":"37","num_nodes":"17","size_leaf_vector":"1"}},{"base_weights":[2.365082E-3,-4.613661E0,1.0917216E-1,-9.776229E0,1.0956296E-1,1.8446221E0,-7.8408934E-2,-1.0982554E0,-1.28931875E1,1.7606163E0,-7.558106E-2,2.3949032E0,-1.8952631E0,7.1843255E-1,-1.9870201E-1,-2.1813743E-2,-3.9627277E-3,-1.7928177E-1,-2.4250988E-2,7.508131E-2,-6.947827E-3,2.293218E-2,7.296174E-2,-4.1599747E-2,1.2607226E-2,-3.0697226E-3,1.775085E-2,-1.1124514E-3,-1.6267855E-2],"categories":[],"categories_nodes":[],"categories_segments":[],"categories_sizes":[],"default_left":[0,0,0,0,0,0,0,0,0,0,0,0,0,0,0,0,0,0,0,0,0,0,0,0,0,0,0,0,0],"id":1,"left_children":[1,3,5,7,9,11,13,15,17,19,-1,21,23,25,27,-1,-1,-1,-1,-1,-1,-1,-1,-1,-1,-1,-1,-1,-1],"loss_changes":[5.0141632E2,5.619022E2,3.23729E2,2.833777E2,1.4125204E2,2.0416382E2,8.62201E1,1.4295001E0,8.6344604E1,1.09515656E2,0E0,1.5616272E2,5.5805782E1,7.8184265E1,9.3979355E1,0E0,0E0,0E0,0E0,0E0,0E0,0E0,0E0,0E0,0E0,0E0,0E0,0E0,0E0],"parents":[2147483647,0,0,1,1,2,2,3,3,4,4,5,5,6,6,7,7,8,8,9,9,11,11,12,12,13,13,14,14],"right_children":[2,4,6,8,10,12,14,16,18,20,-1,22,24,26,28,-1,-1,-1,-1,-1,-1,-1,-1,-1,-1,-1,-1,-1,-1],"split_conditions":[-9.333153E-2,-1.1124825E0,-1.9590259E-1,2.164867E-2,1.2818482E0,8.104495E-1,-7.982315E-1,-4.0617608E-2,5.84916E-2,-3.977544E-2,-7.558106E-2,1.7267373E0,-8.720612E-1,-3.740615E-2,1.296112E-1,-2.1813743E-2,-3.9627277E-3,-1.7928177E-1,-2.4250988E-2,7.508131E-2,-6.947827E-3,2.293218E-2,7.296174E-2,-4.1599747E-2,1.2607226E-2,-3.0697226E-3,1.775085E-2,-1.1124514E-3,-1.6267855E-2],"split_indices":[3,32,15,13,20,8,34,0,13,5,0,22,20,29,19,0,0,0,0,0,0,0,0,0,0,0,0,0,0],"split_type":[0,0,0,0,0,0,0,0,0,0,0,0,0,0,0,0,0,0,0,0,0,0,0,0,0,0,0,0,0],"sum_hessian":[1.015E3,2.2E1,9.93E2,1E1,1.2E1,9.6E1,8.97E2,3E0,7E0,1E1,2E0,8.4E1,1.2E1,1.17E2,7.8E2,1E0,2E0,6E0,1E0,3E0,7E0,7.3E1,1.1E1,8E0,4E0,4.9E1,6.8E1,7.09E2,7.1E1],"tree_param":{"num_deleted":"0","num_feature":"37","num_nodes":"29","size_leaf_vector":"1"}},{"base_weights":[2.584555E-2,1.1049296E-1,-1.7855676E-2,-6.4270654E0,4.0427905E-2,-1.7757064E-1,-2.7301243E-1,2.906003E0,-2.7700871E-2,2.3812275E-2,-3.864995E-2,-4.334662E-3,4.3099366E-2,4.6320198E-4,-3.5341494E-2],"categories":[],"categories_nodes":[],"categories_segments":[],"categories_sizes":[],"default_left":[0,0,0,0,0,0,0,0,0,0,0,0,0,0,0],"id":2,"left_children":[1,-1,3,5,7,-1,9,11,13,-1,-1,-1,-1,-1,-1],"loss_changes":[3.8188763E2,0E0,3.7306442E2,4.1844763E2,1.9335632E2,0E0,4.1816784E1,3.8869858E1,1.7259271E2,0E0,0E0,0E0,0E0,0E0,0E0],"parents":[2147483647,0,0,2,2,3,3,4,4,6,6,7,7,8,8],"right_children":[2,-1,4,6,8,-1,10,12,14,-1,-1,-1,-1,-1,-1],"split_conditions":[-3.5776967E-1,1.1049296E-1,-1.0927444E-1,-1.5228409E-2,-2.4848104E-1,-1.7757064E-1,2.0939836E-2,-1.6568477E-3,2.6196116E-1,2.3812275E-2,-3.864995E-2,-4.334662E-3,4.3099366E-2,4.6320198E-4,-3.5341494E-2],"split_indices":[15,0,28,23,10,0,1,23,10,0,0,0,0,0,0],"split_type":[0,0,0,0,0,0,0,0,0,0,0,0,0,0,0],"sum_hessian":[1.001E3,4E0,9.97E2,8E0,9.89E2,3E0,5E0,2.2E1,9.67E2,3E0,2E0,3E0,1.9E1,9.46E2,2.1E1],"tree_param":{"num_deleted":"0","num_feature":"37","num_nodes":"15","size_leaf_vector":"1"}},{"base_weights":[-8.851378E-2,-5.315936E0,1.0679918E-3,8.3193535E-1,-1.2336284E1,3.672795E-2,-4.3941555E0,6.877462E-2,-3.148623E0,-1.4006989E1,-4.0524276E-3,-1.1407115E-2,4.304282E0,4.5987412E-1,-7.694577E-2,-5.5008672E-2,-6.2349113E-3,-2.99912E-2,-1.9651422E-1,7.466315E-3,-3.6145856E-3,7.4959405E-2,1.472418E-2,-2.0123157E-3,1.0729625E-2],"categories":[],"categories_nodes":[],"categories_segments":[],"categories_sizes":[],"default_left":[0,0,0,0,0,0,0,0,0,0,0,0,0,0,0,0,0,0,0,0,0,0,0,0,0],"id":3,"left_children":[1,3,5,7,9,11,13,-1,15,17,-1,19,21,23,-1,-1,-1,-1,-1,-1,-1,-1,-1,-1,-1],"loss_changes":[4.7250192E2,7.439862E2,1.5579774E2,2.006505E2,1.5610474E2,2.0259224E2,6.8607346E1,0E0,1.7038342E1,8.87854E1,0E0,1.6158261E2,4.928192E1,8.5802567E-1,0E0,0E0,0E0,0E0,0E0,0E0,0E0,0E0,0E0,0E0,0E0],"parents":[2147483647,0,0,1,1,2,2,3,3,4,4,5,5,6,6,8,8,9,9,11,11,12,12,13,13],"right_children":[2,4,6,8,10,12,14,-1,16,18,-1,20,22,24,-1,-1,-1,-1,-1,-1,-1,-1,-1,-1,-1],"split_conditions":[-3.0016103E-1,2.4975282E-1,9.510536E-2,8.1286025E-1,-9.658456E-2,9.440823E-2,3.9145887E-2,6.877462E-2,-1.176967E-1,-1.999999E-1,-4.0524276E-3,-3.503342E-3,8.227098E-2,3.6736052E-2,-7.694577E-2,-5.5008672E-2,-6.2349113E-3,-2.99912E-2,-1.9651422E-1,7.466315E-3,-3.6145856E-3,7.4959405E-2,1.472418E-2,-2.0123157E-3,1.0729625E-2],"split_indices":[10,8,6,20,3,3,2,0,3,3,0,23,6,0,0,0,0,0,0,0,0,0,0,0,0],"split_type":[0,0,0,0,0,0,0,0,0,0,0,0,0,0,0,0,0,0,0,0,0,0,0,0,0],"sum_hessian":[1.008E3,1.6E1,9.92E2,9E0,7E0,9.85E2,7E0,4E0,5E0,6E0,1E0,9.75E2,1E1,2E0,5E0,3E0,2E0,1E0,5E0,3.05E2,6.7E2,6E0,4E0,1E0,1E0],"tree_param":{"num_deleted":"0","num_feature":"37","num_nodes":"25","size_leaf_vector":"1"}},{"base_weights":[2.0137672E-1,4.4190197E0,1.3074675E-1,6.304156E0,-3.283712E0,1.8475495E-1,-6.7108817E0,-3.0019322E-2,7.9487147E0,-1.15863765E-2,-4.7605157E-2,2.5496402E-1,-2.4848955E0,-1.4846888E-1,-1.3385938E0,2.4330977E-2,1.051578E-1,2.8869415E-2,1.9362452E-3,-3.885104E-2,7.6530324E-3,2.706116E-3,-2.2498224E-2],"categories":[],"categories_nodes":[],"categories_segments":[],"categories_sizes":[],"default_left":[0,0,0,0,0,0,0,0,0,0,0,0,0,0,0,0,0,0,0,0,0,0,0],"id":4,"left_children":[1,3,5,7,9,11,13,-1,15,-1,-1,17,19,-1,21,-1,-1,-1,-1,-1,-1,-1,-1],"loss_changes":[3.0744254E2,2.6755292E2,3.7739493E2,2.1871997E2,1.1222229E0,1.9012904E2,2.0078271E2,0E0,1.0906799E1,0E0,0E0,2.0325455E2,4.922444E1,0E0,3.8105774E0,0E0,0E0,0E0,0E0,0E0,0E0,0E0,0E0],"parents":[2147483647,0,0,1,1,2,2,3,3,4,4,5,5,6,6,8,8,11,11,12,12,14,14],"right_children":[2,4,6,8,10,12,14,-1,16,-1,-1,18,20,-1,22,-1,-1,-1,-1,-1,-1,-1,-1],"split_conditions":[-2.9953223E-1,1.4133419E-2,3.7623804E-2,-5.0160203E-2,5.5483006E-2,2.3732637E-1,-6.874364E-2,-3.0019322E-2,2.2613514E-2,-1.15863765E-2,-4.7605157E-2,-2.1831977E-1,1.6073951E-2,-1.4846888E-1,-7.4348286E-2,2.4330977E-2,1.051578E-1,2.8869415E-2,1.9362452E-3,-3.885104E-2,7.6530324E-3,2.706116E-3,-2.2498224E-2],"split_indices":[15,2,12,17,1,10,6,0,12,0,0,15,24,0,1,0,0,0,0,0,0,0,0],"split_type":[0,0,0,0,0,0,0,0,0,0,0,0,0,0,0,0,0,0,0,0,0,0,0],"sum_hessian":[1.033E3,1.6E1,1.017E3,1.3E1,3E0,1.01E3,7E0,2E0,1.1E1,1E0,2E0,9.85E2,2.5E1,3E0,4E0,1E0,1E1,4.6E1,9.39E2,2.1E1,4E0,1E0,3E0],"tree_param":{"num_deleted":"0","num_feature":"37","num_nodes":"23","size_leaf_vector":"1"}},{"base_weights":[8.312943E-2,1.369604E-1,1.760062E-2,-8.32479E0,1.02970436E-1,-5.2769035E-1,-1.1591021E1,1.5009941E-1,-4.469412E0,-1.9374966E-3,-7.599735E-3,-3.046615E-2,-1.607362E-1,2.0681005E-2,-5.2196E-5,3.3869615E-3,-7.18714E-2],"categories":[],"categories_nodes":[],"categories_segments":[],"categories_sizes":[],"default_left":[0,0,0,0,0,0,0,0,0,0,0,0,0,0,0,0,0],"id":5,"left_children":[1,-1,3,5,7,9,11,13,15,-1,-1,-1,-1,-1,-1,-1,-1],"loss_changes":[6.9820996E2,0E0,7.03075E2,2.4855475E2,2.1120628E2,1.8143296E-2,4.1837708E1,2.2191995E2,5.921939E1,0E0,0E0,0E0,0E0,0E0,0E0,0E0,0E0],"parents":[2147483647,0,0,2,2,3,3,4,4,5,5,6,6,7,7,8,8],"right_children":[2,-1,4,6,8,10,12,14,16,-1,-1,-1,-1,-1,-1,-1,-1],"split_conditions":[-3.5776967E-1,1.369604E-1,-3.3238897E-1,2.6563725E-2,1.1440498E-1,-1.123912E-2,-1.999999E-1,-1.9590259E-1,1.6792542E-1,-1.9374966E-3,-7.599735E-3,-3.046615E-2,-1.607362E-1,2.0681005E-2,-5.2196E-5,3.3869615E-3,-7.18714E-2],"split_indices":[15,0,10,12,2,4,3,15,9,0,0,0,0,0,0,0,0],"split_type":[0,0,0,0,0,0,0,0,0,0,0,0,0,0,0,0,0],"sum_hessian":[9.9E2,5E0,9.85E2,9E0,9.76E2,3E0,6E0,9.67E2,9E0,1E0,2E0,1E0,5E0,9E1,8.77E2,2E0,7E0],"tree_param":{"num_deleted":"0","num_feature":"37","num_nodes":"17","size_leaf_vector":"1"}},{"base_weights":[5.7231292E-2,-1.0154425E1,1.0655532E-1,-1.4526805E-1,-3.0273646E-2,1.22569114E-1,7.856694E-2,1.6147517E-1,-5.1961975E0,9.866469E-4,4.7546823E-2,-1.6422723E-1,-1.9126108E-2],"categories":[],"categories_nodes":[],"categories_segments":[],"categories_sizes":[],"default_left":[0,0,0,0,0,0,0,0,0,0,0,0,0],"id":6,"left_children":[1,3,5,-1,-1,-1,7,9,11,-1,-1,-1,-1],"loss_changes":[5.2390186E2,2.4477783E1,2.7684442E2,0E0,0E0,0E0,4.5215466E2,3.051342E2,4.3989462E2,0E0,0E0,0E0,0E0],"parents":[2147483647,0,0,1,1,2,2,6,6,7,7,8,8],"right_children":[2,4,6,-1,-1,-1,8,10,12,-1,-1,-1,-1],"split_conditions":[-4.9159187E-1,-4.5416538E-2,-1.999999E-1,-1.4526805E-1,-3.0273646E-2,1.22569114E-1,3.7623804E-2,2.8695403E-2,-3.0016103E-1,9.866469E-4,4.7546823E-2,-1.6422723E-1,-1.9126108E-2],"split_indices":[10,1,3,0,0,0,12,12,10,0,0,0,0],"split_type":[0,0,0,0,0,0,0,0,0,0,0,0,0],"sum_hessian":[1.037E3,4E0,1.033E3,3E0,1E0,2E0,1.031E3,1.016E3,1.5E1,9.94E2,2.2E1,4E0,1.1E1],"tree_param":{"num_deleted":"0","num_feature":"37","num_nodes":"13","size_leaf_vector":"1"}},{"base_weights":[4.7980633E-2,-6.7737966E0,1.223033E-1,-1.6687152E-1,-1.0525344E1,5.148541E0,4.6407957E-2,-3.4378253E-2,2.4422731E0,-2.260056E-2,-1.4764632E-1,5.4309076E-1,7.396957E0,1.09867044E-1,-2.7652082E0,4.1216854E-2,5.078536E-3,4.236229E-2,-4.2756718E-2,1.12791084E-1,1.0814167E-2,4.145855E-2,6.7591027E-4,-4.6617612E-2,2.9238362E-2],"categories":[],"categories_nodes":[],"categories_segments":[],"categories_sizes":[],"default_left":[0,0,0,0,0,0,0,0,0,0,0,0,0,0,0,0,0,0,0,0,0,0,0,0,0],"id":7,"left_children":[1,3,5,7,9,11,13,-1,15,-1,-1,17,19,21,23,-1,-1,-1,-1,-1,-1,-1,-1,-1,-1],"loss_changes":[5.1747437E2,2.7089172E2,3.8466232E2,3.9956474E1,4.993213E1,1.5130734E2,1.7783429E2,0E0,3.7041798E0,0E0,0E0,7.752073E1,9.233411E1,1.7395058E2,1.11744705E2,0E0,0E0,0E0,0E0,0E0,0E0,0E0,0E0,0E0,0E0],"parents":[2147483647,0,0,1,1,2,2,3,3,4,4,5,5,6,6,8,8,11,11,12,12,13,13,14,14],"right_children":[2,4,6,8,10,12,14,-1,16,-1,-1,18,20,22,24,-1,-1,-1,-1,-1,-1,-1,-1,-1,-1],"split_conditions":[-3.3238897E-1,5.349812E-2,-2.9953223E-1,1.285787E0,1.4142594E-1,-9.188607E-3,1.23268925E-1,-3.4378253E-2,-5.0408754E-2,-2.260056E-2,-1.4764632E-1,-7.716878E-2,3.3038807E-1,-2.5626013E-1,3.0675683E0,4.1216854E-2,5.078536E-3,4.236229E-2,-4.2756718E-2,1.12791084E-1,1.0814167E-2,4.145855E-2,6.7591027E-4,-4.6617612E-2,2.9238362E-2],"split_indices":[10,25,15,16,8,3,9,0,0,0,0,10,10,10,16,0,0,0,0,0,0,0,0,0,0],"split_type":[0,0,0,0,0,0,0,0,0,0,0,0,0,0,0,0,0,0,0,0,0,0,0,0,0],"sum_hessian":[1.018E3,1E1,1.008E3,4E0,6E0,1.4E1,9.94E2,2E0,2E0,1E0,5E0,5E0,9E0,9.73E2,2.1E1,1E0,1E0,3E0,2E0,7E0,2E0,1.6E1,9.57E2,1.8E1,3E0],"tree_param":{"num_deleted":"0","num_feature":"37","num_nodes":"25","size_leaf_vector":"1"}},{"base_weights":[5.3246666E-2,-7.6945963E0,1.1325587E-1,4.095642E-2,-9.719805E0,7.223554E-2,6.109485E0,-2.2457754E-2,-1.0747402E1,1.6478272E-1,-3.0058236E0,-4.278934E-2,8.25639E0,-1.5103495E-1,-2.9865135E-2,2.4622402E-3,-7.377056E-2,-2.5561132E-2,-7.515605E-2,1.1412467E-1,2.7702248E-2],"categories":[],"categories_nodes":[],"categories_segments":[],"categories_sizes":[],"default_left":[0,0,0,0,0,0,0,0,0,0,0,0,0,0,0,0,0,0,0,0,0],"id":8,"left_children":[1,3,5,-1,7,9,11,-1,13,15,17,-1,19,-1,-1,-1,-1,-1,-1,-1,-1],"loss_changes":[4.839461E2,2.0867502E2,2.5339696E2,0E0,3.8033936E1,2.9276755E2,1.706568E2,0E0,3.2331116E1,1.8101018E2,7.472397E1,0E0,8.381714E0,0E0,0E0,0E0,0E0,0E0,0E0,0E0,0E0],"parents":[2147483647,0,0,1,1,2,2,4,4,5,5,6,6,8,8,9,9,10,10,12,12],"right_children":[2,4,6,-1,8,10,12,-1,14,16,18,-1,20,-1,-1,-1,-1,-1,-1,-1,-1],"split_conditions":[-4.9159187E-1,-6.199254E-3,4.3502595E-2,4.095642E-2,1.4142594E-1,2.2898589E-1,-3.539022E-2,-2.2457754E-2,-4.5416538E-2,3.56809E-2,3.4281276E-2,-4.278934E-2,-2.8673917E-2,-1.5103495E-1,-2.9865135E-2,2.4622402E-3,-7.377056E-2,-2.5561132E-2,-7.515605E-2,1.1412467E-1,2.7702248E-2],"split_indices":[10,25,13,0,8,10,4,0,1,12,17,0,17,0,0,0,0,0,0,0,0],"split_type":[0,0,0,0,0,0,0,0,0,0,0,0,0,0,0,0,0,0,0,0,0],"sum_hessian":[1.038E3,7E0,1.031E3,1E0,6E0,1.025E3,6E0,1E0,5E0,9.96E2,2.9E1,1E0,5E0,4E0,1E0,9.92E2,4E0,2.3E1,6E0,4E0,1E0],"tree_param":{"num_deleted":"0","num_feature":"37","num_nodes":"21","size_leaf_vector":"1"}},{"base_weights":[-3.541224E-3,-1.0278258E1,7.5195625E-2,-3.1660266E-2,-1.2451686E1,2.5978272E0,-7.041692E-2,-1.7695537E-1,-2.9676432E-2,4.504789E0,8.5312444E-1,-5.028805E-1,1.6866879E-1,1.0078842E-1,4.724604E-2,1.9473763E-2,-3.8315266E-2,-9.382397E-3,7.6813884E-3,2.5030428E-3,-4.5331106E-2],"categories":[],"categories_nodes":[],"categories_segments":[],"categories_sizes":[],"default_left":[0,0,0,0,0,0,0,0,0,0,0,0,0,0,0,0,0,0,0,0,0],"id":9,"left_children":[1,3,5,-1,7,9,11,-1,-1,13,15,17,19,-1,-1,-1,-1,-1,-1,-1,-1],"loss_changes":[8.510307E2,1.03956055E2,3.8367215E2,0E0,6.113916E1,1.8580048E2,1.0223993E2,0E0,0E0,4.197821E1,8.751555E1,9.411265E1,7.1047874E1,0E0,0E0,0E0,0E0,0E0,0E0,0E0,0E0],"parents":[2147483647,0,0,1,1,2,2,4,4,5,5,6,6,9,9,10,10,11,11,12,12],"right_children":[2,4,6,-1,8,10,12,-1,-1,14,16,18,20,-1,-1,-1,-1,-1,-1,-1,-1],"split_conditions":[-1.5578336E-1,2.0766155E1,-2.2770582E-1,-3.1660266E-2,-4.5416538E-2,-5.718091E-3,1.0743678E0,-1.7695537E-1,-2.9676432E-2,-8.2075045E-2,8.5390545E-2,1.2874037E-2,3.7623804E-2,1.0078842E-1,4.724604E-2,1.9473763E-2,-3.8315266E-2,-9.382397E-3,7.6813884E-3,2.5030428E-3,-4.5331106E-2],"split_indices":[28,11,15,0,1,1,16,0,0,28,27,17,12,0,0,0,0,0,0,0,0],"split_type":[0,0,0,0,0,0,0,0,0,0,0,0,0,0,0,0,0,0,0,0,0],"sum_hessian":[1.05E3,7E0,1.043E3,2E0,5E0,5.6E1,9.87E2,4E0,1E0,2.6E1,3E1,3.51E2,6.36E2,3E0,2.3E1,2.6E1,4E0,2.89E2,6.2E1,6.32E2,4E0],"tree_param":{"num_deleted":"0","num_feature":"37","num_nodes":"21","size_leaf_vector":"1"}},{"base_weights":[-6.101601E-2,-4.1466646E-4,-6.042327E0,-3.7801124E-2,7.3573227E0,-1.6131063E-1,5.667082E-1,-6.416858E-3,-6.1815567E0,1.110017E-1,1.0437236E-2,2.2565497E-2,-1.5764074E-2,-7.093095E-4,8.734255E-2,-8.6589366E-2,-2.2115804E-2],"categories":[],"categories_nodes":[],"categories_segments":[],"categories_sizes":[],"default_left":[0,0,0,0,0,0,0,0,0,0,0,0,0,0,0,0,0],"id":10,"left_children":[1,3,5,7,9,-1,11,13,15,-1,-1,-1,-1,-1,-1,-1,-1],"loss_changes":[3.6138553E2,2.720569E2,4.5151816E2,1.896925E2,3.932666E1,0E0,1.5495265E1,3.374121E2,2.8624115E0,0E0,0E0,0E0,0E0,0E0,0E0,0E0,0E0],"parents":[2147483647,0,0,1,1,2,2,3,3,4,4,6,6,7,7,8,8],"right_children":[2,4,6,8,10,-1,12,14,16,-1,-1,-1,-1,-1,-1,-1,-1],"split_conditions":[1.8153327E0,3.1292517E-2,-4.5416538E-2,2.6925787E-1,-1.999999E-1,-1.6131063E-1,-2.691881E-2,4.3502595E-2,1.511627E0,1.110017E-1,1.0437236E-2,2.2565497E-2,-1.5764074E-2,-7.093095E-4,8.734255E-2,-8.6589366E-2,-2.2115804E-2],"split_indices":[14,23,1,9,3,0,2,13,14,0,0,0,0,0,0,0,0],"split_type":[0,0,0,0,0,0,0,0,0,0,0,0,0,0,0,0,0],"sum_hessian":[9.96E2,9.87E2,9E0,9.83E2,4E0,4E0,5E0,9.79E2,4E0,3E0,1E0,3E0,2E0,9.73E2,6E0,3E0,1E0],"tree_param":{"num_deleted":"0","num_feature":"37","num_nodes":"17","size_leaf_vector":"1"}},{"base_weights":[-8.697252E-2,-1.4130601E-2,-9.053867E0,4.8912845E0,-8.981691E-2,-1.4806895E-1,-7.098988E-1,9.369397E0,1.715288E0,-1.2110899E-2,-5.4062634E0,-2.2595875E-4,-1.3230784E-2,5.2931573E-2,1.3790631E-1,-3.1958267E-2,4.9228307E-2,1.30408E-2,-2.1644116E-3,-1.6802879E-1,-1.163395E-2],"categories":[],"categories_nodes":[],"categories_segments":[],"categories_sizes":[],"default_left":[0,0,0,0,0,0,0,0,0,0,0,0,0,0,0,0,0,0,0,0,0],"id":11,"left_children":[1,3,5,7,9,-1,11,13,15,17,19,-1,-1,-1,-1,-1,-1,-1,-1,-1,-1],"loss_changes":[6.4846576E2,3.6651428E2,1.6944244E2,1.9726584E2,4.0148703E2,0E0,6.8105376E-1,2.2652588E0,1.023833E2,1.5953555E2,4.832483E2,0E0,0E0,0E0,0E0,0E0,0E0,0E0,0E0,0E0,0E0],"parents":[2147483647,0,0,1,1,2,2,3,3,4,4,6,6,7,7,8,8,9,9,10,10],"right_children":[2,4,6,8,10,-1,12,14,16,18,20,-1,-1,-1,-1,-1,-1,-1,-1,-1,-1],"split_conditions":[1.14412025E-1,-2.9953223E-1,-4.871542E-2,-8.499152E-2,3.56809E-2,-1.4806895E-1,-3.7142865E-2,3.3389185E-2,2.0151015E-3,-8.190338E-1,-9.658456E-2,-2.2595875E-4,-1.3230784E-2,5.2931573E-2,1.3790631E-1,-3.1958267E-2,4.9228307E-2,1.30408E-2,-2.1644116E-3,-1.6802879E-1,-1.163395E-2],"split_indices":[25,15,1,27,12,0,1,25,24,34,3,0,0,0,0,0,0,0,0,0,0],"split_type":[0,0,0,0,0,0,0,0,0,0,0,0,0,0,0,0,0,0,0,0,0],"sum_hessian":[9.92E2,9.85E2,7E0,1.4E1,9.71E2,5E0,2E0,5E0,9E0,9.58E2,1.3E1,1E0,1E0,2E0,3E0,3E0,6E0,1.26E2,8.32E2,4E0,9E0],"tree_param":{"num_deleted":"0","num_feature":"37","num_nodes":"21","size_leaf_vector":"1"}},{"base_weights":[-1.1338513E-2,8.637637E-2,-7.5269957E0,-5.5395937E0,1.4305985E-1,-1.4354305E1,3.755992E-1,-9.018017E0,-1.7176424E0,1.8762709E0,-9.561949E-2,-8.112272E-2,-2.052847E-1,-1.2430653E-2,1.4103545E-2,-1.3102983E-1,-2.284744E-2,-6.3647295E-4,-3.2082036E-2,2.8035138E-2,-6.312244E-2,-9.308399E-4,-8.12883E-2],"categories":[],"categories_nodes":[],"categories_segments":[],"categories_sizes":[],"default_left":[0,0,0,0,0,0,0,0,0,0,0,0,0,0,0,0,0,0,0,0,0,0,0],"id":12,"left_children":[1,3,5,7,9,11,13,15,17,19,21,-1,-1,-1,-1,-1,-1,-1,-1,-1,-1,-1,-1],"loss_changes":[7.438543E2,3.1969205E2,7.067865E2,1.1745392E2,4.1013794E2,7.077637E-1,8.142813E0,2.9941376E1,8.085625E0,2.932273E2,1.20876366E2,0E0,0E0,0E0,0E0,0E0,0E0,0E0,0E0,0E0,0E0,0E0,0E0],"parents":[2147483647,0,0,1,1,2,2,3,3,4,4,5,5,6,6,7,7,8,8,9,9,10,10],"right_children":[2,4,6,8,10,12,14,16,18,20,22,-1,-1,-1,-1,-1,-1,-1,-1,-1,-1,-1,-1],"split_conditions":[1.8153327E0,-4.965127E-2,-6.655322E-2,-7.4348286E-2,-1.9590259E-1,-4.9441908E-2,-1.5268899E-2,5.84916E-2,-3.7142865E-2,8.0498025E-2,1.1440498E-1,-8.112272E-2,-2.052847E-1,-1.2430653E-2,1.4103545E-2,-1.3102983E-1,-2.284744E-2,-6.3647295E-4,-3.2082036E-2,2.8035138E-2,-6.312244E-2,-9.308399E-4,-8.12883E-2],"split_indices":[14,26,6,1,15,5,5,13,1,2,2,0,0,0,0,0,0,0,0,0,0,0,0],"split_type":[0,0,0,0,0,0,0,0,0,0,0,0,0,0,0,0,0,0,0,0,0,0,0],"sum_hessian":[1.011E3,9.99E2,1.2E1,9E0,9.9E2,6E0,6E0,4E0,5E0,1.19E2,8.71E2,2E0,4E0,2E0,4E0,3E0,1E0,2E0,3E0,1.14E2,5E0,8.69E2,2E0],"tree_param":{"num_deleted":"0","num_feature":"37","num_nodes":"23","size_leaf_vector":"1"}},{"base_weights":[1.1626763E-1,1.0256924E-1,7.590841E-2,1.4260077E-1,-4.96777E0,1.4546331E0,6.9671352E-3,-1.4176288E-1,-9.435187E-1,-3.4954812E-2,2.7602049E-2,-1.4904044E-2,1.917158E-3,3.546812E-2,-3.0530801E-2],"categories":[],"categories_nodes":[],"categories_segments":[],"categories_sizes":[],"default_left":[0,0,0,0,0,0,0,0,0,0,0,0,0,0,0],"id":13,"left_children":[1,-1,3,5,7,9,11,-1,13,-1,-1,-1,-1,-1,-1],"loss_changes":[3.2161835E2,0E0,3.3506503E2,1.7474239E2,3.1639127E2,2.8932562E2,1.5317343E2,0E0,5.6476883E1,0E0,0E0,0E0,0E0,0E0,0E0],"parents":[2147483647,0,0,2,2,3,3,4,4,5,5,6,6,8,8],"right_children":[2,-1,4,6,8,10,12,-1,14,-1,-1,-1,-1,-1,-1],"split_conditions":[-3.5776967E-1,1.0256924E-1,4.0126324E-2,-1.9761637E-1,3.0232155E1,-1.0715608E-1,-4.6686217E-2,-1.4176288E-1,-4.4117734E-2,-3.4954812E-2,2.7602049E-2,-1.4904044E-2,1.917158E-3,3.546812E-2,-3.0530801E-2],"split_indices":[15,0,12,15,11,19,25,0,2,0,0,0,0,0,0],"split_type":[0,0,0,0,0,0,0,0,0,0,0,0,0,0,0],"sum_hessian":[9.97E2,4E0,9.93E2,9.81E2,1.2E1,9.1E1,8.9E2,4E0,8E0,1.3E1,7.8E1,9.6E1,7.94E2,2E0,6E0],"tree_param":{"num_deleted":"0","num_feature":"37","num_nodes":"15","size_leaf_vector":"1"}},{"base_weights":[4.020998E-2,-5.1035357E0,9.360091E-2,-7.577041E-1,-8.598778E0,1.3638793E0,-4.912039E-2,-2.9821536E-2,1.6310104E0,-1.18241936E-1,-3.0389614E-2,1.7205541E0,-3.9772687E0,-1.1821886E0,1.1864919E-1,5.026999E-3,2.5890207E-2,8.0851935E-2,1.782226E-2,-1.6743349E-2,-6.032037E-2,-2.3060866E-2,-8.4398774E-4,-4.9283404E-2,2.052917E-3],"categories":[],"categories_nodes":[],"categories_segments":[],"categories_sizes":[],"default_left":[0,0,0,0,0,0,0,0,0,0,0,0,0,0,0,0,0,0,0,0,0,0,0,0,0],"id":14,"left_children":[1,3,5,7,9,11,13,-1,15,-1,-1,17,19,21,23,-1,-1,-1,-1,-1,-1,-1,-1,-1,-1],"loss_changes":[2.9405646E2,1.6057178E2,1.9205923E2,2.681078E1,5.6641846E0,2.1068376E2,1.8130023E2,0E0,7.304268E-1,0E0,0E0,1.3754663E2,8.453888E0,8.804559E1,1.4690024E2,0E0,0E0,0E0,0E0,0E0,0E0,0E0,0E0,0E0,0E0],"parents":[2147483647,0,0,1,1,2,2,3,3,4,4,5,5,6,6,8,8,11,11,12,12,13,13,14,14],"right_children":[2,4,6,8,10,12,14,-1,16,-1,-1,18,20,22,24,-1,-1,-1,-1,-1,-1,-1,-1,-1,-1],"split_conditions":[-1.176967E-1,1.5979958E0,-1.9761637E-1,-3.7028953E-3,-1.5624791E-2,8.0498025E-2,-4.1891184E-2,-2.9821536E-2,1.1223351E-2,-1.18241936E-1,-3.0389614E-2,-2.906249E-2,2.7397335E-2,1.3355169E-2,-9.333153E-2,5.026999E-3,2.5890207E-2,8.0851935E-2,1.782226E-2,-1.6743349E-2,-6.032037E-2,-2.3060866E-2,-8.4398774E-4,-4.9283404E-2,2.052917E-3],"split_indices":[3,14,15,0,1,2,25,0,0,0,0,4,5,6,3,0,0,0,0,0,0,0,0,0,0],"split_type":[0,0,0,0,0,0,0,0,0,0,0,0,0,0,0,0,0,0,0,0,0,0,0,0,0],"sum_hessian":[1.068E3,1E1,1.058E3,5E0,5E0,1.06E2,9.52E2,3E0,2E0,4E0,1E0,1E2,6E0,1.22E2,8.3E2,1E0,1E0,5E0,9.5E1,2E0,4E0,7.7E1,4.5E1,8E0,8.22E2],"tree_param":{"num_deleted":"0","num_feature":"37","num_nodes":"25","size_leaf_vector":"1"}},{"base_weights":[-4.9642723E-2,8.870727E-2,-6.569493E0,-8.849037E-3,3.0095758E0,-1.6478443E-1,-6.302876E-1,6.8492E-2,-1.9936899E0,3.8152862E0,-2.1043181E0,6.8461105E-2,-2.3815682E0,2.3081715E-3,-1.0288911E-2,-7.674433E-2,-1.2326673E-2,1.7030977E-2,7.053804E-2,1.1508338E-2,-3.8995136E-2,-5.5313576E-4,-4.2678848E-2],"categories":[],"categories_nodes":[],"categories_segments":[],"categories_sizes":[],"default_left":[0,0,0,0,0,0,0,0,0,0,0,0,0,0,0,0,0,0,0,0,0,0,0],"id":15,"left_children":[1,3,5,7,9,-1,11,13,15,17,19,-1,21,-1,-1,-1,-1,-1,-1,-1,-1,-1,-1],"loss_changes":[9.116242E2,2.821263E2,7.987531E2,1.4735231E2,1.3987872E2,0E0,1.399965E2,9.3252754E1,1.4360922E2,1.1452841E2,1.760483E1,0E0,2.3128708E1,0E0,0E0,0E0,0E0,0E0,0E0,0E0,0E0,0E0,0E0],"parents":[2147483647,0,0,1,1,2,2,3,3,4,4,6,6,7,7,8,8,9,9,10,10,12,12],"right_children":[2,4,6,8,10,-1,12,14,16,18,20,-1,22,-1,-1,-1,-1,-1,-1,-1,-1,-1,-1],"split_conditions":[3.7623804E-2,2.561967E-2,3.0232155E1,2.2898589E-1,2.6196116E-1,-1.6478443E-1,-1.882718E-1,1.3759204E0,3.1921548E-1,-1.853541E-1,-2.3351489E-2,6.8461105E-2,-1.3639775E-2,2.3081715E-3,-1.0288911E-2,-7.674433E-2,-1.2326673E-2,1.7030977E-2,7.053804E-2,1.1508338E-2,-3.8995136E-2,-5.5313576E-4,-4.2678848E-2],"split_indices":[12,12,11,10,10,0,6,20,36,10,2,0,5,0,0,0,0,0,0,0,0,0,0],"split_type":[0,0,0,0,0,0,0,0,0,0,0,0,0,0,0,0,0,0,0,0,0,0,0],"sum_hessian":[1.009E3,9.89E2,2E1,9.58E2,3.1E1,9E0,1.1E1,9.23E2,3.5E1,2.7E1,4E0,2E0,9E0,8.18E2,1.05E2,6E0,2.9E1,1.2E1,1.5E1,1E0,3E0,3E0,6E0],"tree_param":{"num_deleted":"0","num_feature":"37","num_nodes":"23","size_leaf_vector":"1"}},{"base_weights":[-3.9571416E-2,4.0983124E0,-1.1416294E-1,5.6498203E0,-7.004193E-2,1.056383E-2,-4.600098E0,7.3074956E0,-1.150078E0,1.103752E0,-1.565355E-1,-7.5929666E0,-7.929346E-1,1.2703806E-1,6.281278E-2,1.08117955E-2,-2.6586281E-2,1.6595235E-2,-8.979031E-3,-8.508788E-3,3.5972313E-3,-3.3333465E-2,-1.1569498E-1,-3.276155E-2,2.1970972E-2],"categories":[],"categories_nodes":[],"categories_segments":[],"categories_sizes":[],"default_left":[0,0,0,0,0,0,0,0,0,0,0,0,0,0,0,0,0,0,0,0,0,0,0,0,0],"id":16,"left_children":[1,3,5,7,-1,9,11,13,15,17,19,21,23,-1,-1,-1,-1,-1,-1,-1,-1,-1,-1,-1,-1],"loss_changes":[3.1374866E2,3.0055463E2,5.5844574E2,1.887565E2,0E0,1.7772899E2,3.0162646E2,3.3436523E1,9.451193E0,4.9952744E1,1.9261978E2,9.196161E1,6.3729294E1,0E0,0E0,0E0,0E0,0E0,0E0,0E0,0E0,0E0,0E0,0E0,0E0],"parents":[2147483647,0,0,1,1,2,2,3,3,5,5,6,6,7,7,8,8,9,9,10,10,11,11,12,12],"right_children":[2,4,6,8,-1,10,12,14,16,18,20,22,24,-1,-1,-1,-1,-1,-1,-1,-1,-1,-1,-1,-1],"split_conditions":[-2.9953223E-1,1.2818482E0,1.23268925E-1,1.4133419E-2,-7.004193E-2,-8.190338E-1,1.3261895E0,-3.5776967E-1,2.1433663E-2,-2.7599926E-3,5.755133E-1,1.985934E-2,1.3072896E0,1.2703806E-1,6.281278E-2,1.08117955E-2,-2.6586281E-2,1.6595235E-2,-8.979031E-3,-8.508788E-3,3.5972313E-3,-3.3333465E-2,-1.1569498E-1,-3.276155E-2,2.1970972E-2],"split_indices":[15,20,9,2,0,34,16,15,2,27,22,13,30,0,0,0,0,0,0,0,0,0,0,0,0],"split_type":[0,0,0,0,0,0,0,0,0,0,0,0,0,0,0,0,0,0,0,0,0,0,0,0,0],"sum_hessian":[1.014E3,1.7E1,9.97E2,1.5E1,2E0,9.71E2,2.6E1,1.2E1,3E0,1.28E2,8.43E2,1.4E1,1.2E1,4E0,8E0,1E0,2E0,1.15E2,1.3E1,3.88E2,4.55E2,4E0,1E1,7E0,5E0],"tree_param":{"num_deleted":"0","num_feature":"37","num_nodes":"25","size_leaf_vector":"1"}},{"base_weights":[-6.618175E-2,-3.7251258E0,-3.1572229E-3,-7.364895E-1,-1.0750555E1,-9.095772E-2,2.0799885E0,-3.2357678E0,2.7186298E0,-3.1027062E-2,-1.5430814E-1,9.0882605E-1,-2.593211E-1,2.780861E0,-3.3822906E0,-6.761815E-2,-1.1331361E-2,4.7289167E-2,5.659732E-3,1.3837519E-2,-2.8178146E-2,-1.7931074E-2,-1.4281563E-3,2.7090274E-3,4.9304735E-2,-1.1274079E-2,-4.779148E-2],"categories":[],"categories_nodes":[],"categories_segments":[],"categories_sizes":[],"default_left":[0,0,0,0,0,0,0,0,0,0,0,0,0,0,0,0,0,0,0,0,0,0,0,0,0,0,0],"id":17,"left_children":[1,3,5,7,9,11,13,15,17,-1,-1,19,21,23,25,-1,-1,-1,-1,-1,-1,-1,-1,-1,-1,-1,-1],"loss_changes":[2.3151385E2,3.4902203E2,1.8089561E2,1.21055824E2,3.057788E1,1.5997798E2,1.6254008E2,3.477868E1,1.2267765E1,0E0,0E0,8.2485245E1,1.3777188E2,1.0270761E2,1.6003227E0,0E0,0E0,0E0,0E0,0E0,0E0,0E0,0E0,0E0,0E0,0E0,0E0],"parents":[2147483647,0,0,1,1,2,2,3,3,4,4,5,5,6,6,7,7,8,8,11,11,12,12,13,13,14,14],"right_children":[2,4,6,8,10,12,14,16,18,-1,-1,20,22,24,26,-1,-1,-1,-1,-1,-1,-1,-1,-1,-1,-1,-1],"split_conditions":[-3.0016103E-1,2.0384645E-2,2.561967E-2,-5.9382096E-3,-1.2187665E-1,-8.190338E-1,9.158653E-2,-1.176967E-1,1.3521509E0,-3.1027062E-2,-1.5430814E-1,1.1283492E-1,-7.0033628E-3,2.164867E-2,1.915564E-2,-6.761815E-2,-1.1331361E-2,4.7289167E-2,5.659732E-3,1.3837519E-2,-2.8178146E-2,-1.7931074E-2,-1.4281563E-3,2.7090274E-3,4.9304735E-2,-1.1274079E-2,-4.779148E-2],"split_indices":[10,0,12,23,2,34,35,3,16,0,0,9,21,13,0,0,0,0,0,0,0,0,0,0,0,0,0],"split_type":[0,0,0,0,0,0,0,0,0,0,0,0,0,0,0,0,0,0,0,0,0,0,0,0,0,0,0],"sum_hessian":[1.003E3,1.6E1,9.87E2,1.2E1,4E0,9.48E2,3.9E1,7E0,5E0,1E0,3E0,1.36E2,8.12E2,3.5E1,4E0,3E0,4E0,3E0,2E0,1.29E2,7E0,9E1,7.22E2,1.1E1,2.4E1,1E0,3E0],"tree_param":{"num_deleted":"0","num_feature":"37","num_nodes":"27","size_leaf_vector":"1"}},{"base_weights":[-4.2432886E-2,4.6688944E-2,-4.5855246E0,1.0450805E-1,-3.0049653E0,-9.294486E0,2.2025938E0,6.383954E-2,6.8448405E0,-6.344109E0,-5.2845573E-1,-1.2351302E1,-4.1791196E0,5.209057E0,-1.6881378E-1,2.4824813E-2,-1.542329E-5,9.457114E-2,2.3071816E-2,-3.3521626E-2,-9.013523E-2,-2.7981268E-2,1.2535564E-2,-1.8386215E-1,-5.7764612E-2,-5.7315726E-2,-1.5148286E-2,7.51224E-2,1.897259E-2,1.2526189E-2,-2.0968266E-2],"categories":[],"categories_nodes":[],"categories_segments":[],"categories_sizes":[],"default_left":[0,0,0,0,0,0,0,0,0,0,0,0,0,0,0,0,0,0,0,0,0,0,0,0,0,0,0,0,0,0,0],"id":18,"left_children":[1,3,5,7,9,11,13,15,17,19,21,23,25,27,29,-1,-1,-1,-1,-1,-1,-1,-1,-1,-1,-1,-1,-1,-1,-1,-1],"loss_changes":[4.208934E2,1.8028685E2,6.597718E2,2.7423053E2,1.5376645E2,1.360232E2,6.50453E1,1.2328303E2,5.5712585E0,4.3632812E0,3.295249E1,5.319995E1,9.356384E-1,1.9830399E0,1.2018293E1,0E0,0E0,0E0,0E0,0E0,0E0,0E0,0E0,0E0,0E0,0E0,0E0,0E0,0E0,0E0,0E0],"parents":[2147483647,0,0,1,1,2,2,3,3,4,4,5,5,6,6,7,7,8,8,9,9,10,10,11,11,12,12,13,13,14,14],"right_children":[2,4,6,8,10,12,14,16,18,20,22,24,26,28,30,-1,-1,-1,-1,-1,-1,-1,-1,-1,-1,-1,-1,-1,-1,-1,-1],"split_conditions":[3.7623804E-2,5.910804E-2,2.0643485E-1,3.219045E-2,1.5663157E0,-1.5228409E-2,1.2325588E-2,-2.3838569E-1,2.5153186E-2,1.1044114E0,8.848031E-2,-2.6432028E-2,3.1370686E-3,-1.6464105E-2,1.0130649E-2,2.4824813E-2,-1.542329E-5,9.457114E-2,2.3071816E-2,-3.3521626E-2,-9.013523E-2,-2.7981268E-2,1.2535564E-2,-1.8386215E-1,-5.7764612E-2,-5.7315726E-2,-1.5148286E-2,7.51224E-2,1.897259E-2,1.2526189E-2,-2.0968266E-2],"split_indices":[12,33,10,12,34,23,18,10,0,16,10,2,6,2,0,0,0,0,0,0,0,0,0,0,0,0,0,0,0,0,0],"split_type":[0,0,0,0,0,0,0,0,0,0,0,0,0,0,0,0,0,0,0,0,0,0,0,0,0,0,0,0,0,0,0],"sum_hessian":[1.038E3,1.019E3,1.9E1,1.001E3,1.8E1,1.1E1,8E0,9.96E2,5E0,7E0,1.1E1,6E0,5E0,3E0,5E0,3.2E1,9.64E2,4E0,1E0,2E0,5E0,5E0,6E0,4E0,2E0,4E0,1E0,2E0,1E0,3E0,2E0],"tree_param":{"num_deleted":"0","num_feature":"37","num_nodes":"31","size_leaf_vector":"1"}},{"base_weights":[1.4362462E-3,1.21584624E-1,-5.422397E-2,-5.293042E0,5.926838E-2,-8.8332266E-1,-1.2899636E1,1.5807316E-1,-2.1801531E0,-4.7960732E-2,6.5783877E-3,-1.7824127E-1,-2.8218742E-2,2.942653E-2,9.7419374E-4,1.4463662E-2,-4.2445686E-2],"categories":[],"categories_nodes":[],"categories_segments":[],"categories_sizes":[],"default_left":[0,0,0,0,0,0,0,0,0,0,0,0,0,0,0,0,0],"id":19,"left_children":[1,-1,3,5,7,9,11,13,15,-1,-1,-1,-1,-1,-1,-1,-1],"loss_changes":[5.584446E2,0E0,6.168785E2,7.265503E2,2.2515042E2,6.329423E1,7.131531E1,1.7102487E2,1.7234192E2,0E0,0E0,0E0,0E0,0E0,0E0,0E0,0E0],"parents":[2147483647,0,0,2,2,3,3,4,4,5,5,6,6,7,7,8,8],"right_children":[2,-1,4,6,8,10,12,14,16,-1,-1,-1,-1,-1,-1,-1,-1],"split_conditions":[-3.5776967E-1,1.21584624E-1,-9.333153E-2,5.4486934E-2,2.2898589E-1,6.1793375E-1,-2.6432028E-2,-2.2770582E-1,-1.14119565E-2,-4.7960732E-2,6.5783877E-3,-1.7824127E-1,-2.8218742E-2,2.942653E-2,9.7419374E-4,1.4463662E-2,-4.2445686E-2],"split_indices":[15,0,3,25,10,14,2,15,4,0,0,0,0,0,0,0,0],"split_type":[0,0,0,0,0,0,0,0,0,0,0,0,0,0,0,0,0],"sum_hessian":[1.041E3,5E0,1.036E3,2.1E1,1.015E3,1.4E1,7E0,9.73E2,4.2E1,4E0,1E1,6E0,1E0,3.4E1,9.39E2,1.1E1,3.1E1],"tree_param":{"num_deleted":"0","num_feature":"37","num_nodes":"17","size_leaf_vector":"1"}},{"base_weights":[2.5776198E-2,7.408096E-2,-4.7493114E0,1.6941079E0,-1.1026229E-1,-7.304096E-2,-4.1818708E-1,-9.194846E-2,1.9488169E0,-7.35634E-2,-8.202327E0,2.8750577E-3,-1.08021535E-2,8.548959E-2,1.8337721E-2,-1.3403197E-4,-2.6207276E-2,1.876132E-2,-1.507139E-1],"categories":[],"categories_nodes":[],"categories_segments":[],"categories_sizes":[],"default_left":[0,0,0,0,0,0,0,0,0,0,0,0,0,0,0,0,0,0,0],"id":20,"left_children":[1,3,5,7,9,-1,11,-1,13,15,17,-1,-1,-1,-1,-1,-1,-1,-1],"loss_changes":[2.3031932E2,2.9524414E2,4.2215515E1,2.4494089E2,2.631058E2,0E0,1.0402005E0,0E0,2.274975E2,1.11426315E2,1.6199625E2,0E0,0E0,0E0,0E0,0E0,0E0,0E0,0E0],"parents":[2147483647,0,0,1,1,2,2,3,3,4,4,6,6,8,8,9,9,10,10],"right_children":[2,4,6,8,10,-1,12,-1,14,16,18,-1,-1,-1,-1,-1,-1,-1,-1],"split_conditions":[9.056818E-2,-1.9901009E-1,1.5663157E0,-4.9159187E-1,2.9555133E-2,-7.304096E-2,2.872423E-4,-9.194846E-2,-7.069954E-2,2.2898589E-1,-1.6295997E-2,2.8750577E-3,-1.08021535E-2,8.548959E-2,1.8337721E-2,-1.3403197E-4,-2.6207276E-2,1.876132E-2,-1.507139E-1],"split_indices":[33,15,34,10,12,0,0,0,27,10,0,0,0,0,0,0,0,0,0],"split_type":[0,0,0,0,0,0,0,0,0,0,0,0,0,0,0,0,0,0,0],"sum_hessian":[9.96E2,9.87E2,9E0,1E2,8.87E2,7E0,2E0,2E0,9.8E1,8.84E2,3E0,1E0,1E0,8E0,9E1,8.58E2,2.6E1,1E0,2E0],"tree_param":{"num_deleted":"0","num_feature":"37","num_nodes":"19","size_leaf_vector":"1"}},{"base_weights":[6.2842384E-2,1.1676087E-1,7.5541586E-3,-1.00734E1,6.8520054E-2,-1.4078818E-1,-2.9929437E-2,1.4372238E0,-9.512269E-2,2.3222156E-2,-2.7645228E-2,-1.3878236E-2,7.801251E-4],"categories":[],"categories_nodes":[],"categories_segments":[],"categories_sizes":[],"default_left":[0,0,0,0,0,0,0,0,0,0,0,0,0],"id":21,"left_children":[1,-1,3,5,7,-1,-1,9,11,-1,-1,-1,-1],"loss_changes":[5.0830203E2,0E0,6.134408E2,2.295813E1,2.2232332E2,0E0,0E0,1.578559E2,1.3962648E2,0E0,0E0,0E0,0E0],"parents":[2147483647,0,0,2,2,3,3,4,4,7,7,8,8],"right_children":[2,-1,4,6,8,-1,-1,10,12,-1,-1,-1,-1],"split_conditions":[-3.5776967E-1,1.1676087E-1,-4.9159187E-1,-4.5416538E-2,-1.9590259E-1,-1.4078818E-1,-2.9929437E-2,8.0380356E-1,-4.1891184E-2,2.3222156E-2,-2.7645228E-2,-1.3878236E-2,7.801251E-4],"split_indices":[15,0,10,1,15,0,0,8,25,0,0,0,0],"split_type":[0,0,0,0,0,0,0,0,0,0,0,0,0],"sum_hessian":[1.001E3,5E0,9.96E2,5E0,9.91E2,4E0,1E0,1.05E2,8.86E2,9.5E1,1E1,1.19E2,7.67E2],"tree_param":{"num_deleted":"0","num_feature":"37","num_nodes":"13","size_leaf_vector":"1"}},{"base_weights":[-4.5867432E-2,6.6877E0,-9.3384184E-2,1.2003929E-1,-6.431863E-2,-4.3668807E-2,-4.1456914E0,-8.695939E-2,-1.5630117E-2,-8.2333945E-2,-1.5224562E0,2.8861628E-3,-7.4413917E-3,-2.6504861E-2,1.2175833E-2],"categories":[],"categories_nodes":[],"categories_segments":[],"categories_sizes":[],"default_left":[0,0,0,0,0,0,0,0,0,0,0,0,0,0,0],"id":22,"left_children":[1,3,5,-1,-1,7,9,-1,11,-1,13,-1,-1,-1,-1],"loss_changes":[3.1962195E2,2.8010028E2,1.9946779E2,0E0,0E0,1.8777359E2,6.466977E1,0E0,1.367911E2,0E0,1.2025064E1,0E0,0E0,0E0,0E0],"parents":[2147483647,0,0,1,1,2,2,5,5,6,6,8,8,10,10],"right_children":[2,4,6,-1,-1,8,10,-1,12,-1,14,-1,-1,-1,-1],"split_conditions":[-3.5776967E-1,1.8153327E0,1.02330245E-1,1.2003929E-1,-6.431863E-2,-1.5578336E-1,7.973436E-2,-8.695939E-2,2.2744747E-2,-8.2333945E-2,8.8586114E-2,2.8861628E-3,-7.4413917E-3,-2.6504861E-2,1.2175833E-2],"split_indices":[15,14,27,0,0,28,35,0,28,0,3,0,0,0,0],"split_type":[0,0,0,0,0,0,0,0,0,0,0,0,0,0,0],"sum_hessian":[9.96E2,6E0,9.9E2,5E0,1E0,9.79E2,1.1E1,3E0,9.76E2,5E0,6E0,6.85E2,2.91E2,5E0,1E0],"tree_param":{"num_deleted":"0","num_feature":"37","num_nodes":"15","size_leaf_vector":"1"}},{"base_weights":[1.3106947E-2,1.2278134E-1,-2.5523916E-2,7.275346E-2,-4.4200425E0,2.4219255E0,-3.7168253E-2,-1.1147183E1,-1.2006657E0,-4.0794473E-2,3.4977797E-2,-3.3833034E-2,3.412809E-5,-1.6131665E-1,-9.093787E-3,4.4459213E-2,-2.686766E-2],"categories":[],"categories_nodes":[],"categories_segments":[],"categories_sizes":[],"default_left":[0,0,0,0,0,0,0,0,0,0,0,0,0,0,0,0,0],"id":23,"left_children":[1,-1,3,5,7,9,11,13,15,-1,-1,-1,-1,-1,-1,-1,-1],"loss_changes":[3.7807135E2,0E0,4.3436273E2,2.5418341E2,4.630744E2,9.492865E1,9.905403E1,1.0891669E2,7.734819E1,0E0,0E0,0E0,0E0,0E0,0E0,0E0,0E0],"parents":[2147483647,0,0,2,2,3,3,4,4,5,5,6,6,7,7,8,8],"right_children":[2,-1,4,6,8,10,12,14,16,-1,-1,-1,-1,-1,-1,-1,-1],"split_conditions":[-3.5776967E-1,1.2278134E-1,3.7623804E-2,-2.2770582E-1,-1.1124825E0,-2.393202E-1,-1.9206503E-2,-9.658456E-2,-1.852159E-1,-4.0794473E-2,3.4977797E-2,-3.3833034E-2,3.412809E-5,-1.6131665E-1,-9.093787E-3,4.4459213E-2,-2.686766E-2],"split_indices":[15,0,12,15,32,19,21,3,19,0,0,0,0,0,0,0,0],"split_type":[0,0,0,0,0,0,0,0,0,0,0,0,0,0,0,0,0],"sum_hessian":[1.007E3,3E0,1.004E3,9.83E2,2.1E1,4.3E1,9.4E2,6E0,1.5E1,2E0,4.1E1,1.3E1,9.27E2,5E0,1E0,2E0,1.3E1],"tree_param":{"num_deleted":"0","num_feature":"37","num_nodes":"17","size_leaf_vector":"1"}},{"base_weights":[4.9274694E-3,1.223184E-1,-4.5151517E-2,-6.134626E0,5.694102E-3,-6.1670583E-1,-1.4530766E-1,1.4463044E0,-1.433411E-1,-2.3397977E-2,1.0408876E-2,2.3833312E-2,-3.4374993E-2,-1.0734784E-2,7.6528685E-4],"categories":[],"categories_nodes":[],"categories_segments":[],"categories_sizes":[],"default_left":[0,0,0,0,0,0,0,0,0,0,0,0,0,0,0],"id":24,"left_children":[1,-1,3,5,7,9,-1,11,13,-1,-1,-1,-1,-1,-1],"loss_changes":[4.7038055E2,0E0,2.9913086E2,2.2968256E2,2.0610617E2,1.0417919E1,0E0,1.6999141E2,1.25310844E2,0E0,0E0,0E0,0E0,0E0,0E0],"parents":[2147483647,0,0,2,2,3,3,4,4,5,5,7,7,8,8],"right_children":[2,-1,4,6,8,10,-1,12,14,-1,-1,-1,-1,-1,-1],"split_conditions":[-3.5776967E-1,1.223184E-1,-9.658456E-2,5.349812E-2,-1.9590259E-1,-9.751211E-2,-1.4530766E-1,3.9098054E-2,-2.8518343E-2,-2.3397977E-2,1.0408876E-2,2.3833312E-2,-3.4374993E-2,-1.0734784E-2,7.6528685E-4],"split_indices":[15,0,3,25,15,2,0,13,25,0,0,0,0,0,0],"split_type":[0,0,0,0,0,0,0,0,0,0,0,0,0,0,0],"sum_hessian":[9.69E2,4E0,9.65E2,7E0,9.58E2,4E0,3E0,8.9E1,8.69E2,2E0,2E0,8.1E1,8E0,1.94E2,6.75E2],"tree_param":{"num_deleted":"0","num_feature":"37","num_nodes":"15","size_leaf_vector":"1"}},{"base_weights":[-6.1025932E-2,-7.621294E0,-3.081447E-2,-1.1842412E-1,-1.4988048E-2,5.3685713E0,-7.9622164E-2,1.602562E0,1.2227089E-1,-4.4800688E-2,-5.8118954E0,3.626985E-2,-7.855881E-3,-7.449338E-2,-1.9069838E-4,-1.1945087E-2,-8.335754E-2],"categories":[],"categories_nodes":[],"categories_segments":[],"categories_sizes":[],"default_left":[0,0,0,0,0,0,0,0,0,0,0,0,0,0,0,0,0],"id":25,"left_children":[1,3,5,-1,-1,7,9,11,-1,13,15,-1,-1,-1,-1,-1,-1],"loss_changes":[2.2954234E2,3.3926193E1,2.647496E2,0E0,0E0,1.3047198E2,1.9834781E2,1.8699463E1,0E0,1.7197792E2,1.666629E1,0E0,0E0,0E0,0E0,0E0,0E0],"parents":[2147483647,0,0,1,1,2,2,5,5,6,6,7,7,9,9,10,10],"right_children":[2,4,6,-1,-1,8,10,12,-1,14,16,-1,-1,-1,-1,-1,-1],"split_conditions":[-4.9159187E-1,6.787984E-1,-3.415936E-2,-1.1842412E-1,-1.4988048E-2,1.6425772E-2,1.4268453E-1,-2.7526274E-1,1.2227089E-1,-1.176967E-1,7.407404E-2,3.626985E-2,-7.855881E-3,-7.449338E-2,-1.9069838E-4,-1.1945087E-2,-8.335754E-2],"split_indices":[10,19,21,0,0,13,29,10,0,3,3,0,0,0,0,0,0],"split_type":[0,0,0,0,0,0,0,0,0,0,0,0,0,0,0,0,0],"sum_hessian":[1.005E3,3E0,1.002E3,2E0,1E0,8E0,9.94E2,5E0,3E0,9.89E2,5E0,3E0,2E0,4E0,9.85E2,1E0,4E0],"tree_param":{"num_deleted":"0","num_feature":"37","num_nodes":"17","size_leaf_vector":"1"}},{"base_weights":[3.4340252E-3,1.15543954E-1,-6.3492045E-2,-7.0730205E0,2.558503E-2,-2.264274E0,-1.0184372E1,5.0410915E-2,-7.3641084E-2,-3.358128E-2,-1.889315E-3,-1.4126782E-1,-2.6654774E-2,1.5339161E-2,-1.0494008E-3],"categories":[],"categories_nodes":[],"categories_segments":[],"categories_sizes":[],"default_left":[0,0,0,0,0,0,0,0,0,0,0,0,0,0,0],"id":26,"left_children":[1,-1,3,5,7,9,11,13,-1,-1,-1,-1,-1,-1,-1],"loss_changes":[5.890206E2,0E0,5.970961E2,1.5648016E2,1.3760532E2,4.590025E0,3.2626648E1,1.463525E2,0E0,0E0,0E0,0E0,0E0,0E0,0E0],"parents":[2147483647,0,0,2,2,3,3,4,4,5,5,6,6,7,7],"right_children":[2,-1,4,6,8,10,12,14,-1,-1,-1,-1,-1,-1,-1],"split_conditions":[-3.5776967E-1,1.15543954E-1,-9.046886E-2,-1.3105129E0,1.4268453E-1,-1.176967E-1,-3.214943E-2,-1.9459634E-1,-7.3641084E-2,-3.358128E-2,-1.889315E-3,-1.4126782E-1,-2.6654774E-2,1.5339161E-2,-1.0494008E-3],"split_indices":[15,0,6,36,29,3,2,15,0,0,0,0,0,0,0],"split_type":[0,0,0,0,0,0,0,0,0,0,0,0,0,0,0],"sum_hessian":[9.61E2,6E0,9.55E2,1.1E1,9.44E2,5E0,6E0,9.41E2,3E0,4E0,1E0,5E0,1E0,9.6E1,8.45E2],"tree_param":{"num_deleted":"0","num_feature":"37","num_nodes":"15","size_leaf_vector":"1"}},{"base_weights":[1.658539E-1,2.3075321E-1,-6.3536434E0,-2.6049413E-2,9.637286E-1,-1.2949531E1,2.0186956E-1,1.7818989E0,-1.09925985E-1,1.0861324E0,-3.615454E0,-4.5762036E-2,-1.8167688E-1,2.336952E-2,-1.0841393E0,3.858685E-2,1.3854261E-2,1.8464196E-2,-2.3827082E-3,1.0864251E-2,3.5552103E-2,-7.681734E-2,-3.1390404E-3,-1.55517915E-2,-4.0733716E-3],"categories":[],"categories_nodes":[],"categories_segments":[],"categories_sizes":[],"default_left":[0,0,0,0,0,0,0,0,0,0,0,0,0,0,0,0,0,0,0,0,0,0,0,0,0],"id":27,"left_children":[1,3,5,7,9,11,13,15,17,19,21,-1,-1,-1,23,-1,-1,-1,-1,-1,-1,-1,-1,-1,-1],"loss_changes":[4.2923132E2,1.8863158E2,4.3500842E2,1.1286774E2,1.4965923E2,1.4487732E1,1.4716193E1,2.5420288E1,8.80943E1,9.691574E1,5.654612E1,0E0,0E0,0E0,4.9726486E-2,0E0,0E0,0E0,0E0,0E0,0E0,0E0,0E0,0E0,0E0],"parents":[2147483647,0,0,1,1,2,2,3,3,4,4,5,5,6,6,7,7,8,8,9,9,10,10,14,14],"right_children":[2,4,6,8,10,12,14,16,18,20,22,-1,-1,-1,24,-1,-1,-1,-1,-1,-1,-1,-1,-1,-1],"split_conditions":[1.8153327E0,1.2980992E-2,-9.658456E-2,2.7009996E1,2.6925787E-1,-4.9441908E-2,-5.297479E-2,-1.907779E-1,-1.4409307E0,2.8695403E-2,1.511627E0,-4.5762036E-2,-1.8167688E-1,2.336952E-2,7.720645E-3,3.858685E-2,1.3854261E-2,1.8464196E-2,-2.3827082E-3,1.0864251E-2,3.5552103E-2,-7.681734E-2,-3.1390404E-3,-1.55517915E-2,-4.0733716E-3],"split_indices":[14,12,3,11,9,5,3,10,34,12,14,0,0,0,0,0,0,0,0,0,0,0,0,0,0],"split_type":[0,0,0,0,0,0,0,0,0,0,0,0,0,0,0,0,0,0,0,0,0,0,0,0,0],"sum_hessian":[1.01E3,1.001E3,9E0,7.42E2,2.59E2,4E0,5E0,3.2E1,7.1E2,2.53E2,6E0,1E0,3E0,2E0,3E0,1E1,2.2E1,3.3E1,6.77E2,2.25E2,2.8E1,3E0,3E0,2E0,1E0],"tree_param":{"num_deleted":"0","num_feature":"37","num_nodes":"25","size_leaf_vector":"1"}},{"base_weights":[-5.7354618E-2,-9.443659E0,-1.31567E-3,-1.3205296E-1,-2.7892953E-2,-1.6360585E-1,1.6127803E0,-1.3058102E-1,-7.769384E-2,3.0413375E0,-2.3838453E-1,-1.1364741E-2,6.914853E-4,5.0425835E-2,-3.3823594E-2,-1.1907131E-2,2.5751479E-2],"categories":[],"categories_nodes":[],"categories_segments":[],"categories_sizes":[],"default_left":[0,0,0,0,0,0,0,0,0,0,0,0,0,0,0,0,0],"id":28,"left_children":[1,3,5,-1,-1,7,9,11,-1,13,15,-1,-1,-1,-1,-1,-1],"loss_changes":[5.317722E2,2.0608582E1,2.637875E2,0E0,0E0,1.800321E2,2.4401854E2,1.2981566E2,0E0,2.9281992E2,6.76034E1,0E0,0E0,0E0,0E0,0E0,0E0],"parents":[2147483647,0,0,1,1,2,2,5,5,6,6,7,7,9,9,10,10],"right_children":[2,4,6,-1,-1,8,10,12,-1,14,16,-1,-1,-1,-1,-1,-1],"split_conditions":[-4.9159187E-1,-4.5416538E-2,2.0648066E-2,-1.3205296E-1,-2.7892953E-2,5.5483006E-2,1.4028728E0,-3.1928875E-2,-7.769384E-2,4.811193E-2,7.587865E-3,-1.1364741E-2,6.914853E-4,5.0425835E-2,-3.3823594E-2,-1.1907131E-2,2.5751479E-2],"split_indices":[10,1,12,0,0,1,14,25,0,18,23,0,0,0,0,0,0],"split_type":[0,0,0,0,0,0,0,0,0,0,0,0,0,0,0,0,0],"sum_hessian":[1.01E3,5E0,1.005E3,4E0,1E0,9.14E2,9.1E1,9.1E2,4E0,5.1E1,4E1,1.76E2,7.34E2,4.4E1,7E0,3.1E1,9E0],"tree_param":{"num_deleted":"0","num_feature":"37","num_nodes":"17","size_leaf_vector":"1"}},{"base_weights":[-6.0898077E-2,-6.1465497E0,3.624183E-2,-3.2731503E-1,-9.605359E0,1.3070855E0,-1.012625E-1,-1.4687713E0,1.6842172E0,-1.2193713E1,4.9870524E-1,1.8125137E0,-3.3219337E0,-3.0279092E-2,-2.708641E0,-2.7104357E-2,-3.8310022E-3,5.1650247E-3,2.676076E-2,-1.6313767E-1,-4.5397647E-2,3.7170094E-2,-2.7716707E-2,6.013712E-3,3.0164132E-2,-5.0731912E-2,-4.6484764E-3,-3.5579987E-2,1.02161765E-4,-5.5969164E-2,-1.1529533E-2],"categories":[],"categories_nodes":[],"categories_segments":[],"categories_sizes":[],"default_left":[0,0,0,0,0,0,0,0,0,0,0,0,0,0,0,0,0,0,0,0,0,0,0,0,0,0,0,0,0,0,0],"id":29,"left_children":[1,3,5,7,9,11,13,15,17,19,21,23,25,27,29,-1,-1,-1,-1,-1,-1,-1,-1,-1,-1,-1,-1,-1,-1,-1,-1],"loss_changes":[6.0202325E2,3.18898E2,1.7540309E2,1.8546263E1,2.6761E2,2.3530548E2,1.6760103E2,3.2897635E0,7.9288673E-1,2.8638916E0,2.6177284E1,6.7196594E1,1.8981705E1,9.4371056E1,7.012187E1,0E0,0E0,0E0,0E0,0E0,0E0,0E0,0E0,0E0,0E0,0E0,0E0,0E0,0E0,0E0,0E0],"parents":[2147483647,0,0,1,1,2,2,3,3,4,4,5,5,6,6,7,7,8,8,9,9,10,10,11,11,12,12,13,13,14,14],"right_children":[2,4,6,8,10,12,14,16,18,20,22,24,26,28,30,-1,-1,-1,-1,-1,-1,-1,-1,-1,-1,-1,-1,-1,-1,-1,-1],"split_conditions":[-3.0016103E-1,2.2864833E-2,-1.9761637E-1,-7.602667E-2,8.332867E-2,9.056818E-2,2.3732637E-1,-7.4348286E-2,-2.981848E-2,-1.845467E-2,-5.0408754E-2,-1.1317362E-1,1.4065468E0,-5.570525E-2,-1.6458623E-2,-2.7104357E-2,-3.8310022E-3,5.1650247E-3,2.676076E-2,-1.6313767E-1,-4.5397647E-2,3.7170094E-2,-2.7716707E-2,6.013712E-3,3.0164132E-2,-5.0731912E-2,-4.6484764E-3,-3.5579987E-2,1.02161765E-4,-5.5969164E-2,-1.1529533E-2],"split_indices":[10,13,15,2,13,33,10,1,0,33,0,10,34,6,24,0,0,0,0,0,0,0,0,0,0,0,0,0,0,0,0],"split_type":[0,0,0,0,0,0,0,0,0,0,0,0,0,0,0,0,0,0,0,0,0,0,0,0,0,0,0,0,0,0,0],"sum_hessian":[1.017E3,1.5E1,1.002E3,6E0,9E0,9.7E1,9.05E2,4E0,2E0,7E0,2E0,8.8E1,9E0,8.82E2,2.3E1,2E0,2E0,1E0,1E0,6E0,1E0,1E0,1E0,2.7E1,6.1E1,7E0,2E0,1.1E1,8.71E2,1.1E1,1.2E1],"tree_param":{"num_deleted":"0","num_feature":"37","num_nodes":"31","size_leaf_vector":"1"}},{"base_weights":[-5.0691194E-3,8.059827E-2,-2.0283306E0,4.4093996E-2,4.565112E0,-4.7108665E0,1.158002E0,9.781798E-1,-1.2224159E-1,5.9296308E0,3.1437096E-1,-2.576481E0,-9.221393E0,6.53859E0,-5.9580696E-1,1.5506793E-2,-1.6770303E-2,-2.2139594E-2,-3.4668323E-4,3.2172877E-2,8.8271596E-2,-3.4042671E-3,9.363439E-3,-4.327587E-2,6.945028E-2,-1.2677458E-1,-2.7541576E-2,9.063397E-2,2.5306381E-2,-3.6188863E-2,4.6267968E-2],"categories":[],"categories_nodes":[],"categories_segments":[],"categories_sizes":[],"default_left":[0,0,0,0,0,0,0,0,0,0,0,0,0,0,0,0,0,0,0,0,0,0,0,0,0,0,0,0,0,0,0],"id":30,"left_children":[1,3,5,7,9,11,13,15,17,19,21,23,25,27,29,-1,-1,-1,-1,-1,-1,-1,-1,-1,-1,-1,-1,-1,-1,-1,-1],"loss_changes":[1.792108E2,1.6219301E2,3.6444815E2,1.531607E2,4.453763E1,1.9766693E2,1.926262E2,8.711755E1,1.292751E2,3.6443481E0,9.466326E-1,1.3518686E2,1.808606E1,3.3416748E-3,1.6495483E2,0E0,0E0,0E0,0E0,0E0,0E0,0E0,0E0,0E0,0E0,0E0,0E0,0E0,0E0,0E0,0E0],"parents":[2147483647,0,0,1,1,2,2,3,3,4,4,5,5,6,6,7,7,8,8,9,9,10,10,11,11,12,12,13,13,14,14],"right_children":[2,4,6,8,10,12,14,16,18,20,22,24,26,28,30,-1,-1,-1,-1,-1,-1,-1,-1,-1,-1,-1,-1,-1,-1,-1,-1],"split_conditions":[1.0648481E-1,2.9555133E-2,1.3007022E0,-7.265921E-1,8.163296E-3,3.7623804E-2,-6.885045E-2,1.5906485E-2,-1.1818643E-2,2.8264945E-2,-1.8969202E-2,4.3502595E-2,-1.5624791E-2,-1.0765705E-1,2.0683959E0,1.5506793E-2,-1.6770303E-2,-2.2139594E-2,-3.4668323E-4,3.2172877E-2,8.8271596E-2,-3.4042671E-3,9.363439E-3,-4.327587E-2,6.945028E-2,-1.2677458E-1,-2.7541576E-2,9.063397E-2,2.5306381E-2,-3.6188863E-2,4.6267968E-2],"split_indices":[9,12,16,34,24,12,1,28,21,13,1,13,1,3,16,0,0,0,0,0,0,0,0,0,0,0,0,0,0,0,0],"split_type":[0,0,0,0,0,0,0,0,0,0,0,0,0,0,0,0,0,0,0,0,0,0,0,0,0,0,0,0,0,0,0],"sum_hessian":[1.032E3,9.91E2,4.1E1,9.84E2,7E0,2.2E1,1.9E1,1.48E2,8.36E2,5E0,2E0,1.6E1,6E0,4E0,1.5E1,1.34E2,1.4E1,4.5E1,7.91E2,2E0,3E0,1E0,1E0,1.5E1,1E0,5E0,1E0,3E0,1E0,1E1,5E0],"tree_param":{"num_deleted":"0","num_feature":"37","num_nodes":"31","size_leaf_vector":"1"}},{"base_weights":[-1.3207309E-1,-3.373106E-2,-3.0292785E0,-2.8433886E-1,6.761343E-1,2.1343393E0,-5.2697167E0,2.689088E0,-3.3276126E-1,7.5273824E-1,-3.4118574E0,4.9746327E0,-4.079832E0,-3.1241486E0,-9.170334E0,5.3751427E-3,4.292125E-2,-1.6337633E-2,-1.6514218E-3,1.0822631E-2,-1.824635E-2,-7.4582906E-3,-5.0166428E-2,8.929044E-2,-1.0939215E-2,-1.1995085E-2,-6.0747035E-2,-5.0740167E-2,9.797968E-3,-1.2933853E-1,-1.0866003E-2],"categories":[],"categories_nodes":[],"categories_segments":[],"categories_sizes":[],"default_left":[0,0,0,0,0,0,0,0,0,0,0,0,0,0,0,0,0,0,0,0,0,0,0,0,0,0,0,0,0,0,0],"id":31,"left_children":[1,3,5,7,9,11,13,15,17,19,21,23,25,27,29,-1,-1,-1,-1,-1,-1,-1,-1,-1,-1,-1,-1,-1,-1,-1,-1],"loss_changes":[2.950719E2,1.7862372E2,4.0458545E2,1.0772836E2,8.46152E1,2.1444643E2,1.7220746E2,1.7769745E1,1.4165245E2,5.9988297E1,5.5278053E0,1.0381352E2,4.5431213E0,6.217714E1,6.196393E1,0E0,0E0,0E0,0E0,0E0,0E0,0E0,0E0,0E0,0E0,0E0,0E0,0E0,0E0,0E0,0E0],"parents":[2147483647,0,0,1,1,2,2,3,3,4,4,5,5,6,6,7,7,8,8,9,9,10,10,11,11,12,12,13,13,14,14],"right_children":[2,4,6,8,10,12,14,16,18,20,22,24,26,28,30,-1,-1,-1,-1,-1,-1,-1,-1,-1,-1,-1,-1,-1,-1,-1,-1],"split_conditions":[1.23268925E-1,1.2980992E-2,-3.111795E-1,-4.2963468E-2,3.7623804E-2,4.2048258E-1,5.657065E-2,-1.8602135E0,-3.422842E-2,1.5972017E0,-4.0617608E-2,-3.320229E-3,1.4142594E-1,3.8217E-2,-3.5525218E-2,5.3751427E-3,4.292125E-2,-1.6337633E-2,-1.6514218E-3,1.0822631E-2,-1.824635E-2,-7.4582906E-3,-5.0166428E-2,8.929044E-2,-1.0939215E-2,-1.1995085E-2,-6.0747035E-2,-5.0740167E-2,9.797968E-3,-1.2933853E-1,-1.0866003E-2],"split_indices":[9,12,15,18,12,19,25,34,25,34,0,7,8,24,6,0,0,0,0,0,0,0,0,0,0,0,0,0,0,0,0],"split_type":[0,0,0,0,0,0,0,0,0,0,0,0,0,0,0,0,0,0,0,0,0,0,0,0,0,0,0,0,0,0,0],"sum_hessian":[1.035E3,1.002E3,3.3E1,7.41E2,2.61E2,1E1,2.3E1,1.1E1,7.3E2,2.57E2,4E0,7E0,3E0,1.6E1,7E0,3E0,8E0,1.26E2,6.04E2,2.46E2,1.1E1,1E0,3E0,5E0,2E0,1E0,2E0,1.3E1,3E0,6E0,1E0],"tree_param":{"num_deleted":"0","num_feature":"37","num_nodes":"31","size_leaf_vector":"1"}},{"base_weights":[-5.8824536E-3,7.326062E-2,-7.777144E0,3.855899E-2,3.4424033E0,-1.3321349E1,4.313304E-1,-5.1836734E0,6.0054217E-2,5.8896743E-2,1.2921224E0,-4.3492515E-2,-1.8461709E-1,1.202947E-2,-1.0431875E-2,-8.62189E-2,-1.6863013E-3,1.1999123E-2,-1.3443934E-3,1.649557E-3,1.9586297E-2],"categories":[],"categories_nodes":[],"categories_segments":[],"categories_sizes":[],"default_left":[0,0,0,0,0,0,0,0,0,0,0,0,0,0,0,0,0,0,0,0,0],"id":32,"left_children":[1,3,5,7,9,11,13,15,17,-1,19,-1,-1,-1,-1,-1,-1,-1,-1,-1,-1],"loss_changes":[6.100759E2,1.1467755E2,4.6084045E2,1.0953355E2,2.0171982E1,2.6049805E1,4.0571303E0,3.219757E1,1.4369801E2,0E0,1.2947779E0,0E0,0E0,0E0,0E0,0E0,0E0,0E0,0E0,0E0,0E0],"parents":[2147483647,0,0,1,1,2,2,3,3,4,4,5,5,6,6,7,7,8,8,10,10],"right_children":[2,4,6,8,10,12,14,16,18,-1,20,-1,-1,-1,-1,-1,-1,-1,-1,-1,-1],"split_conditions":[1.8153327E0,9.440823E-2,-9.658456E-2,-5.7551563E-2,7.3799634E-1,1.5207508E-1,5.9851464E-3,-7.4348286E-2,-7.642167E-1,5.8896743E-2,1.7789984E-2,-4.3492515E-2,-1.8461709E-1,1.202947E-2,-1.0431875E-2,-8.62189E-2,-1.6863013E-3,1.1999123E-2,-1.3443934E-3,1.649557E-3,1.9586297E-2],"split_indices":[14,3,3,17,8,8,1,1,34,0,1,0,0,0,0,0,0,0,0,0,0],"split_type":[0,0,0,0,0,0,0,0,0,0,0,0,0,0,0,0,0,0,0,0,0],"sum_hessian":[9.9E2,9.81E2,9E0,9.72E2,9E0,5E0,4E0,3E0,9.69E2,5E0,4E0,1E0,4E0,3E0,1E0,2E0,1E0,1.52E2,8.17E2,1E0,3E0],"tree_param":{"num_deleted":"0","num_feature":"37","num_nodes":"21","size_leaf_vector":"1"}},{"base_weights":[-6.821121E-2,-3.8851323E0,2.3280127E-2,-1.7351237E-1,-1.0051887E1,6.143282E-2,-5.4086285E0,6.133565E-2,-1.2383492E0,-1.3990784E-1,-1.1995111E-2,1.0263888E-1,3.7043534E-2,-2.1744173E-3,-7.901703E-2,-5.4043396E-3,-3.991067E-2,1.6637847E-2,-1.1012253E-3],"categories":[],"categories_nodes":[],"categories_segments":[],"categories_sizes":[],"default_left":[0,0,0,0,0,0,0,0,0,0,0,0,0,0,0,0,0,0,0],"id":33,"left_children":[1,3,5,7,9,11,13,-1,15,-1,-1,-1,17,-1,-1,-1,-1,-1,-1],"loss_changes":[3.5803607E2,5.4758344E2,2.079887E2,9.165866E1,7.298779E1,1.9550272E2,2.9864822E1,0E0,2.0439016E1,0E0,0E0,0E0,1.5805945E2,0E0,0E0,0E0,0E0,0E0,0E0],"parents":[2147483647,0,0,1,1,2,2,3,3,4,4,5,5,6,6,8,8,12,12],"right_children":[2,4,6,8,10,12,14,-1,16,-1,-1,-1,18,-1,-1,-1,-1,-1,-1],"split_conditions":[-9.333153E-2,5.4486934E-2,9.510536E-2,-1.999999E-1,1.6206864E0,-3.2023883E-1,3.9145887E-2,6.133565E-2,1.855747E-3,-1.3990784E-1,-1.1995111E-2,1.0263888E-1,3.1382942E1,-2.1744173E-3,-7.901703E-2,-5.4043396E-3,-3.991067E-2,1.6637847E-2,-1.1012253E-3],"split_indices":[3,25,6,3,20,15,2,0,21,0,0,0,11,0,0,0,0,0,0],"split_type":[0,0,0,0,0,0,0,0,0,0,0,0,0,0,0,0,0,0,0],"sum_hessian":[1.024E3,2.3E1,1.001E3,1.5E1,8E0,9.95E2,6E0,2E0,1.3E1,7E0,1E0,2E0,9.93E2,1E0,5E0,1E1,3E0,8.7E1,9.06E2],"tree_param":{"num_deleted":"0","num_feature":"37","num_nodes":"19","size_leaf_vector":"1"}},{"base_weights":[-7.540197E-2,1.18613504E-1,-1.1313456E-1,-7.5995655E0,-6.03525E-2,-1.3442244E-1,-3.9718947E-3,7.055705E-1,-2.624485E-1,-2.744709E-2,2.73718E-2,4.7774088E-2,5.866047E-3,-2.7413105E-3,-5.906705E-2],"categories":[],"categories_nodes":[],"categories_segments":[],"categories_sizes":[],"default_left":[0,0,0,0,0,0,0,0,0,0,0,0,0,0,0],"id":34,"left_children":[1,-1,3,5,7,-1,9,11,13,-1,-1,-1,-1,-1,-1],"loss_changes":[3.5949423E2,0E0,3.9508572E2,1.6145605E2,1.5420119E2,0E0,1.8817232E1,1.5262634E2,1.5724739E2,0E0,0E0,0E0,0E0,0E0,0E0],"parents":[2147483647,0,0,2,2,3,3,4,4,6,6,7,7,8,8],"right_children":[2,-1,4,6,8,-1,10,12,14,-1,-1,-1,-1,-1,-1],"split_conditions":[-3.5776967E-1,1.18613504E-1,-1.5578336E-1,-3.2177452E-2,-1.3775049E-2,-1.3442244E-1,-1.999999E-1,-2.4355938E-1,4.104825E-2,-2.744709E-2,2.73718E-2,4.7774088E-2,5.866047E-3,-2.7413105E-3,-5.906705E-2],"split_indices":[15,0,28,0,33,0,3,15,5,0,0,0,0,0,0],"split_type":[0,0,0,0,0,0,0,0,0,0,0,0,0,0,0],"sum_hessian":[1.003E3,3E0,1E3,6E0,9.94E2,4E0,2E0,2.07E2,7.87E2,1E0,1E0,1.4E1,1.93E2,7.8E2,7E0],"tree_param":{"num_deleted":"0","num_feature":"37","num_nodes":"15","size_leaf_vector":"1"}},{"base_weights":[7.244242E-2,1.0782564E-1,2.9161429E-2,-5.8648596E0,9.603973E-2,-9.076689E0,-1.9532767E-1,1.3134725E0,-5.1852163E-2,-1.2745728E-1,-1.9093178E-2,-2.556241E-2,2.1448405E-2,2.041797E-2,-1.47024235E-2,-1.2211136E-4,-5.7754435E-2],"categories":[],"categories_nodes":[],"categories_segments":[],"categories_sizes":[],"default_left":[0,0,0,0,0,0,0,0,0,0,0,0,0,0,0,0,0],"id":35,"left_children":[1,-1,3,5,7,9,11,13,15,-1,-1,-1,-1,-1,-1,-1,-1],"loss_changes":[3.5968073E2,0E0,3.864675E2,1.9853232E2,1.7453505E2,3.820746E1,2.0726055E1,8.0480774E1,1.6484663E2,0E0,0E0,0E0,0E0,0E0,0E0,0E0,0E0],"parents":[2147483647,0,0,2,2,3,3,4,4,5,5,6,6,7,7,8,8],"right_children":[2,-1,4,6,8,10,12,14,16,-1,-1,-1,-1,-1,-1,-1,-1],"split_conditions":[-3.5776967E-1,1.0782564E-1,-1.176967E-1,-7.7519533E-3,-1.9459634E-1,-1.7296081E-2,-1.2187665E-1,7.998536E-1,1.23268925E-1,-1.2745728E-1,-1.9093178E-2,-2.556241E-2,2.1448405E-2,2.041797E-2,-1.47024235E-2,-1.2211136E-4,-5.7754435E-2],"split_indices":[15,0,3,23,15,4,2,8,9,0,0,0,0,0,0,0,0],"split_type":[0,0,0,0,0,0,0,0,0,0,0,0,0,0,0,0,0],"sum_hessian":[9.82E2,4E0,9.78E2,1E1,9.68E2,6E0,4E0,1.04E2,8.64E2,5E0,1E0,2E0,2E0,9.3E1,1.1E1,8.57E2,7E0],"tree_param":{"num_deleted":"0","num_feature":"37","num_nodes":"17","size_leaf_vector":"1"}},{"base_weights":[8.851765E-2,-7.764069E-1,2.2452864E-1,2.3134978E0,-1.0556566E0,2.8075597E-1,-1.9218719E0,2.7041378E0,2.4019833E-1,-2.065969E0,-1.3254017E-1,2.0906094E-1,2.811244E0,-1.4689556E-1,1.146518E-1,7.249828E-3,3.9997365E-2,-1.1958946E-2,1.651211E-2,-1.2033984E-2,-4.6456546E-2,-9.561638E-3,1.560853E-2,-3.9832167E-2,2.9400652E-3,4.33279E-2,-3.3526998E-2,5.9010193E-2,-1.2180185E-2],"categories":[],"categories_nodes":[],"categories_segments":[],"categories_sizes":[],"default_left":[0,0,0,0,0,0,0,0,0,0,0,0,0,0,0,0,0,0,0,0,0,0,0,0,0,0,0,0,0],"id":36,"left_children":[1,3,5,7,9,11,13,15,17,19,21,23,25,-1,27,-1,-1,-1,-1,-1,-1,-1,-1,-1,-1,-1,-1,-1,-1],"loss_changes":[1.2204857E2,1.2410477E2,1.0867457E2,9.069435E0,1.2096884E2,1.5797635E2,4.557819E2,8.003532E0,5.0325074E0,1.0768274E2,5.9828472E1,6.820615E1,9.005635E1,0E0,1.0274835E2,0E0,0E0,0E0,0E0,0E0,0E0,0E0,0E0,0E0,0E0,0E0,0E0,0E0,0E0],"parents":[2147483647,0,0,1,1,2,2,3,3,4,4,5,5,6,6,7,7,8,8,9,9,10,10,11,11,12,12,14,14],"right_children":[2,4,6,8,10,12,14,16,18,20,22,24,26,-1,28,-1,-1,-1,-1,-1,-1,-1,-1,-1,-1,-1,-1,-1,-1],"split_conditions":[-4.1891184E-2,-2.3838569E-1,3.56809E-2,1.9226545E-2,-2.7288748E-2,2.561967E-2,2.7009996E1,-4.5416538E-2,3.5731928E-4,-1.11407526E-1,1.40958475E-2,-6.885045E-2,2.6196116E-1,-1.4689556E-1,-8.941542E-2,7.249828E-3,3.9997365E-2,-1.1958946E-2,1.651211E-2,-1.2033984E-2,-4.6456546E-2,-9.561638E-3,1.560853E-2,-3.9832167E-2,2.9400652E-3,4.33279E-2,-3.3526998E-2,5.9010193E-2,-1.2180185E-2],"split_indices":[25,10,12,12,10,12,11,1,0,10,12,1,10,0,1,0,0,0,0,0,0,0,0,0,0,0,0,0,0],"split_type":[0,0,0,0,0,0,0,0,0,0,0,0,0,0,0,0,0,0,0,0,0,0,0,0,0,0,0,0,0],"sum_hessian":[1.035E3,1.4E2,8.95E2,1.1E1,1.29E2,8.73E2,2.2E1,9E0,2E0,6.1E1,6.8E1,8.5E2,2.3E1,3E0,1.9E1,2E0,7E0,1E0,1E0,3.7E1,2.4E1,4.7E1,2.1E1,5E0,8.45E2,2.1E1,2E0,3E0,1.6E1],"tree_param":{"num_deleted":"0","num_feature":"37","num_nodes":"29","size_leaf_vector":"1"}},{"base_weights":[-1.1225542E-1,-3.3155955E-2,-4.870982E0,5.428588E0,-7.3029704E-2,-1.4884374E-1,-1.5870664E0,9.2795105E0,-2.7991462E0,-2.2661457E0,2.250639E-2,1.2073952E0,-3.7555954E0,3.3531334E-2,1.2981859E-1,-6.312225E-2,1.006203E-2,-3.420131E-2,2.9983824E-2,1.688325E-2,-1.189187E-3,-2.703518E-2,2.9123843E-2,-9.270079E-3,-5.2280396E-2],"categories":[],"categories_nodes":[],"categories_segments":[],"categories_sizes":[],"default_left":[0,0,0,0,0,0,0,0,0,0,0,0,0,0,0,0,0,0,0,0,0,0,0,0,0],"id":37,"left_children":[1,3,5,7,9,-1,11,13,15,17,19,21,23,-1,-1,-1,-1,-1,-1,-1,-1,-1,-1,-1,-1],"loss_changes":[3.6834662E2,2.1033656E2,3.442299E2,2.4776526E2,2.0077283E2,0E0,7.7252945E1,5.647766E0,2.766112E1,8.810965E1,1.4088268E2,2.6962631E1,5.0338516E0,0E0,0E0,0E0,0E0,0E0,0E0,0E0,0E0,0E0,0E0,0E0,0E0],"parents":[2147483647,0,0,1,1,2,2,3,3,4,4,6,6,7,7,8,8,9,9,10,10,11,11,12,12],"right_children":[2,4,6,8,10,-1,12,14,16,18,20,22,24,-1,-1,-1,-1,-1,-1,-1,-1,-1,-1,-1,-1],"split_conditions":[3.2502905E-2,-3.2023883E-1,3.2816154E1,-3.7414014E-2,-2.1316234E-2,-1.4884374E-1,1.753889E-2,-8.941542E-2,-5.0408754E-2,1.9499531E-2,-1.9761637E-1,-2.042853E-2,8.233916E-2,3.3531334E-2,1.2981859E-1,-6.312225E-2,1.006203E-2,-3.420131E-2,2.9983824E-2,1.688325E-2,-1.189187E-3,-2.703518E-2,2.9123843E-2,-9.270079E-3,-5.2280396E-2],"split_indices":[0,15,11,26,0,0,18,1,0,23,15,5,9,0,0,0,0,0,0,0,0,0,0,0,0],"split_type":[0,0,0,0,0,0,0,0,0,0,0,0,0,0,0,0,0,0,0,0,0,0,0,0,0],"sum_hessian":[9.78E2,9.63E2,1.5E1,6E0,9.57E2,4E0,1.1E1,4E0,2E0,3.9E1,9.18E2,5E0,6E0,1E0,3E0,1E0,1E0,3.6E1,3E0,7.4E1,8.44E2,1E0,4E0,1E0,5E0],"tree_param":{"num_deleted":"0","num_feature":"37","num_nodes":"25","size_leaf_vector":"1"}},{"base_weights":[-2.7850583E-2,3.852025E-2,-5.302011E0,1.0722923E-1,1.186217E-2,-1.16982765E1,9.3793184E-1,6.283057E-2,-1.9615338E0,-3.9534677E-2,-1.6158684E-1,-5.71146E-3,2.0020893E-2,1.8534908E-2,-3.869198E-4,-4.2813443E-2,5.2269585E-2],"categories":[],"categories_nodes":[],"categories_segments":[],"categories_sizes":[],"default_left":[0,0,0,0,0,0,0,0,0,0,0,0,0,0,0,0,0],"id":38,"left_children":[1,3,5,-1,7,9,11,13,15,-1,-1,-1,-1,-1,-1,-1,-1],"loss_changes":[3.380029E2,2.1471313E2,4.8992014E2,0E0,9.587619E1,1.5956787E1,7.0044513E0,1.2191838E2,2.2275067E2,0E0,0E0,0E0,0E0,0E0,0E0,0E0,0E0],"parents":[2147483647,0,0,1,1,2,2,4,4,5,5,6,6,7,7,8,8],"right_children":[2,4,6,-1,8,10,12,14,16,-1,-1,-1,-1,-1,-1,-1,-1],"split_conditions":[1.8153327E0,-3.5776967E-1,-6.874364E-2,1.0722923E-1,1.23268925E-1,1.5207508E-1,-1.5268899E-2,-5.602095E-2,1.7751341E0,-3.9534677E-2,-1.6158684E-1,-5.71146E-3,2.0020893E-2,1.8534908E-2,-3.869198E-4,-4.2813443E-2,5.2269585E-2],"split_indices":[14,15,6,0,9,8,5,29,16,0,0,0,0,0,0,0,0],"split_type":[0,0,0,0,0,0,0,0,0,0,0,0,0,0,0,0,0],"sum_hessian":[9.64E2,9.53E2,1.1E1,2E0,9.51E2,5E0,6E0,9.28E2,2.3E1,1E0,4E0,2E0,4E0,5.7E1,8.71E2,1.9E1,4E0],"tree_param":{"num_deleted":"0","num_feature":"37","num_nodes":"17","size_leaf_vector":"1"}},{"base_weights":[-3.5439394E-2,-6.7961993E0,1.8682124E-2,3.264192E-2,-8.505083E0,1.1247688E-1,-8.035239E-3,-1.2208704E-1,-9.921606E-3,3.0013088E-2,-4.1924586E0,4.378381E-3,-3.8106395E-3,-1.2294954E-1,2.4947016E-3],"categories":[],"categories_nodes":[],"categories_segments":[],"categories_sizes":[],"default_left":[0,0,0,0,0,0,0,0,0,0,0,0,0,0,0],"id":39,"left_children":[1,3,5,-1,7,-1,9,-1,-1,11,13,-1,-1,-1,-1],"loss_changes":[3.6859088E2,1.501922E2,2.3736842E2,0E0,5.487497E1,0E0,1.5901772E2,0E0,0E0,1.0397654E2,2.2066849E2,0E0,0E0,0E0,0E0],"parents":[2147483647,0,0,1,1,2,2,4,4,6,6,9,9,10,10],"right_children":[2,4,6,-1,8,-1,10,-1,-1,12,14,-1,-1,-1,-1],"split_conditions":[-4.9159187E-1,-6.199254E-3,-5.9470657E-2,3.264192E-2,1.6206864E0,1.1247688E-1,1.8153327E0,-1.2208704E-1,-9.921606E-3,7.970979E-3,-9.658456E-2,4.378381E-3,-3.8106395E-3,-1.2294954E-1,2.4947016E-3],"split_indices":[10,25,5,0,20,0,14,0,0,28,3,0,0,0,0],"split_type":[0,0,0,0,0,0,0,0,0,0,0,0,0,0,0],"sum_hessian":[1.006E3,7E0,9.99E2,1E0,6E0,2E0,9.97E2,5E0,1E0,9.89E2,8E0,5.06E2,4.83E2,3E0,5E0],"tree_param":{"num_deleted":"0","num_feature":"37","num_nodes":"15","size_leaf_vector":"1"}},{"base_weights":[-3.8337577E-2,8.336615E0,-9.721831E-2,9.008617E0,2.7199117E-2,1.7676033E-2,-8.149292E0,3.243567E-2,1.23638615E-1,4.7582842E-2,-4.1547127E0,-1.0255768E1,-3.191589E-1,7.935568E-5,3.926041E-2,-6.5488905E-2,1.270235E-2,-7.516737E-2,-1.6244106E-1,1.40500795E-2,-2.9141694E-2],"categories":[],"categories_nodes":[],"categories_segments":[],"categories_sizes":[],"default_left":[0,0,0,0,0,0,0,0,0,0,0,0,0,0,0,0,0,0,0,0,0],"id":40,"left_children":[1,3,5,7,-1,9,11,-1,-1,13,15,17,19,-1,-1,-1,-1,-1,-1,-1,-1],"loss_changes":[4.9442694E2,9.701904E0,9.2065607E2,4.8456116E0,0E0,1.22734436E2,2.2764264E2,0E0,0E0,1.2330073E2,4.232135E1,4.666577E1,1.3936278E1,0E0,0E0,0E0,0E0,0E0,0E0,0E0,0E0],"parents":[2147483647,0,0,1,1,2,2,3,3,5,5,6,6,9,9,10,10,11,11,12,12],"right_children":[2,4,6,8,-1,10,12,-1,-1,14,16,18,20,-1,-1,-1,-1,-1,-1,-1,-1],"split_conditions":[-3.2023883E-1,2.5153186E-2,3.7623804E-2,-1.2187665E-1,2.7199117E-2,4.104825E-2,1.3939124E0,3.243567E-2,1.23638615E-1,2.8695403E-2,1.7506452E-2,-1.6904574E-2,-1.6295997E-2,7.935568E-5,3.926041E-2,-6.5488905E-2,1.270235E-2,-7.516737E-2,-1.6244106E-1,1.40500795E-2,-2.9141694E-2],"split_indices":[15,0,12,2,0,5,16,0,0,12,4,23,0,0,0,0,0,0,0,0,0],"split_type":[0,0,0,0,0,0,0,0,0,0,0,0,0,0,0,0,0,0,0,0,0],"sum_hessian":[1E3,6E0,9.94E2,5E0,1E0,9.81E2,1.3E1,1E0,4E0,9.75E2,6E0,1E1,3E0,9.63E2,1.2E1,5E0,1E0,5E0,5E0,2E0,1E0],"tree_param":{"num_deleted":"0","num_feature":"37","num_nodes":"21","size_leaf_vector":"1"}},{"base_weights":[2.267649E-2,-5.177499E0,5.3699747E-2,-9.46449E-2,-2.7160266E-2,6.271647E0,2.2587424E-2,2.389912E-2,8.712082E-2,5.8715474E-2,-4.4691463E0,1.3077911E-2,-1.0150534E-3,-6.959235E-2,1.7662529E-2],"categories":[],"categories_nodes":[],"categories_segments":[],"categories_sizes":[],"default_left":[0,0,0,0,0,0,0,0,0,0,0,0,0,0,0],"id":41,"left_children":[1,3,5,-1,-1,7,9,-1,-1,11,13,-1,-1,-1,-1],"loss_changes":[1.6321767E2,2.590947E1,1.942804E2,0E0,0E0,5.928345E-1,1.6270229E2,0E0,0E0,1.3499135E2,5.6404404E1,0E0,0E0,0E0,0E0],"parents":[2147483647,0,0,1,1,2,2,5,5,6,6,9,9,10,10],"right_children":[2,4,6,-1,-1,8,10,-1,-1,12,14,-1,-1,-1,-1],"split_conditions":[-1.2187665E-1,-6.116566E-2,-3.182935E-2,-9.46449E-2,-2.7160266E-2,-8.941542E-2,4.104825E-2,2.389912E-2,8.712082E-2,-1.8533474E-1,8.469033E-1,1.3077911E-2,-1.0150534E-3,-6.959235E-2,1.7662529E-2],"split_indices":[2,26,4,0,0,1,5,0,0,15,8,0,0,0,0],"split_type":[0,0,0,0,0,0,0,0,0,0,0,0,0,0,0],"sum_hessian":[1.009E3,5E0,1.004E3,2E0,3E0,4E0,1E3,1E0,3E0,9.93E2,7E0,1.23E2,8.7E2,6E0,1E0],"tree_param":{"num_deleted":"0","num_feature":"37","num_nodes":"15","size_leaf_vector":"1"}},{"base_weights":[-5.976964E-3,6.309842E-2,-3.950617E0,1.5183018E0,-2.8668633E-2,-7.5475636E0,-3.183032E-1,3.2149656E0,6.742168E-1,-8.312297E-1,1.8538512E-1,-1.0516197E-1,-8.563819E-3,-1.7334098E0,4.500646E-2,-1.7386496E-2,4.8040293E-2,-5.584181E-3,4.8776712E-2,-9.09405E-3,-7.8750886E-2,-2.3931028E-2,3.2995215E-3,2.3748111E-2,-3.1820048E-2],"categories":[],"categories_nodes":[],"categories_segments":[],"categories_sizes":[],"default_left":[0,0,0,0,0,0,0,0,0,0,0,0,0,0,0,0,0,0,0,0,0,0,0,0,0],"id":42,"left_children":[1,3,5,7,9,11,13,15,17,19,21,-1,-1,23,-1,-1,-1,-1,-1,-1,-1,-1,-1,-1,-1],"loss_changes":[2.849883E2,1.3732239E2,2.3277191E2,8.5192245E1,1.66448E2,4.221826E1,6.1075542E1,5.908191E1,1.510317E2,1.1847096E2,1.2091064E2,0E0,0E0,2.7406044E1,0E0,0E0,0E0,0E0,0E0,0E0,0E0,0E0,0E0,0E0,0E0],"parents":[2147483647,0,0,1,1,2,2,3,3,4,4,5,5,6,6,7,7,8,8,9,9,10,10,13,13],"right_children":[2,4,6,8,10,12,14,16,18,20,22,-1,-1,24,-1,-1,-1,-1,-1,-1,-1,-1,-1,-1,-1],"split_conditions":[4.0126324E-2,-2.1831977E-1,-6.0698646E-3,-4.176935E-1,-3.1027723E-2,-3.5525218E-2,4.621656E-2,-7.8028835E-2,7.987418E-1,9.510536E-2,-1.1818643E-2,-1.0516197E-1,-8.563819E-3,-8.941542E-2,4.500646E-2,-1.7386496E-2,4.8040293E-2,-5.584181E-3,4.8776712E-2,-9.09405E-3,-7.8750886E-2,-2.3931028E-2,3.2995215E-3,2.3748111E-2,-3.1820048E-2],"split_indices":[12,15,23,34,25,6,4,33,22,6,21,0,0,1,0,0,0,0,0,0,0,0,0,0,0],"split_type":[0,0,0,0,0,0,0,0,0,0,0,0,0,0,0,0,0,0,0,0,0,0,0,0,0],"sum_hessian":[1.044E3,1.027E3,1.7E1,6E1,9.67E2,8E0,9E0,1.9E1,4.1E1,2.03E2,7.64E2,7E0,1E0,7E0,2E0,2E0,1.7E1,3.1E1,1E1,2E2,3E0,2.6E1,7.38E2,1E0,6E0],"tree_param":{"num_deleted":"0","num_feature":"37","num_nodes":"25","size_leaf_vector":"1"}},{"base_weights":[-4.574304E-2,-1.4469246E-2,-1.3080613E-1,5.7297864E0,-4.9444947E-2,-6.111437E-2,1.1133617E-1,4.3135453E-2,-1.9843053E0,-1.841203E-3,7.0416606E-3,-3.173065E-2,1.5581303E-2],"categories":[],"categories_nodes":[],"categories_segments":[],"categories_sizes":[],"default_left":[0,0,0,0,0,0,0,0,0,0,0,0,0],"id":43,"left_children":[1,3,-1,5,7,-1,-1,9,11,-1,-1,-1,-1],"loss_changes":[3.1955173E2,1.991836E2,0E0,2.3788718E2,1.765288E2,0E0,0E0,9.14285E1,7.933258E1,0E0,0E0,0E0,0E0],"parents":[2147483647,0,0,1,1,3,3,4,4,7,7,8,8],"right_children":[2,4,-1,6,8,-1,-1,10,12,-1,-1,-1,-1],"split_conditions":[4.621656E-2,-3.5776967E-1,-1.3080613E-1,-3.539022E-2,2.2898589E-1,-6.111437E-2,1.1133617E-1,5.9948847E-2,3.0675683E0,-1.841203E-3,7.0416606E-3,-3.173065E-2,1.5581303E-2],"split_indices":[4,15,0,4,10,0,0,10,16,0,0,0,0],"split_type":[0,0,0,0,0,0,0,0,0,0,0,0,0],"sum_hessian":[9.91E2,9.89E2,2E0,5E0,9.84E2,1E0,4E0,9.4E2,4.4E1,6.88E2,2.52E2,3.8E1,6E0],"tree_param":{"num_deleted":"0","num_feature":"37","num_nodes":"13","size_leaf_vector":"1"}},{"base_weights":[-6.311431E-2,1.5926354E-2,-8.908655E0,1.0879159E-1,-1.8290022E-2,-1.6486743E-1,-4.7523814E-1,-4.31777E0,1.1854772E-2,-1.1957514E-2,5.924874E-3,-8.6371325E-2,-2.4567781E-2,3.0999579E-2,-6.413617E-4],"categories":[],"categories_nodes":[],"categories_segments":[],"categories_sizes":[],"default_left":[0,0,0,0,0,0,0,0,0,0,0,0,0,0,0],"id":44,"left_children":[1,3,5,-1,7,-1,9,11,13,-1,-1,-1,-1,-1,-1],"loss_changes":[7.104858E2,2.9652695E2,3.0783954E2,0E0,1.3030617E2,0E0,2.2221754E0,2.8533234E1,1.5280533E2,0E0,0E0,0E0,0E0,0E0,0E0],"parents":[2147483647,0,0,1,1,2,2,4,4,6,6,7,7,8,8],"right_children":[2,4,6,-1,8,-1,10,12,14,-1,-1,-1,-1,-1,-1],"split_conditions":[1.8153327E0,-3.5776967E-1,-2.6432028E-2,1.0879159E-1,-3.3238897E-1,-1.6486743E-1,3.1098549E-3,-1.8136233E-2,-2.4848104E-1,-1.1957514E-2,5.924874E-3,-8.6371325E-2,-2.4567781E-2,3.0999579E-2,-6.413617E-4],"split_indices":[14,15,2,0,10,0,0,4,10,0,0,0,0,0,0],"split_type":[0,0,0,0,0,0,0,0,0,0,0,0,0,0,0],"sum_hessian":[1.015E3,1.007E3,8E0,3E0,1.004E3,5E0,3E0,6E0,9.98E2,2E0,1E0,2E0,4E0,2.4E1,9.74E2],"tree_param":{"num_deleted":"0","num_feature":"37","num_nodes":"15","size_leaf_vector":"1"}},{"base_weights":[-7.639248E-2,-7.0712892E-3,-2.183969E0,1.2421149E0,-1.7081952E-1,-3.2423563E0,4.1797943E0,3.1238475E0,8.0385154E-1,-1.9308167E0,-5.31302E-2,3.0878415E0,-4.125494E0,6.654846E-2,2.1486651E-2,7.550797E-3,4.4378325E-2,-3.8119254E-3,1.7549684E-2,-3.347385E-2,1.4112625E-2,-5.05019E-2,-1.735197E-4,-9.484922E-3,5.835234E-2,6.1345816E-2,-5.9419293E-2],"categories":[],"categories_nodes":[],"categories_segments":[],"categories_sizes":[],"default_left":[0,0,0,0,0,0,0,0,0,0,0,0,0,0,0,0,0,0,0,0,0,0,0,0,0,0,0],"id":45,"left_children":[1,3,5,7,9,11,13,15,17,19,21,23,25,-1,-1,-1,-1,-1,-1,-1,-1,-1,-1,-1,-1,-1,-1],"loss_changes":[1.4681476E2,1.9944586E2,2.2908289E2,9.067938E1,1.7844595E2,1.6927103E2,4.513443E0,1.847911E1,6.055055E1,1.2111981E2,1.2562933E2,2.6951263E1,1.5223056E2,0E0,0E0,0E0,0E0,0E0,0E0,0E0,0E0,0E0,0E0,0E0,0E0,0E0,0E0],"parents":[2147483647,0,0,1,1,2,2,3,3,4,4,5,5,6,6,7,7,8,8,9,9,10,10,11,11,12,12],"right_children":[2,4,6,8,10,12,14,16,18,20,22,24,26,-1,-1,-1,-1,-1,-1,-1,-1,-1,-1,-1,-1,-1,-1],"split_conditions":[1.23268925E-1,-2.9957658E-2,3.0675683E0,-1.6137166E-2,-1.0666733E-2,-1.5269928E-1,3.56809E-2,3.3389712E-3,-4.3041643E-2,8.123677E-3,-2.7608959E-2,1.4142594E-1,9.489387E-2,6.654846E-2,2.1486651E-2,7.550797E-3,4.4378325E-2,-3.8119254E-3,1.7549684E-2,-3.347385E-2,1.4112625E-2,-5.05019E-2,-1.735197E-4,-9.484922E-3,5.835234E-2,6.1345816E-2,-5.9419293E-2],"split_indices":[9,6,16,21,21,29,12,12,2,25,6,8,8,0,0,0,0,0,0,0,0,0,0,0,0,0,0],"split_type":[0,0,0,0,0,0,0,0,0,0,0,0,0,0,0,0,0,0,0,0,0,0,0,0,0,0,0],"sum_hessian":[1.004E3,9.73E2,3.1E1,1.12E2,8.61E2,2.7E1,4E0,2E1,9.2E1,5.3E1,8.08E2,3E0,2.4E1,2E0,2E0,3E0,1.7E1,3.2E1,6E1,4.3E1,1E1,7E0,8.01E2,1E0,2E0,1E0,2.3E1],"tree_param":{"num_deleted":"0","num_feature":"37","num_nodes":"27","size_leaf_vector":"1"}},{"base_weights":[5.367596E-2,1.2056177E-1,-2.8734977E0,-8.088174E-1,3.1257555E-1,-9.066012E0,1.5320994E-2,2.4864562E0,-1.0603398E0,8.6296636E-1,-3.322703E-3,-2.6308215E0,-1.6725008E-1,4.3591475E0,-1.3224195E0,1.0960369E-2,3.702465E-2,-1.936768E-2,4.092973E-3,9.018547E-3,3.2500666E-2,-7.034838E-4,5.542026E-2,-5.0487306E-2,9.238311E-3,6.4841844E-2,1.2912423E-2,-1.0496948E-3,-5.16889E-2],"categories":[],"categories_nodes":[],"categories_segments":[],"categories_sizes":[],"default_left":[0,0,0,0,0,0,0,0,0,0,0,0,0,0,0,0,0,0,0,0,0,0,0,0,0,0,0,0,0],"id":46,"left_children":[1,3,5,7,9,11,13,15,17,19,21,23,-1,25,27,-1,-1,-1,-1,-1,-1,-1,-1,-1,-1,-1,-1,-1,-1],"loss_changes":[1.9280444E2,1.7192519E2,3.9369812E2,1.3939432E2,1.3874915E2,1.5296594E2,9.8739235E1,6.0731354E0,1.0116557E2,7.2416794E1,1.16947296E2,2.126693E1,0E0,5.061264E0,4.4253777E1,0E0,0E0,0E0,0E0,0E0,0E0,0E0,0E0,0E0,0E0,0E0,0E0,0E0,0E0],"parents":[2147483647,0,0,1,1,2,2,3,3,4,4,5,5,6,6,7,7,8,8,9,9,10,10,11,11,13,13,14,14],"right_children":[2,4,6,8,10,12,14,16,18,20,22,24,-1,26,28,-1,-1,-1,-1,-1,-1,-1,-1,-1,-1,-1,-1,-1,-1],"split_conditions":[3.7623804E-2,-3.7133932E-2,-1.5228409E-2,-2.5626013E-1,-3.503342E-3,-1.9185737E-2,1.2717917E0,-6.8362735E-2,2.2630716E-2,2.0764304E-2,2.9555133E-2,1.0042353E-1,-1.6725008E-1,-1.6464105E-2,8.153779E-2,1.0960369E-2,3.702465E-2,-1.936768E-2,4.092973E-3,9.018547E-3,3.2500666E-2,-7.034838E-4,5.542026E-2,-5.0487306E-2,9.238311E-3,6.4841844E-2,1.2912423E-2,-1.0496948E-3,-5.16889E-2],"split_indices":[12,25,23,10,23,23,16,25,6,13,12,10,0,2,25,0,0,0,0,0,0,0,0,0,0,0,0,0,0],"split_type":[0,0,0,0,0,0,0,0,0,0,0,0,0,0,0,0,0,0,0,0,0,0,0,0,0,0,0,0,0],"sum_hessian":[9.82E2,9.61E2,2.1E1,1.64E2,7.97E2,6E0,1.5E1,1.1E1,1.53E2,2.9E2,5.07E2,3E0,3E0,3E0,1.2E1,3E0,8E0,1.14E2,3.9E1,2.68E2,2.2E1,5.02E2,5E0,2E0,1E0,2E0,1E0,9E0,3E0],"tree_param":{"num_deleted":"0","num_feature":"37","num_nodes":"29","size_leaf_vector":"1"}},{"base_weights":[5.5650934E-3,5.6581512E-2,-5.8732786E0,7.961426E-2,2.6307035E-2,-1.2322437E-1,-8.210085E-1,7.86719E-2,-4.4356265E0,-2.5149038E-1,-1.9581916E-2,1.639622E-2,-7.498791E-4,-6.313192E-2,1.0901093E-2,-8.698457E-4,-3.6576285E-3],"categories":[],"categories_nodes":[],"categories_segments":[],"categories_sizes":[],"default_left":[0,0,0,0,0,0,0,0,0,0,0,0,0,0,0,0,0],"id":47,"left_children":[1,3,5,-1,7,-1,9,11,13,15,-1,-1,-1,-1,-1,-1,-1],"loss_changes":[3.1374615E2,1.9584323E2,1.6831122E2,0E0,2.417079E2,0E0,1.6848667E0,1.7198232E2,3.9918564E1,7.7996254E-3,0E0,0E0,0E0,0E0,0E0,0E0,0E0],"parents":[2147483647,0,0,1,1,2,2,4,4,6,6,7,7,8,8,9,9],"right_children":[2,4,6,-1,8,-1,10,12,14,16,-1,-1,-1,-1,-1,-1,-1],"split_conditions":[1.14412025E-1,-3.5776967E-1,-5.2575115E-2,7.961426E-2,1.7730498E-1,-1.2322437E-1,1.0130649E-2,-1.9289486E-1,-1.22039E-1,-3.7142865E-2,-1.9581916E-2,1.639622E-2,-7.498791E-4,-6.313192E-2,1.0901093E-2,-8.698457E-4,-3.6576285E-3],"split_indices":[25,15,1,0,9,0,0,15,15,1,0,0,0,0,0,0,0],"split_type":[0,0,0,0,0,0,0,0,0,0,0,0,0,0,0,0,0],"sum_hessian":[1.044E3,1.036E3,8E0,4E0,1.032E3,4E0,4E0,1.021E3,1.1E1,3E0,1E0,1.03E2,9.18E2,1E1,1E0,1E0,2E0],"tree_param":{"num_deleted":"0","num_feature":"37","num_nodes":"17","size_leaf_vector":"1"}},{"base_weights":[-3.8497485E-2,-4.620614E0,2.474205E-2,-6.804709E0,5.6559715E0,2.2645857E0,-1.0347454E-1,2.9808795E-1,-9.205429E0,1.02657065E-1,4.556741E-3,3.1258836E0,-2.4849234E0,-5.1134527E-1,2.7047765E-1,2.147184E-2,-2.4673741E-2,-1.345218E-1,-3.510944E-2,-3.796912E-2,4.3789484E-2,1.5954183E-2,-5.773998E-2,6.0557574E-3,-1.0319869E-2,1.3990654E-2,1.3206128E-3],"categories":[],"categories_nodes":[],"categories_segments":[],"categories_sizes":[],"default_left":[0,0,0,0,0,0,0,0,0,0,0,0,0,0,0,0,0,0,0,0,0,0,0,0,0,0,0],"id":48,"left_children":[1,3,5,7,9,11,13,15,17,-1,-1,19,21,23,25,-1,-1,-1,-1,-1,-1,-1,-1,-1,-1,-1,-1],"loss_changes":[2.979988E2,3.5271774E2,2.9172723E2,2.0736597E2,3.62685E1,2.3275839E2,1.46714E2,1.59295435E1,5.368982E1,0E0,0E0,1.0815372E2,7.605821E1,1.3949164E2,6.95914E1,0E0,0E0,0E0,0E0,0E0,0E0,0E0,0E0,0E0,0E0,0E0,0E0],"parents":[2147483647,0,0,1,1,2,2,3,3,4,4,5,5,6,6,7,7,8,8,11,11,12,12,13,13,14,14],"right_children":[2,4,6,8,10,12,14,16,18,-1,-1,20,22,24,26,-1,-1,-1,-1,-1,-1,-1,-1,-1,-1,-1,-1],"split_conditions":[-1.176967E-1,1.3261895E0,-2.2521642E-1,5.349812E-2,-9.751211E-2,3.477546E-2,4.5621037E-3,1.6082805E-2,4.8495095E-2,1.02657065E-1,4.556741E-3,-2.393202E-1,4.483872E1,-8.190338E-1,1.7815513E-3,2.147184E-2,-2.4673741E-2,-1.345218E-1,-3.510944E-2,-3.796912E-2,4.3789484E-2,1.5954183E-2,-5.773998E-2,6.0557574E-3,-1.0319869E-2,1.3990654E-2,1.3206128E-3],"split_indices":[3,16,15,25,2,18,35,4,24,0,0,19,11,34,18,0,0,0,0,0,0,0,0,0,0,0,0],"split_type":[0,0,0,0,0,0,0,0,0,0,0,0,0,0,0,0,0,0,0,0,0,0,0,0,0,0,0],"sum_hessian":[1.027E3,1.3E1,1.014E3,1.1E1,2E0,5.4E1,9.6E2,3E0,8E0,1E0,1E0,4.6E1,8E0,4.59E2,5.01E2,2E0,1E0,6E0,2E0,2E0,4.4E1,3E0,5E0,1.08E2,3.51E2,8.2E1,4.19E2],"tree_param":{"num_deleted":"0","num_feature":"37","num_nodes":"27","size_leaf_vector":"1"}},{"base_weights":[2.6275473E-2,7.886163E-2,-4.327419E0,3.6755595E-2,5.258573E0,-1.1472549E1,6.7921495E-1,9.5244694E-1,-1.1338338E-1,-8.585802E-3,6.203913E0,-3.5386987E-2,-1.635332E-1,-3.586098E-1,1.3710455E-2,-2.870714E-2,1.7569652E-2,-7.1814754E-3,4.52599E-3,9.41979E-2,-8.192497E-3,-5.362497E-3,-1.4352599E-3],"categories":[],"categories_nodes":[],"categories_segments":[],"categories_sizes":[],"default_left":[0,0,0,0,0,0,0,0,0,0,0,0,0,0,0,0,0,0,0,0,0,0,0],"id":49,"left_children":[1,3,5,7,9,11,13,15,17,-1,19,-1,-1,21,-1,-1,-1,-1,-1,-1,-1,-1,-1],"loss_changes":[2.302011E2,2.1637715E2,4.370689E2,1.3566422E2,4.912224E1,2.741986E1,3.7575107E0,1.9938412E2,1.8209698E2,0E0,6.479285E1,0E0,0E0,1.2537837E-4,0E0,0E0,0E0,0E0,0E0,0E0,0E0,0E0,0E0],"parents":[2147483647,0,0,1,1,2,2,3,3,4,4,5,5,6,6,7,7,8,8,10,10,13,13],"right_children":[2,4,6,8,10,12,14,16,18,-1,20,-1,-1,22,-1,-1,-1,-1,-1,-1,-1,-1,-1],"split_conditions":[1.8153327E0,5.84916E-2,-6.655322E-2,-8.190338E-1,-5.0160203E-2,-4.9441908E-2,-1.5268899E-2,-8.499152E-2,7.769249E-1,-8.585802E-3,-1.4050075E-2,-3.5386987E-2,-1.635332E-1,3.1098549E-3,1.3710455E-2,-2.870714E-2,1.7569652E-2,-7.1814754E-3,4.52599E-3,9.41979E-2,-8.192497E-3,-5.362497E-3,-1.4352599E-3],"split_indices":[14,13,6,34,17,5,5,27,22,0,1,0,0,0,0,0,0,0,0,0,0,0,0],"split_type":[0,0,0,0,0,0,0,0,0,0,0,0,0,0,0,0,0,0,0,0,0,0,0],"sum_hessian":[1.003E3,9.92E2,1.1E1,9.85E2,7E0,4E0,7E0,1.38E2,8.47E2,1E0,6E0,1E0,3E0,2E0,5E0,1.6E1,1.22E2,4.31E2,4.16E2,5E0,1E0,1E0,1E0],"tree_param":{"num_deleted":"0","num_feature":"37","num_nodes":"23","size_leaf_vector":"1"}},{"base_weights":[-1.654982E-2,2.3209337E-2,-8.330855E0,5.5636797E-2,-7.0854776E-2,-1.21717036E-1,-1.9763473E-2,8.484996E-2,-7.6004155E-2,7.5873013E-6,2.4542425E-2],"categories":[],"categories_nodes":[],"categories_segments":[],"categories_sizes":[],"default_left":[0,0,0,0,0,0,0,0,0,0,0],"id":50,"left_children":[1,3,5,7,-1,-1,-1,9,-1,-1,-1],"loss_changes":[3.4729163E2,1.9127771E2,2.8947906E1,1.8510257E2,0E0,0E0,0E0,1.6225833E2,0E0,0E0,0E0],"parents":[2147483647,0,0,1,1,2,2,3,3,7,7],"right_children":[2,4,6,8,-1,-1,-1,10,-1,-1,-1],"split_conditions":[4.621656E-2,2.6925787E-1,-2.0885196E-2,9.510536E-2,-7.0854776E-2,-1.21717036E-1,-1.9763473E-2,2.328075E-2,-7.6004155E-2,7.5873013E-6,2.4542425E-2],"split_indices":[4,9,1,6,0,0,0,13,0,0,0],"split_type":[0,0,0,0,0,0,0,0,0,0,0],"sum_hessian":[1.049E3,1.045E3,4E0,1.04E3,5E0,3E0,1E0,1.036E3,4E0,9.92E2,4.4E1],"tree_param":{"num_deleted":"0","num_feature":"37","num_nodes":"11","size_leaf_vector":"1"}},{"base_weights":[-3.6404476E-2,4.3561112E-2,-5.471464E0,1.0908705E-1,7.314456E-3,-1.1524416E1,5.0880206E-1,4.7725532E-2,-4.752004E0,-3.5318464E-2,-1.5813679E-1,-1.4132191E-2,2.1593519E-2,1.3717117E-2,-9.358489E-4,-1.7874774E-2,-7.1132235E-2],"categories":[],"categories_nodes":[],"categories_segments":[],"categories_sizes":[],"default_left":[0,0,0,0,0,0,0,0,0,0,0,0,0,0,0,0,0],"id":51,"left_children":[1,3,5,-1,7,9,11,13,15,-1,-1,-1,-1,-1,-1,-1,-1],"loss_changes":[4.1964447E2,2.963031E2,5.1263934E2,0E0,1.8274721E2,2.5470886E1,1.752996E1,1.1912538E2,1.5448624E1,0E0,0E0,0E0,0E0,0E0,0E0,0E0,0E0],"parents":[2147483647,0,0,1,1,2,2,4,4,5,5,6,6,7,7,8,8],"right_children":[2,4,6,-1,8,10,12,14,16,-1,-1,-1,-1,-1,-1,-1,-1],"split_conditions":[1.8153327E0,-3.5776967E-1,-6.655322E-2,1.0908705E-1,8.0498025E-2,1.5207508E-1,2.0196887E-2,-1.9289486E-1,-1.3813272E0,-3.5318464E-2,-1.5813679E-1,-1.4132191E-2,2.1593519E-2,1.3717117E-2,-9.358489E-4,-1.7874774E-2,-7.1132235E-2],"split_indices":[14,15,6,0,2,8,12,15,20,0,0,0,0,0,0,0,0],"split_type":[0,0,0,0,0,0,0,0,0,0,0,0,0,0,0,0,0],"sum_hessian":[9.64E2,9.51E2,1.3E1,3E0,9.48E2,6E0,7E0,9.41E2,7E0,1E0,5E0,3E0,4E0,9.8E1,8.43E2,2E0,5E0],"tree_param":{"num_deleted":"0","num_feature":"37","num_nodes":"17","size_leaf_vector":"1"}},{"base_weights":[-1.38814645E-2,6.6994534E0,-7.879391E-2,1.1387093E-1,2.5860138E0,-9.708498E0,-1.314535E-2,-8.170523E-3,4.4935357E-2,-1.6646229E-2,-1.3758796E-1,8.159292E-2,-2.7852464E0,-3.8662804E-3,5.114878E-3,-4.840419E-2,1.337871E-3],"categories":[],"categories_nodes":[],"categories_segments":[],"categories_sizes":[],"default_left":[0,0,0,0,0,0,0,0,0,0,0,0,0,0,0,0,0],"id":52,"left_children":[1,3,5,-1,7,9,11,-1,-1,-1,-1,13,15,-1,-1,-1,-1],"loss_changes":[4.5504532E2,7.17717E1,6.5354254E2,0E0,1.797324E1,5.4911865E1,2.7020477E2,0E0,0E0,0E0,0E0,1.24731415E2,1.0313028E2,0E0,0E0,0E0,0E0],"parents":[2147483647,0,0,1,1,2,2,4,4,5,5,6,6,11,11,12,12],"right_children":[2,4,6,-1,8,10,12,-1,-1,-1,-1,14,16,-1,-1,-1,-1],"split_conditions":[-3.111795E-1,-1.0692136E0,-1.5578336E-1,1.1387093E-1,2.0766155E1,1.257606E1,2.2898589E-1,-8.170523E-3,4.4935357E-2,-1.6646229E-2,-1.3758796E-1,3.9091754E-1,2.6663361E-2,-3.8662804E-3,5.114878E-3,-4.840419E-2,1.337871E-3],"split_indices":[15,20,28,0,11,11,10,0,0,0,0,22,13,0,0,0,0],"split_type":[0,0,0,0,0,0,0,0,0,0,0,0,0,0,0,0,0],"sum_hessian":[1.042E3,9E0,1.033E3,5E0,4E0,6E0,1.027E3,1E0,3E0,1E0,5E0,9.94E2,3.3E1,4.52E2,5.42E2,2.4E1,9E0],"tree_param":{"num_deleted":"0","num_feature":"37","num_nodes":"17","size_leaf_vector":"1"}},{"base_weights":[-6.9584195E-3,7.679886E0,-5.3304255E-2,2.8739875E-2,1.0496712E-1,-4.832095E0,4.46764E-2,-3.146598E-1,-9.318064E0,7.302947E-1,-1.6648409E-1,-2.0758325E-2,2.0313507E-2,-1.3629471E-1,-2.906284E-2,-1.9187614E-2,1.1443171E-2,-1.0281584E-3,-2.3321223E-2],"categories":[],"categories_nodes":[],"categories_segments":[],"categories_sizes":[],"default_left":[0,0,0,0,0,0,0,0,0,0,0,0,0,0,0,0,0,0,0],"id":53,"left_children":[1,3,5,-1,-1,7,9,11,13,15,17,-1,-1,-1,-1,-1,-1,-1,-1],"loss_changes":[3.566626E2,1.4229431E0,4.661038E2,0E0,0E0,4.0236945E2,1.4142245E2,3.0717735E1,7.8161804E1,9.199472E1,1.0661129E2,0E0,0E0,0E0,0E0,0E0,0E0,0E0,0E0],"parents":[2147483647,0,0,1,1,2,2,5,5,6,6,7,7,8,8,9,9,10,10],"right_children":[2,4,6,-1,-1,8,10,12,14,16,18,-1,-1,-1,-1,-1,-1,-1,-1],"split_conditions":[-3.5776967E-1,-4.9159187E-1,-9.895258E-2,2.8739875E-2,1.0496712E-1,2.9555133E-2,-1.1414518E-2,-9.9574083E-1,5.84916E-2,-1.7623495E-2,2.2898589E-1,-2.0758325E-2,2.0313507E-2,-1.3629471E-1,-2.906284E-2,-1.9187614E-2,1.1443171E-2,-1.0281584E-3,-2.3321223E-2],"split_indices":[15,10,28,0,0,12,33,30,13,4,10,0,0,0,0,0,0,0,0],"split_type":[0,0,0,0,0,0,0,0,0,0,0,0,0,0,0,0,0,0,0],"sum_hessian":[9.99E2,5E0,9.94E2,1E0,4E0,1.9E1,9.75E2,1E1,9E0,2.29E2,7.46E2,6E0,4E0,7E0,2E0,1.6E1,2.13E2,7.11E2,3.5E1],"tree_param":{"num_deleted":"0","num_feature":"37","num_nodes":"19","size_leaf_vector":"1"}},{"base_weights":[-2.3434492E-2,-6.1359234E0,1.8868728E-2,2.8558278E-2,-7.911861E0,1.3614244E0,-1.3147107E-1,-2.4205334E-2,-1.1029877E-1,1.7755896E0,-1.3687268E0,-2.7375095E0,-8.4787935E-2,7.835844E-2,1.9576713E-2,-3.693289E-2,2.0466503E-3,-2.881402E-4,-6.886497E-2,-7.7465683E-4,-6.707062E-2],"categories":[],"categories_nodes":[],"categories_segments":[],"categories_sizes":[],"default_left":[0,0,0,0,0,0,0,0,0,0,0,0,0,0,0,0,0,0,0,0,0],"id":54,"left_children":[1,3,5,-1,7,9,11,-1,-1,13,15,17,19,-1,-1,-1,-1,-1,-1,-1,-1],"loss_changes":[2.6334814E2,1.2225226E2,2.0444061E2,0E0,1.2648621E1,1.1776509E2,1.1059836E2,0E0,0E0,7.958057E1,3.377089E1,1.1766624E2,1.095873E2,0E0,0E0,0E0,0E0,0E0,0E0,0E0,0E0],"parents":[2147483647,0,0,1,1,2,2,4,4,5,5,6,6,9,9,10,10,11,11,12,12],"right_children":[2,4,6,-1,8,10,12,-1,-1,14,16,18,20,-1,-1,-1,-1,-1,-1,-1,-1],"split_conditions":[-4.9159187E-1,-3.5776967E-1,-1.9761637E-1,2.8558278E-2,-3.2023883E-1,8.104495E-1,-1.9206503E-2,-2.4205334E-2,-1.1029877E-1,-3.182935E-2,8.5325927E-1,-4.08267E-2,1.348657E-1,7.835844E-2,1.9576713E-2,-3.693289E-2,2.0466503E-3,-2.881402E-4,-6.886497E-2,-7.7465683E-4,-6.707062E-2],"split_indices":[10,15,15,0,15,8,21,0,0,4,8,3,3,0,0,0,0,0,0,0,0],"split_type":[0,0,0,0,0,0,0,0,0,0,0,0,0,0,0,0,0,0,0,0,0],"sum_hessian":[1.017E3,6E0,1.011E3,1E0,5E0,1.01E2,9.1E2,1E0,4E0,8.8E1,1.3E1,1.5E1,8.95E2,3E0,8.5E1,6E0,7E0,8E0,7E0,8.92E2,3E0],"tree_param":{"num_deleted":"0","num_feature":"37","num_nodes":"21","size_leaf_vector":"1"}},{"base_weights":[-9.0526454E-2,-2.8949711E-2,-4.7918153E0,-2.262063E-1,6.091097E-1,-1.4662701E-1,-4.755267E-1,-1.8371315E0,-1.0038889E-1,-3.142073E0,7.8979367E-1,6.248306E-1,-2.007181E0,2.4852512E-2,-3.7208784E-2,1.9006371E-2,-2.3227406E-3,-7.88447E-2,-1.5174952E-2,3.9319466E-3,2.6549662E-2,1.3691053E-2,-1.0539231E-2,-3.0298738E-2,-5.2823466E-3],"categories":[],"categories_nodes":[],"categories_segments":[],"categories_sizes":[],"default_left":[0,0,0,0,0,0,0,0,0,0,0,0,0,0,0,0,0,0,0,0,0,0,0,0,0],"id":55,"left_children":[1,3,5,7,9,-1,11,13,15,17,19,21,23,-1,-1,-1,-1,-1,-1,-1,-1,-1,-1,-1,-1],"loss_changes":[2.9108832E2,1.2524403E2,3.7665735E2,1.5385425E2,1.6175955E2,0E0,1.6422451E1,2.3743227E2,9.475734E1,5.8641037E1,1.4054944E2,4.9172373E0,1.4794502E0,0E0,0E0,0E0,0E0,0E0,0E0,0E0,0E0,0E0,0E0,0E0,0E0],"parents":[2147483647,0,0,1,1,2,2,3,3,4,4,6,6,7,7,8,8,9,9,10,10,11,11,12,12],"right_children":[2,4,6,8,10,-1,12,14,16,18,20,22,24,-1,-1,-1,-1,-1,-1,-1,-1,-1,-1,-1,-1],"split_conditions":[1.8153327E0,1.40958475E-2,-2.7997244E-2,-1.0666733E-2,-4.2345215E-2,-1.4662701E-1,2.715281E-1,3.2429165E1,-2.7164454E-2,-3.4026626E-2,2.130087E-2,3.2997914E-3,-3.2177452E-2,2.4852512E-2,-3.7208784E-2,1.9006371E-2,-2.3227406E-3,-7.88447E-2,-1.5174952E-2,3.9319466E-3,2.6549662E-2,1.3691053E-2,-1.0539231E-2,-3.0298738E-2,-5.2823466E-3],"split_indices":[14,12,35,21,26,0,20,11,33,0,13,0,0,0,0,0,0,0,0,0,0,0,0,0,0],"split_type":[0,0,0,0,0,0,0,0,0,0,0,0,0,0,0,0,0,0,0,0,0,0,0,0,0],"sum_hessian":[1.005E3,9.93E2,1.2E1,7.59E2,2.34E2,4E0,8E0,5.4E1,7.05E2,1E1,2.24E2,5E0,3E0,1.2E1,4.2E1,3.4E1,6.71E2,3E0,7E0,1.65E2,5.9E1,4E0,1E0,2E0,1E0],"tree_param":{"num_deleted":"0","num_feature":"37","num_nodes":"25","size_leaf_vector":"1"}},{"base_weights":[2.0002648E-2,6.596981E-2,-6.4510913E0,1.6293234E0,-2.823854E-2,-1.4083749E-1,-1.4477035E-1,4.484067E0,3.7532416E-1,-2.8252013E-3,-7.469519E-2,8.3859265E-3,-6.354195E-1,2.4403298E-2,7.204571E-2,1.8183442E-2,-4.3571968E-2,-7.8395605E-3,2.2468125E-3,-1.572284E-3,-1.04726385E-2],"categories":[],"categories_nodes":[],"categories_segments":[],"categories_sizes":[],"default_left":[0,0,0,0,0,0,0,0,0,0,0,0,0,0,0,0,0,0,0,0,0],"id":56,"left_children":[1,3,5,7,9,-1,11,13,15,17,-1,-1,19,-1,-1,-1,-1,-1,-1,-1,-1],"loss_changes":[2.952063E2,1.4511774E2,2.0557971E2,1.9878844E2,1.3901227E2,0E0,2.008139E0,4.1809875E1,1.6760934E2,1.03505005E2,0E0,0E0,1.9321406E-1,0E0,0E0,0E0,0E0,0E0,0E0,0E0,0E0],"parents":[2147483647,0,0,1,1,2,2,3,3,4,4,6,6,7,7,8,8,9,9,12,12],"right_children":[2,4,6,8,10,-1,12,14,16,18,-1,-1,20,-1,-1,-1,-1,-1,-1,-1,-1],"split_conditions":[1.8153327E0,-2.3043333E-1,-9.658456E-2,-1.7193753E-2,9.510536E-2,-1.4083749E-1,-4.4117734E-2,3.6206673E1,2.7527831E-2,-2.7712421E-2,-7.469519E-2,8.3859265E-3,-5.2575115E-2,2.4403298E-2,7.204571E-2,1.8183442E-2,-4.3571968E-2,-7.8395605E-3,2.2468125E-3,-1.572284E-3,-1.04726385E-2],"split_indices":[14,15,3,25,6,0,2,11,27,25,0,0,1,0,0,0,0,0,0,0,0],"split_type":[0,0,0,0,0,0,0,0,0,0,0,0,0,0,0,0,0,0,0,0,0],"sum_hessian":[9.9E2,9.84E2,6E0,5.5E1,9.29E2,3E0,3E0,1.6E1,3.9E1,9.26E2,3E0,1E0,2E0,6E0,1E1,3.1E1,8E0,2.09E2,7.17E2,1E0,1E0],"tree_param":{"num_deleted":"0","num_feature":"37","num_nodes":"21","size_leaf_vector":"1"}},{"base_weights":[1.0306004E-1,-3.2349727E0,1.8185931E-1,1.0094355E-1,-4.6841774E0,9.5225245E-2,2.0533583E0,-1.5750128E-1,-2.695259E0,1.4802137E-1,-4.7821E0,2.9877198E0,-1.8084207E0,-9.25891E-2,-1.6182337E-2,9.513646E-3,-1.2595129E-3,-7.061309E-2,-1.3140244E-2,-7.4905697E-3,5.370709E-2,-2.1742876E-3,-3.8961913E-2],"categories":[],"categories_nodes":[],"categories_segments":[],"categories_sizes":[],"default_left":[0,0,0,0,0,0,0,0,0,0,0,0,0,0,0,0,0,0,0,0,0,0,0],"id":57,"left_children":[1,3,5,-1,7,9,11,-1,13,15,17,19,21,-1,-1,-1,-1,-1,-1,-1,-1,-1,-1],"loss_changes":[2.6230768E2,4.1148987E2,1.5756238E2,0E0,2.9131964E2,2.4044394E2,1.6055984E2,0E0,1.0855803E2,1.3819339E2,2.43378E1,1.6069125E2,1.8242176E1,0E0,0E0,0E0,0E0,0E0,0E0,0E0,0E0,0E0,0E0],"parents":[2147483647,0,0,1,1,2,2,4,4,5,5,6,6,8,8,9,9,10,10,11,11,12,12],"right_children":[2,4,6,-1,8,10,12,-1,14,16,18,20,22,-1,-1,-1,-1,-1,-1,-1,-1,-1,-1],"split_conditions":[-9.333153E-2,-1.3619722E0,2.578326E-2,1.0094355E-1,-1.5228409E-2,1.23268925E-1,3.5065874E-2,-1.5750128E-1,-1.9499865E-1,-8.529828E-3,1.4419394E-3,-2.3775037E-2,-1.7426882E-2,-9.25891E-2,-1.6182337E-2,9.513646E-3,-1.2595129E-3,-7.061309E-2,-1.3140244E-2,-7.4905697E-3,5.370709E-2,-2.1742876E-3,-3.8961913E-2],"split_indices":[3,20,13,0,23,9,21,0,28,28,23,3,0,0,0,0,0,0,0,0,0,0,0],"split_type":[0,0,0,0,0,0,0,0,0,0,0,0,0,0,0,0,0,0,0,0,0,0,0],"sum_hessian":[9.94E2,2.2E1,9.72E2,2E0,2E1,9.3E2,4.2E1,3E0,1.7E1,9.21E2,9E0,3.4E1,8E0,3E0,1.4E1,2.67E2,6.54E2,7E0,2E0,9E0,2.5E1,4E0,4E0],"tree_param":{"num_deleted":"0","num_feature":"37","num_nodes":"23","size_leaf_vector":"1"}},{"base_weights":[3.739107E-2,1.1051452E-1,-6.6268897E0,3.923486E0,2.8861856E-2,-1.5041673E-1,-2.4664158E-1,-1.1163154E0,4.8254704E0,-4.3939357E0,6.9699965E-2,9.611986E-3,-9.4041836E-1,-2.0384857E-2,2.3629984E-3,1.16925396E-1,4.199665E-2,-7.97697E-2,-2.0179292E-2,3.326919E-2,9.739763E-5,-1.485951E-2,-1.4793212E-3],"categories":[],"categories_nodes":[],"categories_segments":[],"categories_sizes":[],"default_left":[0,0,0,0,0,0,0,0,0,0,0,0,0,0,0,0,0,0,0,0,0,0,0],"id":58,"left_children":[1,3,5,7,9,-1,11,13,15,17,19,-1,21,-1,-1,-1,-1,-1,-1,-1,-1,-1,-1],"loss_changes":[4.938954E2,3.1184875E2,3.67332E2,1.00849E2,1.7767381E2,0E0,4.908128E0,2.8913536E0,8.895755E1,3.821292E1,1.5473195E2,0E0,6.377349E-1,0E0,0E0,0E0,0E0,0E0,0E0,0E0,0E0,0E0,0E0],"parents":[2147483647,0,0,1,1,2,2,3,3,4,4,6,6,7,7,8,8,9,9,10,10,12,12],"right_children":[2,4,6,8,10,-1,12,14,16,18,20,-1,22,-1,-1,-1,-1,-1,-1,-1,-1,-1,-1],"split_conditions":[1.7842634E0,-2.820607E-1,-6.655322E-2,-5.0160203E-2,-6.155577E-2,-1.5041673E-1,1.8616347E0,-2.1316234E-2,-6.8795204E-2,-3.2177452E-2,-2.5626013E-1,9.611986E-3,7.720645E-3,-2.0384857E-2,2.3629984E-3,1.16925396E-1,4.199665E-2,-7.97697E-2,-2.0179292E-2,3.326919E-2,9.739763E-5,-1.485951E-2,-1.4793212E-3],"split_indices":[14,15,6,17,1,0,14,0,2,0,10,0,0,0,0,0,0,0,0,0,0,0,0],"split_type":[0,0,0,0,0,0,0,0,0,0,0,0,0,0,0,0,0,0,0,0,0,0,0],"sum_hessian":[1.011E3,1.001E3,1E1,2E1,9.81E2,5E0,5E0,3E0,1.7E1,8E0,9.73E2,2E0,3E0,2E0,1E0,3E0,1.4E1,4E0,4E0,2.2E1,9.51E2,2E0,1E0],"tree_param":{"num_deleted":"0","num_feature":"37","num_nodes":"23","size_leaf_vector":"1"}},{"base_weights":[-3.1233227E-2,5.2593074E0,-7.79755E-2,6.4027677E0,-2.456916E-2,1.4826407E-2,-3.2433517E0,-6.6851787E-3,9.4382405E-2,2.420142E0,-4.234E-2,-9.2582874E-2,-2.4904778E0,3.558966E-2,-2.0908092E-3,-9.940844E-4,4.8486914E-2,-4.0887754E-2,-7.668766E-5],"categories":[],"categories_nodes":[],"categories_segments":[],"categories_sizes":[],"default_left":[0,0,0,0,0,0,0,0,0,0,0,0,0,0,0,0,0,0,0],"id":59,"left_children":[1,3,5,7,-1,9,11,-1,-1,13,15,-1,17,-1,-1,-1,-1,-1,-1],"loss_changes":[2.5413158E2,8.658038E1,2.9908856E2,6.305542E1,0E0,1.3623067E2,7.089639E1,0E0,0E0,2.4022095E1,1.366963E2,0E0,4.810463E1,0E0,0E0,0E0,0E0,0E0,0E0],"parents":[2147483647,0,0,1,1,2,2,3,3,5,5,6,6,9,9,10,10,12,12],"right_children":[2,4,6,8,-1,10,12,-1,-1,14,16,-1,18,-1,-1,-1,-1,-1,-1],"split_conditions":[-3.2023883E-1,-3.047652E-2,1.23268925E-1,-4.9159187E-1,-2.456916E-2,-2.4848104E-1,-3.0552654E-2,-6.6851787E-3,9.4382405E-2,1.455949E0,2.9555133E-2,-9.2582874E-2,1.334155E0,3.558966E-2,-2.0908092E-3,-9.940844E-4,4.8486914E-2,-4.0887754E-2,-7.668766E-5],"split_indices":[15,2,9,10,0,10,24,0,0,14,12,0,14,0,0,0,0,0,0],"split_type":[0,0,0,0,0,0,0,0,0,0,0,0,0,0,0,0,0,0,0],"sum_hessian":[1.025E3,8E0,1.017E3,7E0,1E0,9.89E2,2.8E1,1E0,6E0,2.2E1,9.67E2,3E0,2.5E1,1.9E1,3E0,9.59E2,8E0,1.9E1,6E0],"tree_param":{"num_deleted":"0","num_feature":"37","num_nodes":"19","size_leaf_vector":"1"}},{"base_weights":[9.587503E-3,3.7687616E0,-5.815496E-2,5.0049677E0,-5.156742E-2,-8.518873E0,-1.558034E-2,1.15144014E-1,2.8768384E0,-1.2652321E-1,-1.6091187E-2,-1.4947214E-3,-8.856611E-2,-2.3240125E-2,4.38858E-2,5.395115E-4,-2.7239976E-2],"categories":[],"categories_nodes":[],"categories_segments":[],"categories_sizes":[],"default_left":[0,0,0,0,0,0,0,0,0,0,0,0,0,0,0,0,0],"id":60,"left_children":[1,3,5,7,-1,9,11,-1,13,-1,-1,15,-1,-1,-1,-1,-1],"loss_changes":[2.5894937E2,1.9508482E2,3.5971893E2,1.136149E2,0E0,4.134198E1,9.799442E1,0E0,4.010845E1,0E0,0E0,9.470122E1,0E0,0E0,0E0,0E0,0E0],"parents":[2147483647,0,0,1,1,2,2,3,3,5,5,6,6,8,8,11,11],"right_children":[2,4,6,8,-1,10,12,-1,14,-1,-1,16,-1,-1,-1,-1,-1],"split_conditions":[-2.9953223E-1,-6.6009504E-3,-1.3313259E-1,-3.7414014E-2,-5.156742E-2,-4.0617608E-2,4.621656E-2,1.15144014E-1,-2.5993641E-2,-1.2652321E-1,-1.6091187E-2,5.910804E-2,-8.856611E-2,-2.3240125E-2,4.38858E-2,5.395115E-4,-2.7239976E-2],"split_indices":[15,17,3,26,0,0,4,0,7,0,0,33,0,0,0,0,0],"split_type":[0,0,0,0,0,0,0,0,0,0,0,0,0,0,0,0,0],"sum_hessian":[1.015E3,1.7E1,9.98E2,1.5E1,2E0,4E0,9.94E2,4E0,1.1E1,3E0,1E0,9.93E2,1E0,1E0,1E1,9.74E2,1.9E1],"tree_param":{"num_deleted":"0","num_feature":"37","num_nodes":"17","size_leaf_vector":"1"}},{"base_weights":[1.7645268E-2,-8.185903E0,5.8039453E-2,-1.4261377E-1,2.6609486E-2,1.3877103E0,-9.365333E-2,7.753218E-1,3.9209764E0,-1.3115242E0,4.6241075E-2,1.858138E-2,-3.243028E-2,7.5049214E-2,1.9208282E-3,-2.8212203E-2,2.9599885E-3,1.4627253E-3,-2.3393974E-2],"categories":[],"categories_nodes":[],"categories_segments":[],"categories_sizes":[],"default_left":[0,0,0,0,0,0,0,0,0,0,0,0,0,0,0,0,0,0,0],"id":61,"left_children":[1,3,5,-1,-1,7,9,11,13,15,17,-1,-1,-1,-1,-1,-1,-1,-1],"loss_changes":[3.3814685E2,1.8324527E2,2.0485695E2,0E0,0E0,1.5829967E2,1.5544112E2,2.0118933E2,1.5119507E2,1.3433627E2,1.0822673E2,0E0,0E0,0E0,0E0,0E0,0E0,0E0,0E0],"parents":[2147483647,0,0,1,1,2,2,5,5,6,6,7,7,8,8,9,9,10,10],"right_children":[2,4,6,-1,-1,8,10,12,14,16,18,-1,-1,-1,-1,-1,-1,-1,-1],"split_conditions":[-1.5578336E-1,1.7999625E-2,-1.9590259E-1,-1.4261377E-1,2.6609486E-2,1.6717753E0,-4.6686217E-2,2.8931001E-2,1.2964485E-2,6.5147975E-3,2.1952166E-1,1.858138E-2,-3.243028E-2,7.5049214E-2,1.9208282E-3,-2.8212203E-2,2.9599885E-3,1.4627253E-3,-2.3393974E-2],"split_indices":[28,5,15,0,0,22,25,33,25,6,10,0,0,0,0,0,0,0,0],"split_type":[0,0,0,0,0,0,0,0,0,0,0,0,0,0,0,0,0,0,0],"sum_hessian":[1.018E3,4E0,1.014E3,3E0,1E0,1.03E2,9.11E2,8.4E1,1.9E1,9.3E1,8.18E2,7E1,1.4E1,1.2E1,7E0,5.8E1,3.5E1,7.9E2,2.8E1],"tree_param":{"num_deleted":"0","num_feature":"37","num_nodes":"19","size_leaf_vector":"1"}},{"base_weights":[-3.2688826E-2,-1.0440026E-1,7.5612618E-3,4.219728E0,-4.239285E-2,5.413777E0,-1.1670115E0,7.3122326E-3,-2.7876244E0,7.752587E-2,2.1315021E-2,-2.3883168E-2,1.7614616E-3,1.0586757E-2,-2.3494628E-3,-2.2840455E-2,-7.287374E-2],"categories":[],"categories_nodes":[],"categories_segments":[],"categories_sizes":[],"default_left":[0,0,0,0,0,0,0,0,0,0,0,0,0,0,0,0,0],"id":62,"left_children":[1,-1,3,5,7,9,11,13,15,-1,-1,-1,-1,-1,-1,-1,-1],"loss_changes":[3.40208E2,0E0,2.154335E2,8.3502304E1,1.3810977E2,1.6522705E1,3.096583E0,1.598159E2,4.213881E1,0E0,0E0,0E0,0E0,0E0,0E0,0E0,0E0],"parents":[2147483647,0,0,2,2,3,3,4,4,5,5,6,6,7,7,8,8],"right_children":[2,-1,4,6,8,10,12,14,16,-1,-1,-1,-1,-1,-1,-1,-1],"split_conditions":[-4.9159187E-1,-1.0440026E-1,-2.9953223E-1,1.2325588E-2,2.6196116E-1,1.5746766E0,-9.658456E-2,-6.4256797E-3,3.3587743E-2,7.752587E-2,2.1315021E-2,-2.3883168E-2,1.7614616E-3,1.0586757E-2,-2.3494628E-3,-2.2840455E-2,-7.287374E-2],"split_indices":[10,0,15,18,10,16,3,23,26,0,0,0,0,0,0,0,0],"split_type":[0,0,0,0,0,0,0,0,0,0,0,0,0,0,0,0,0],"sum_hessian":[1.026E3,4E0,1.022E3,1.1E1,1.011E3,9E0,2E0,9.94E2,1.7E1,7E0,2E0,1E0,1E0,1.87E2,8.07E2,1.4E1,3E0],"tree_param":{"num_deleted":"0","num_feature":"37","num_nodes":"17","size_leaf_vector":"1"}},{"base_weights":[5.2461214E-3,-4.4678717E0,7.535221E-2,1.0695071E0,-8.278292E0,1.2940361E0,-3.5775438E-2,-9.961088E-1,5.251655E-2,-1.9925821E0,-1.4013498E-1,-4.5373634E-2,1.5983585E0,-5.4264605E-1,2.4598233E-1,4.6968897E-4,-2.1449799E-2,-5.8097006E-3,-2.9701183E-2,2.4932917E-2,-7.1273264E-3,3.512504E-2,-8.787444E-3,3.955564E-3,-2.8212804E-2],"categories":[],"categories_nodes":[],"categories_segments":[],"categories_sizes":[],"default_left":[0,0,0,0,0,0,0,0,0,0,0,0,0,0,0,0,0,0,0,0,0,0,0,0,0],"id":63,"left_children":[1,3,5,7,9,11,13,15,-1,17,-1,-1,19,21,23,-1,-1,-1,-1,-1,-1,-1,-1,-1,-1],"loss_changes":[3.0483524E2,3.2534973E2,1.296523E2,4.8763718E1,1.369126E2,1.24655975E2,1.2552482E2,3.685954E0,0E0,1.1127615E0,0E0,0E0,6.267624E1,1.6123734E2,9.4558975E1,0E0,0E0,0E0,0E0,0E0,0E0,0E0,0E0,0E0,0E0],"parents":[2147483647,0,0,1,1,2,2,3,3,4,4,5,5,6,6,7,7,9,9,12,12,13,13,14,14],"right_children":[2,4,6,8,10,12,14,16,-1,18,-1,-1,20,22,24,-1,-1,-1,-1,-1,-1,-1,-1,-1,-1],"split_conditions":[-3.0016103E-1,5.349812E-2,-1.9761637E-1,2.2001368E-1,1.790711E-1,-2.393202E-1,9.6161336E-2,2.3621984E-2,5.251655E-2,-5.0408754E-2,-1.4013498E-1,-4.5373634E-2,3.56809E-2,-2.4848104E-1,2.6196116E-1,4.6968897E-4,-2.1449799E-2,-5.8097006E-3,-2.9701183E-2,2.4932917E-2,-7.1273264E-3,3.512504E-2,-8.787444E-3,3.955564E-3,-2.8212804E-2],"split_indices":[10,25,15,9,8,19,22,24,0,0,0,0,12,10,10,0,0,0,0,0,0,0,0,0,0],"split_type":[0,0,0,0,0,0,0,0,0,0,0,0,0,0,0,0,0,0,0,0,0,0,0,0,0],"sum_hessian":[9.7E2,1.4E1,9.56E2,6E0,8E0,7.9E1,8.77E2,4E0,2E0,3E0,5E0,4E0,7.5E1,3.13E2,5.64E2,2E0,2E0,1E0,2E0,6.4E1,1.1E1,1.3E1,3E2,5.5E2,1.4E1],"tree_param":{"num_deleted":"0","num_feature":"37","num_nodes":"25","size_leaf_vector":"1"}},{"base_weights":[-6.95493E-3,1.4020722E0,-1.8651298E-1,-4.821629E0,1.8036325E0,-3.527874E0,-1.15867764E-1,-6.4084086E0,2.9691502E-2,1.10459365E-1,1.3693672E0,-1.8922607E0,-1.399598E-1,9.6283454E-1,-2.7664745E-1,-8.8435784E-2,-2.1864323E-2,1.3413542E-2,7.603594E-2,1.3839615E-2,-4.2331357E-2,2.2295149E-2,6.638975E-4,-4.140955E-3,3.0426366E-2],"categories":[],"categories_nodes":[],"categories_segments":[],"categories_sizes":[],"default_left":[0,0,0,0,0,0,0,0,0,0,0,0,0,0,0,0,0,0,0,0,0,0,0,0,0],"id":64,"left_children":[1,3,5,7,9,11,13,15,-1,-1,17,19,-1,21,23,-1,-1,-1,-1,-1,-1,-1,-1,-1,-1],"loss_changes":[2.4845662E2,2.861067E2,2.0519177E2,9.471001E1,3.0434988E2,2.0124356E2,1.483785E2,4.4427795E0,0E0,0E0,1.3672589E2,7.333334E1,0E0,8.088412E1,1.0270536E2,0E0,0E0,0E0,0E0,0E0,0E0,0E0,0E0,0E0,0E0],"parents":[2147483647,0,0,1,1,2,2,3,3,4,4,5,5,6,6,7,7,10,10,11,11,13,13,14,14],"right_children":[2,4,6,8,10,12,14,16,-1,-1,18,20,-1,22,24,-1,-1,-1,-1,-1,-1,-1,-1,-1,-1],"split_conditions":[-1.9761637E-1,-4.9159187E-1,-8.2075045E-2,1.3007022E0,-3.2023883E-1,2.6663361E-2,-2.827202E-2,-7.4348286E-2,2.9691502E-2,1.10459365E-1,2.6848414E0,-6.094233E-3,-1.399598E-1,-2.4655488E-4,2.2864833E-2,-8.8435784E-2,-2.1864323E-2,1.3413542E-2,7.603594E-2,1.3839615E-2,-4.2331357E-2,2.2295149E-2,6.638975E-4,-4.140955E-3,3.0426366E-2],"split_indices":[15,10,28,16,15,13,28,1,0,0,16,4,0,21,13,0,0,0,0,0,0,0,0,0,0],"split_type":[0,0,0,0,0,0,0,0,0,0,0,0,0,0,0,0,0,0,0,0,0,0,0,0,0],"sum_hessian":[9.8E2,1.1E2,8.7E2,6E0,1.04E2,1.7E1,8.53E2,5E0,1E0,5E0,9.9E1,1.5E1,2E0,1.1E2,7.43E2,4E0,1E0,9.4E1,5E0,5E0,1E1,5.8E1,5.2E1,7.3E2,1.3E1],"tree_param":{"num_deleted":"0","num_feature":"37","num_nodes":"25","size_leaf_vector":"1"}},{"base_weights":[-1.808531E-2,2.3497975E-2,-3.1546326E0,9.7042374E-2,-7.837227E-3,-8.938263E0,4.090102E-1,8.6079496E-1,-1.5398198E-1,-2.8324468E-2,-1.2703149E-1,-1.373817E-2,1.3382607E0,1.8813284E-2,-1.0357948E-2,-8.349436E-3,9.1695454E-4,-1.3856058E-3,2.0848546E-2],"categories":[],"categories_nodes":[],"categories_segments":[],"categories_sizes":[],"default_left":[0,0,0,0,0,0,0,0,0,0,0,0,0,0,0,0,0,0,0],"id":65,"left_children":[1,3,5,-1,7,9,11,13,15,-1,-1,-1,17,-1,-1,-1,-1,-1,-1],"loss_changes":[1.2958907E2,2.353915E2,2.7159616E2,0E0,1.2428577E2,1.4767822E1,1.3967346E1,1.500008E2,9.6244446E1,0E0,0E0,0E0,2.8871098E0,0E0,0E0,0E0,0E0,0E0,0E0],"parents":[2147483647,0,0,1,1,2,2,4,4,5,5,6,6,7,7,8,8,12,12],"right_children":[2,4,6,-1,8,10,12,14,16,-1,-1,-1,18,-1,-1,-1,-1,-1,-1],"split_conditions":[1.8153327E0,-6.4169675E-2,-1.176967E-1,9.7042374E-2,-8.190338E-1,1.5207508E-1,2.0196887E-2,1.3001113E0,-9.804547E-2,-2.8324468E-2,-1.2703149E-1,-1.373817E-2,-5.2575115E-2,1.8813284E-2,-1.0357948E-2,-8.349436E-3,9.1695454E-4,-1.3856058E-3,2.0848546E-2],"split_indices":[14,21,3,0,34,8,12,14,36,0,0,0,1,0,0,0,0,0,0],"split_type":[0,0,0,0,0,0,0,0,0,0,0,0,0,0,0,0,0,0,0],"sum_hessian":[9.92E2,9.8E2,1.2E1,3E0,9.77E2,4E0,8E0,1.4E2,8.37E2,1E0,3E0,3E0,5E0,1.02E2,3.8E1,2.58E2,5.79E2,1E0,4E0],"tree_param":{"num_deleted":"0","num_feature":"37","num_nodes":"19","size_leaf_vector":"1"}},{"base_weights":[-3.1754926E-2,2.6576001E-2,-4.4714365E0,8.845437E-2,-8.810613E-3,-9.975853E0,2.1580504E-1,3.539645E-2,-3.5999002E0,-2.8145496E-2,-1.400225E-1,1.7723002E0,-5.9841007E-1,-5.4669276E-2,9.0236036E-4,-6.656929E-2,-1.332143E-2,2.6682833E-2,6.9126426E-3,3.0194444E-3,-1.360796E-2],"categories":[],"categories_nodes":[],"categories_segments":[],"categories_sizes":[],"default_left":[0,0,0,0,0,0,0,0,0,0,0,0,0,0,0,0,0,0,0,0,0],"id":66,"left_children":[1,3,5,-1,7,9,11,13,15,-1,-1,17,19,-1,-1,-1,-1,-1,-1,-1,-1],"loss_changes":[2.5960748E2,2.443424E2,3.3755966E2,0E0,1.5665643E2,2.6663391E1,1.1199138E1,1.5343127E2,4.5397156E1,0E0,0E0,9.168339E-2,2.6608145E0,0E0,0E0,0E0,0E0,0E0,0E0,0E0,0E0],"parents":[2147483647,0,0,1,1,2,2,4,4,5,5,6,6,7,7,8,8,11,11,12,12],"right_children":[2,4,6,-1,8,10,12,14,16,-1,-1,18,20,-1,-1,-1,-1,-1,-1,-1,-1],"split_conditions":[1.8153327E0,-1.882718E-1,-6.655322E-2,8.845437E-2,1.2210162E-1,1.5207508E-1,-3.440986E-2,-1.1181395E-1,2.3971697E-2,-2.8145496E-2,-1.400225E-1,-2.485252E-2,-1.2992153E-2,-5.4669276E-2,9.0236036E-4,-6.656929E-2,-1.332143E-2,2.6682833E-2,6.9126426E-3,3.0194444E-3,-1.360796E-2],"split_indices":[14,6,6,0,29,8,6,29,12,0,0,1,24,0,0,0,0,0,0,0,0],"split_type":[0,0,0,0,0,0,0,0,0,0,0,0,0,0,0,0,0,0,0,0,0],"sum_hessian":[1.001E3,9.89E2,1.2E1,4E0,9.85E2,5E0,7E0,9.74E2,1.1E1,1E0,4E0,2E0,5E0,7E0,9.67E2,6E0,5E0,1E0,1E0,2E0,3E0],"tree_param":{"num_deleted":"0","num_feature":"37","num_nodes":"21","size_leaf_vector":"1"}},